sent_0 0.386196 0.380115 -0.423948 0.142392 -0.284116 -0.171416 -0.006947 -0.643364 0.293735 -0.010058 0.648295 0.598116 0.230282 -0.291173 -0.120664 -0.167656 0.042796 -0.114824 -0.247568 -0.360029 0.194292 -0.689743 0.476971 -0.204110 -0.753504 -0.319300 -0.107084 0.004990 0.336796 0.111457 -0.016387 0.144170 -0.112188 -0.012343 -0.099100 -0.063819 -0.591569 -0.168769 0.637196 0.263551 0.305968 -0.264325 -0.039793 0.064945 -0.574632 -0.940815 0.365136 0.063267 0.351902 0.426818
sent_1 0.407080 0.162531 -0.262088 0.013958 -0.297331 -0.055043 0.429645 -0.277299 -0.131243 0.114764 -0.364842 0.126430 0.068687 -0.481422 -0.268886 0.012284 0.253151 0.815902 -0.829836 -0.268245 0.409971 -0.473689 0.637892 -0.087555 0.068806 0.082949 0.067839 -0.121769 -0.063843 -0.054486 -0.059066 0.103799 -0.146230 0.146684 -0.002349 -0.119183 -0.361293 0.683778 0.392790 0.248374 0.310408 -0.096800 -0.437175 -0.209662 -0.563678 -0.133575 0.271182 0.379044 0.201981 -0.210985
sent_2 0.080587 0.116699 -0.038036 0.081269 -0.216866 -0.075009 0.205878 -0.295829 -0.010729 0.079943 -0.598061 0.010631 0.146101 -0.184043 -0.342060 -0.041184 -0.015313 0.573721 -0.737551 -0.130822 -0.102178 -0.191705 0.402348 -0.141443 -0.123631 -0.040536 -0.197137 0.015280 0.205260 0.168806 -0.001381 0.156634 0.017465 0.056464 0.102815 0.021591 -0.083022 0.331374 0.188801 0.205852 0.095039 -0.140613 -0.141977 -0.355337 -0.258488 -0.390369 0.117409 0.117163 -0.015110 -0.032827
sent_3 -0.262936 -0.599384 0.205229 0.101459 -0.195335 -0.429868 0.087405 -0.379298 -0.019785 -0.401280 -0.098149 -0.060567 0.262060 -0.596483 -0.920932 -0.865915 0.445802 0.993220 -0.631835 -0.210004 0.388906 -0.515093 0.699404 0.645289 -0.593201 0.013533 0.123419 -0.163458 0.219839 -0.104227 -0.193490 0.695745 0.640123 -0.238742 -0.133325 0.023138 -0.526547 0.904982 0.292569 -0.053592 0.867039 -0.613291 0.144176 -0.392305 -0.720387 0.126590 0.512414 -0.120791 0.035086 -0.236817
sent_4 0.105408 0.216950 -0.171858 -0.045769 -0.324794 -0.449500 0.166056 -0.374828 -0.205757 0.231950 -0.653174 -0.300714 -0.036108 -0.319712 -0.527107 -0.121950 -0.392003 0.721826 -0.992044 -0.452797 0.109486 0.086473 0.493178 -0.490917 -0.201386 -0.099926 -0.145708 0.218937 0.437716 0.157054 -0.238091 0.295332 -0.119334 0.007179 0.442511 0.263790 -0.043898 0.100044 0.175272 0.365473 -0.024599 -0.220265 -0.025448 -0.778101 -0.027800 -0.419093 0.097347 0.128269 -0.052294 -0.226064
sent_5 -0.111424 -0.074870 0.157722 0.126357 -0.258276 -0.129019 0.392986 -0.740740 -0.107736 0.476947 -0.570084 0.243720 0.347554 -0.132049 -0.129515 -0.036857 0.038041 0.122894 -0.854568 -0.130530 -0.118465 -0.144611 -0.022804 0.389727 -0.200503 -0.323276 -0.437014 0.051585 0.820539 0.119430 0.016988 -0.095278 0.261700 -0.299767 -0.337166 -0.049033 -0.081755 -0.157059 0.448576 0.116407 0.139426 -0.150696 -0.203893 -0.305806 -0.222518 -0.152125 0.421899 0.061822 0.413216 0.312910
sent_6 0.131834 -0.052917 -0.352698 -0.032063 -0.212692 -0.432568 0.296894 -0.335535 0.103753 0.251706 -0.309585 0.243147 0.196451 -0.593872 -0.100013 -0.023277 0.192104 0.423354 -1.107118 -0.235452 0.011648 -0.507436 0.670102 0.294687 -0.365281 -0.189838 -0.319554 -0.105070 0.154718 0.221005 -0.054806 -0.372583 0.479524 -0.300415 -0.495954 -0.025152 -0.275719 0.433207 0.609707 0.562171 -0.018070 -0.107533 -0.388264 -0.400129 -0.841647 -0.131566 0.587440 0.370352 0.756537 0.262989
sent_7 0.703247 -0.061337 0.230921 -0.033129 -0.436542 0.005359 1.321961 0.572891 0.884506 -0.126789 0.421816 -1.110825 -0.091230 0.477014 0.104183 0.276166 0.059725 -0.122029 -0.232823 -0.583822 0.539630 0.522288 0.731249 -0.498964 0.530759 0.849057 0.071168 0.441118 0.020238 0.031723 1.433619 -0.233453 0.804042 0.104341 1.083953 0.508138 0.819106 -0.073396 -0.626196 0.421651 0.674691 0.164732 0.670921 -1.686287 0.228724 -0.581859 0.315632 -0.162699 -0.044692 -0.276047
sent_8 0.199688 0.535377 -0.057436 0.276986 -0.304745 -0.812324 -0.434588 0.104548 0.421819 0.195423 0.515851 -0.165128 0.238434 -0.494031 -0.276036 0.486790 0.375905 0.820946 -1.233573 0.358447 0.259961 -0.317070 0.859049 0.031049 -0.227250 -0.234035 0.055346 0.413160 0.996085 -0.306795 -0.046165 0.211389 -0.188169 -0.360200 -0.130293 -0.502634 -0.034679 0.144432 -0.108351 0.044896 0.138865 -0.753525 0.963180 0.319382 0.033849 -0.692386 0.472686 -0.415624 -0.541161 0.017978
sent_9 0.116694 -0.083859 -0.017448 -0.014483 -0.085560 -0.344626 0.183317 -0.205280 0.039994 0.068543 -0.735845 0.166129 0.187549 -0.206682 -0.331675 -0.107408 0.247287 0.677253 -0.714736 0.245323 0.131884 0.008026 0.126558 0.263008 -0.265681 0.124119 -0.204510 0.105585 0.129172 0.269909 -0.041315 0.099463 0.141988 0.087090 0.035579 0.086026 -0.231586 0.346415 0.260710 0.375015 0.165095 0.072454 -0.381301 -0.638806 -0.139382 -0.183146 0.098035 0.162334 0.222330 0.028788
sent_10 -0.859129 0.936849 -0.552525 0.459277 -1.206839 -0.789165 -0.544699 0.487146 0.226117 -0.107217 0.042634 0.377987 -0.568375 -0.635818 0.614793 -0.256015 -0.038176 0.624718 -0.898345 0.452786 -0.143957 -0.373749 1.060397 -0.008447 0.870295 0.420707 0.116173 -0.025575 -0.311174 -0.092393 -0.215990 0.795783 -0.323065 -0.228628 -0.554717 -0.901348 -0.912859 0.735015 1.565476 0.277298 1.092574 -1.744209 0.200045 0.187045 -0.176357 -0.308567 1.207709 0.657896 0.437477 1.032454
sent_11 0.803080 0.473840 -0.191444 0.670830 -0.154861 -0.299056 0.892763 0.327462 0.256934 0.223622 -0.417088 -0.318771 0.051769 0.004845 -0.182597 0.571199 0.419753 0.414496 -0.993179 -0.535938 -0.495579 0.058444 1.001593 -0.198457 -0.448774 0.416764 0.006354 -0.420993 0.686188 0.686219 0.188234 0.098385 -0.323497 -0.022682 0.051932 0.246776 0.265769 0.535742 -0.166469 0.158585 0.367381 0.272991 -0.449774 0.029735 -0.521321 -0.471237 0.593927 0.175210 0.753283 -0.419069
sent_12 0.141848 0.155822 -0.130650 0.179181 -0.416744 -0.306254 0.264823 -0.438515 -0.082392 0.078079 -0.647240 -0.055527 0.168879 -0.282988 -0.504820 -0.131416 -0.052143 0.340722 -0.893315 -0.286395 0.009160 0.165717 0.458907 -0.104615 -0.219937 -0.168234 -0.213081 0.076343 0.423059 0.136754 -0.053322 0.233609 0.075699 0.013105 0.065478 0.256908 -0.096216 0.184677 0.127049 0.164369 0.189933 -0.174317 -0.084117 -0.473493 -0.203155 -0.547106 -0.082750 -0.000516 0.051606 0.034666
sent_13 -0.703872 -0.396801 -0.242432 0.372796 -0.722772 -0.344676 0.465045 -0.092949 0.699916 0.275185 0.107908 0.460117 -0.323741 -0.656272 -0.005469 0.316423 0.288933 1.286811 0.020057 -0.820924 -0.061101 -1.128233 0.817130 -0.489767 0.068798 0.225492 1.264583 0.574813 -1.504174 0.366967 0.184787 0.855810 0.288314 1.017067 0.096571 -0.925520 0.068992 0.602465 1.222262 -0.012020 0.256401 -1.064953 -0.183530 0.624164 -0.743685 -0.005279 0.412808 -1.001879 0.408328 0.139543
sent_14 -0.447135 -0.058400 0.116779 0.033191 -0.036702 0.043192 0.239698 0.008795 -0.140624 0.055869 -0.038688 0.182276 -0.197147 -0.240992 -0.074636 0.009042 -0.148751 0.146708 0.031441 -0.208769 -0.046053 -0.299850 0.013320 -0.045274 -0.032802 0.095505 0.124971 0.142621 0.082388 0.074099 -0.242901 0.068460 0.126410 0.137277 0.118917 0.050847 -0.222269 0.109286 0.090152 0.035733 -0.041492 0.077607 -0.069482 0.031819 -0.281328 -0.101117 0.228519 -0.104949 -0.046433 0.006748
sent_15 -0.232195 0.372021 -0.257478 0.508287 -0.097701 -0.073844 -0.125193 0.010418 0.168325 -0.128061 0.042312 0.344283 0.436390 -0.005385 -0.079096 0.669102 -0.057251 0.220416 -0.205498 -0.623897 -0.527975 -0.175368 0.370039 -0.126152 0.175055 0.438218 0.558374 0.012865 0.491271 0.618572 0.152778 0.437341 -0.396166 0.451212 0.668248 0.204569 0.132926 0.037193 0.394026 0.238543 0.112530 0.519915 -0.145505 -0.203949 0.236305 -0.581527 0.209243 -0.093899 0.660465 0.371670
sent_16 -1.327544 0.273927 -0.959832 -0.531839 0.478629 0.541154 -0.194119 -0.160302 -0.267855 0.688724 -0.297294 -0.262419 -0.097347 -0.008765 0.123918 0.377737 0.347737 0.425780 0.174911 -0.030067 -0.162320 0.014018 0.662530 -0.095594 -0.253007 0.141381 -0.074684 -0.446846 -0.022049 0.334472 0.008286 0.621888 -0.976038 0.090042 0.900088 0.303507 0.305568 -0.088747 0.846149 -0.096278 -0.079224 -0.185517 0.546992 0.622709 -1.343045 -0.653539 0.412387 -0.559045 0.134997 -0.043044
sent_17 -0.772344 0.085378 0.152787 0.148610 0.231784 0.464217 0.477980 -0.027912 0.536588 -0.083437 0.300966 0.060301 -0.070211 -0.535337 -0.189134 -0.040254 -0.823026 -0.207824 0.395778 -0.136132 0.157536 -0.391187 0.207074 0.002471 0.332488 -0.002472 0.708913 0.665943 0.370409 -0.272804 0.518091 0.113715 -0.182917 0.238744 -0.015796 0.388858 -0.895128 -0.305728 -0.383113 -0.597526 1.149240 0.552458 0.157131 -0.401980 -1.431350 -0.036525 -0.388989 0.187908 -0.174648 -0.110693
sent_18 -0.121575 0.123715 0.006782 0.284360 0.250847 -0.012926 0.370342 -0.157484 -0.168610 -0.276674 -0.023126 0.193498 -0.109440 -0.081473 -0.109435 0.255234 -0.106991 0.081340 0.173421 -0.131886 -0.127581 -0.185687 0.045199 -0.048172 -0.164901 -0.094536 0.054290 0.071552 0.121183 0.118326 -0.014830 0.238424 -0.013410 0.180886 -0.112205 0.138059 0.041414 -0.114028 0.028357 0.163091 -0.160936 -0.031017 -0.162443 -0.175991 0.079855 -0.161971 0.244123 0.025133 -0.040052 0.041488
sent_19 -0.119342 0.132522 -0.067310 0.181845 -0.013715 0.147542 0.231021 0.021607 -0.183481 -0.074341 -0.040431 0.262703 -0.142158 -0.033706 -0.029640 0.141360 -0.158260 0.166031 0.145844 -0.121484 -0.057458 -0.171011 0.132949 -0.175244 -0.005408 -0.089853 -0.051035 0.182848 -0.028037 0.189006 0.028882 0.053488 0.137174 0.053380 -0.153268 -0.038642 -0.161252 -0.034392 0.074028 0.115433 0.042520 0.117517 0.034929 -0.042061 -0.217568 -0.136465 0.113782 -0.032956 -0.046915 -0.024950
sent_20 -0.117675 0.270883 -0.014228 0.150101 -0.188351 0.434671 0.473897 -0.620487 -0.152095 -0.277534 0.274565 0.248529 0.012964 0.131151 0.183803 -0.159087 -0.136411 0.055577 0.594687 -0.291025 -0.041281 -0.068677 0.041864 -0.227870 -0.565011 -0.065788 -0.169147 0.299030 -0.153926 -0.212352 0.066491 -0.072491 -0.217743 0.275193 -0.380521 -0.173081 -0.112240 0.029086 0.389643 0.010222 0.016483 0.183895 -0.155929 -0.036373 -0.514324 -0.025587 0.385219 0.237270 -0.278527 0.371331
sent_21 0.108019 0.063203 -0.041085 0.110974 -0.043754 -0.135623 0.007481 -0.284534 0.346923 -0.308272 0.151875 0.371217 -0.200091 -0.385471 -0.272466 -0.121669 -0.322861 0.280027 0.015684 -0.728402 -0.314460 -0.276690 0.322262 0.256773 0.411718 -0.226747 -0.470786 -0.029822 -0.223195 -0.194760 0.542129 0.499939 -0.033860 -0.056169 -0.027219 -0.360264 -0.325191 0.802673 0.061044 0.153481 0.025302 -0.283914 0.144375 -0.261770 -0.403321 -0.061157 0.120363 0.188334 0.030678 0.023656
sent_22 0.223595 0.084697 0.274014 0.295578 0.364134 -0.368365 0.137629 0.107452 -0.244997 0.340838 -0.577553 -0.036734 -0.077809 -0.123638 -0.567550 -0.462659 0.095581 0.783652 0.250564 0.173235 -0.269171 -0.210273 0.144255 0.306063 0.225018 0.236446 0.204656 0.720333 0.490975 0.115379 -0.250087 -0.069002 0.211261 0.188253 0.081272 0.133626 0.408600 -0.005117 0.254914 0.550563 0.168955 0.450366 -0.203719 -0.479386 -0.324201 -0.073088 0.368025 -0.056882 0.713593 0.495115
sent_23 -0.451669 0.336277 -0.400090 0.576792 -0.282668 0.236516 0.133114 0.014871 -0.153797 0.004946 0.141948 0.342200 0.042549 -0.456443 -0.087540 0.352557 0.084184 0.502636 -0.113349 0.160473 -0.341161 -0.418292 0.185676 0.287115 0.198466 0.315959 0.240798 -0.068998 -0.341021 0.697949 -0.085555 0.584861 -0.653865 -0.013809 0.316257 0.339149 -0.386015 0.019184 0.114697 0.194438 -0.182244 -0.602111 0.206747 0.261431 -0.625798 -0.257709 0.018105 -0.415973 0.063784 0.004745
sent_24 -0.046233 0.115355 -0.060763 0.132854 0.115209 -0.026806 0.340906 -0.085612 -0.210749 -0.260114 -0.199531 0.075484 -0.014718 -0.039343 0.067998 0.127430 -0.150786 0.030692 0.061115 -0.149576 0.028937 -0.191116 0.052929 0.006162 -0.148368 -0.168292 -0.179052 0.091515 0.036660 0.010543 0.233074 0.086398 0.045961 0.041539 -0.067404 0.084873 0.012203 0.035386 0.062853 0.060651 0.003690 0.087431 -0.089309 0.008794 -0.037582 0.023154 0.091086 -0.025413 0.085234 0.058425
sent_25 -0.842392 0.303659 0.570869 0.206721 -0.274465 -0.094163 -0.599079 -0.015963 -0.340730 0.335033 0.237096 -0.593673 -0.154803 0.893582 -0.278668 0.324546 -0.443800 0.200546 -0.225628 -0.233110 -0.838833 -0.022092 -0.558248 0.029815 0.529474 0.970359 0.076981 0.317149 -0.281821 0.701716 -0.189799 -0.316874 -0.678611 0.295771 0.394366 0.096270 1.178159 0.843299 -0.662612 -0.136837 0.258337 -0.075151 0.061940 -0.368338 1.393620 0.771936 -0.131153 -0.286335 -0.424754 -0.405454
sent_26 -0.487462 0.941099 0.288235 0.205924 0.757260 1.289624 -0.676978 0.126215 0.539758 0.163342 0.652505 -0.730755 -0.032027 1.468148 -0.093615 0.196506 -1.488317 0.312719 -0.614357 -0.152226 -0.847010 1.142065 0.609722 1.044627 1.648496 1.052667 0.458094 1.302068 0.092570 -0.314936 -0.766933 -0.420019 -1.203284 0.534128 -0.024407 0.639997 0.857572 1.283875 0.179614 -0.345916 0.741046 -0.474746 0.874968 -0.201460 0.526680 0.914305 -0.284299 -0.103412 0.468028 0.465461
sent_27 -0.243237 -0.058242 0.191781 0.401650 -0.160610 0.100946 -0.224027 -0.165869 -0.016391 0.422508 0.062970 -0.333206 -0.149467 0.316979 -0.043172 0.020300 -0.445744 0.038923 -0.278640 -0.350161 -0.550221 0.235212 -0.209381 -0.037103 0.431103 0.309998 -0.106571 0.499187 0.155114 0.217624 -0.269303 -0.341768 -0.674983 0.580851 0.274862 -0.119298 0.683718 0.152010 -0.218301 -0.171011 -0.162238 -0.234796 -0.101132 -0.148322 0.651402 0.316591 -0.261466 -0.188986 -0.048867 -0.060612
sent_28 -0.659091 0.047034 -0.114828 0.109914 -0.101496 -0.040870 -0.714797 -0.112882 0.191030 -0.030038 -0.414814 -0.971388 0.117468 0.458190 -0.450335 -0.095440 -0.375033 0.594102 -0.510454 -0.575236 -0.711542 0.532131 -0.513768 -0.362858 1.025393 0.454313 -0.054713 0.755930 0.586696 0.549565 -0.321926 -0.343070 -0.793270 0.370546 0.587626 -0.005063 0.539283 0.625200 0.131512 -0.094963 0.086718 0.039022 0.375759 0.056957 0.521425 0.818667 0.286421 -0.440972 -0.249635 -0.453331
sent_29 0.028481 0.330809 0.516493 0.306459 0.542826 0.481374 -0.536541 -0.476655 0.407862 -0.070868 0.139785 -0.576223 0.351864 0.238815 -0.030365 0.051156 -0.621106 -0.107517 -0.144466 -0.435364 -0.374049 -0.084999 0.104637 -0.069566 0.477235 -0.212284 -0.069691 0.250796 0.894196 0.037511 -0.846944 -1.316110 -1.471201 0.428884 0.117851 -0.165213 -0.294107 0.438780 -0.102692 -0.254007 0.179734 0.265827 0.340289 0.289730 -0.027462 -0.041411 -0.153728 0.150593 -0.603401 -0.541631
sent_30 -0.348543 0.165239 0.409661 0.376872 -0.196109 0.030550 -0.291117 -0.043923 0.134266 0.421311 0.241784 -0.286140 -0.375097 0.166259 0.038028 0.032319 -0.317228 0.446973 -0.076467 -0.657204 -0.376849 0.287764 0.289423 -0.050274 0.549494 0.539290 -0.111572 0.747021 0.077465 0.047139 -0.419763 -0.327989 -0.214710 0.544408 0.302097 -0.086753 0.474382 0.437653 -0.075143 0.118639 -0.093235 -0.498947 0.015998 -0.282818 0.710899 0.367583 -0.347900 0.079455 0.004378 0.101531
sent_31 -0.278806 -0.050848 0.507338 0.277825 -0.233224 -0.031209 -0.362802 -0.271407 -0.067895 0.383978 -0.099896 -0.041247 -0.424121 0.284715 0.045884 -0.388222 -0.464270 0.239268 -0.038797 -0.282790 -0.598766 0.384131 0.160439 -0.122868 0.313097 0.251455 -0.176413 0.055007 0.275512 -0.102131 -0.295104 -0.112514 -0.174427 0.517356 0.038677 -0.067799 0.464603 0.139223 -0.021384 0.114378 -0.265471 0.013020 -0.283540 -0.294942 0.717868 0.243701 -0.245782 -0.164716 0.103694 -0.024279
sent_32 -0.464058 0.552791 0.248234 0.195809 -0.395814 0.327832 0.006067 -0.324147 0.537910 -1.180929 -0.053974 -0.146833 -0.440335 0.263342 0.517110 -0.038477 -0.737843 -0.036897 0.011583 -0.412217 -0.886026 0.521753 -0.109175 0.123442 1.183118 1.156453 -0.417347 0.485580 -0.229601 0.095277 -0.443824 -0.734801 -0.967551 0.645842 0.422046 0.203376 0.423396 0.876796 -0.114324 -0.815491 0.444445 -0.689534 -0.320981 0.140077 0.002304 0.982222 -0.191727 -0.204631 -0.272007 -0.263100
sent_33 -0.023813 0.746638 0.389210 0.522762 -0.432286 0.388226 0.657237 0.314283 1.389693 -0.384821 0.828067 -0.554990 0.025480 0.115644 0.184424 0.598893 -0.821327 0.462205 -0.685941 0.348628 -0.273672 0.684808 -0.204462 0.333483 0.970885 0.863831 -0.784417 1.196081 0.227409 -0.325035 -0.021031 -0.899564 -0.720780 0.487078 -0.255567 -0.171754 0.306998 1.593428 0.552516 -0.279517 1.022540 -1.308342 -0.438299 0.491944 -0.666432 0.745332 0.552766 -0.437805 -0.316453 -0.163485
sent_34 -0.867098 0.541775 -0.151685 0.272938 -0.248593 -0.254599 -0.208916 -0.116196 -0.401413 0.497164 1.507830 -0.509944 -0.500113 0.665651 0.015944 0.013659 0.741041 0.241125 -0.094280 -0.779414 0.036855 0.416686 -0.332663 -0.485747 0.652191 1.335758 -0.824082 0.947385 -0.048609 -0.085030 -0.861701 -1.222917 -0.619897 0.531237 0.252436 0.964435 -0.450858 -0.001052 -0.111577 0.415625 0.038770 0.061217 -0.234196 0.310976 0.358015 -0.054116 -1.908183 -0.575418 -0.371690 0.288814
sent_35 -0.547981 0.092514 0.227346 0.311164 -0.116170 0.220535 -0.303775 -0.304547 0.043342 0.201355 -0.092425 -0.241468 -0.205099 0.333877 0.024859 0.126554 -0.313874 0.396068 -0.099628 -0.282433 -0.607943 0.357551 0.035957 -0.057772 0.578353 0.451118 -0.056015 0.525111 0.114756 0.020364 -0.250433 -0.294747 -0.459851 0.424170 0.131336 -0.037217 0.582499 0.350324 -0.138080 -0.121098 -0.014701 -0.141357 -0.086616 -0.108442 0.796585 0.463097 -0.245113 -0.021032 -0.036028 -0.111105
sent_36 0.195157 0.044460 0.053604 -0.048373 0.044893 -0.096712 0.498333 -0.449701 -0.219779 0.254603 -0.069240 -0.360791 0.040413 -0.333660 -0.399983 -0.208447 -0.460458 -0.186408 -0.080931 0.048185 0.226930 0.405300 -0.137385 0.027278 0.481554 -0.279163 0.338068 0.754233 0.513916 -0.441496 0.118737 0.513403 0.422027 0.252241 0.185267 -0.204507 0.159902 0.239058 0.214999 -0.148935 -0.084117 0.176437 0.079423 -0.099689 -0.164605 0.282099 0.477961 0.121966 0.219454 -0.104347
sent_37 -0.131936 0.104592 0.345898 -0.067169 -0.290940 0.000660 0.757562 -0.315008 -0.097324 -0.083514 0.035094 -0.179134 0.038638 -0.188142 0.078585 -0.091444 -0.161978 -0.660699 -0.159788 0.212495 0.382454 0.664368 -0.265944 1.020347 0.144528 -0.204598 0.796333 0.113160 0.667465 -0.827977 0.336939 0.162608 0.540061 0.302186 -0.006368 -0.405605 0.090945 0.461881 0.103022 -0.527550 0.431267 -0.165927 -0.281853 0.065752 -0.271115 0.412276 0.818838 0.140817 0.231854 -0.230853
sent_38 -0.106743 -0.046639 0.209941 0.179257 0.053542 0.198320 0.764367 -0.207535 -0.200927 0.178036 -0.371836 -0.122074 -0.012331 -0.084995 -0.198816 -0.072145 -0.104293 -0.203338 0.047220 0.076254 0.128799 0.213900 0.010619 0.448165 0.302310 -0.080148 0.186657 0.403712 0.287812 -0.340556 0.039991 0.194736 0.176006 0.136079 0.017495 -0.155780 -0.072870 0.053808 0.151565 -0.110960 0.261960 0.018959 0.200010 0.056248 -0.359631 0.158626 0.344270 0.093732 0.134029 -0.195567
sent_39 0.010233 -0.311461 0.077680 0.110732 0.265324 -0.087849 0.276663 -0.493783 -0.328660 0.127085 -0.208425 0.351633 0.230061 0.387253 -0.393741 0.097777 0.350437 0.467221 -0.318715 -0.496876 -0.025078 -0.237990 0.398318 0.354316 0.177203 -0.347474 0.100727 0.390918 0.704711 -1.022312 -0.170312 -0.200542 0.106693 -0.004187 -0.403252 -0.602347 -0.345233 0.290511 0.989582 0.251326 0.606487 0.212116 0.548966 0.140543 -0.416522 0.193779 0.829959 0.238916 0.721330 0.148373
sent_40 -0.143176 0.016596 0.267138 0.235314 0.127001 -0.077266 0.578037 -0.031655 -0.200083 0.251955 -0.186164 -0.414755 0.048620 0.078691 -0.203087 -0.198142 0.006697 -0.123101 -0.159131 -0.136509 -0.073020 0.339526 0.040847 0.597805 0.300757 -0.358448 0.276576 0.644228 0.529347 -0.398072 0.045448 0.359581 0.071409 0.099591 0.031820 -0.314841 -0.179147 0.027763 0.436357 -0.104746 0.070233 -0.167221 0.216398 0.110768 -0.471934 0.195113 0.357412 0.042760 0.080106 0.132416
sent_41 -0.266887 -0.121349 0.401155 0.383617 -0.005341 -0.214882 0.605025 -0.222012 -0.450412 0.326172 -0.385493 -0.078888 -0.081782 -0.200170 -0.013049 -0.327932 -0.254315 -0.471967 0.255788 0.143568 0.149174 0.385508 -0.042471 0.554701 -0.116803 -0.065515 0.139399 -0.100722 0.233309 -0.390207 0.319452 0.030762 0.529719 0.157680 -0.235360 -0.252432 -0.213199 -0.212723 0.287889 -0.023868 -0.008860 0.032924 -0.048843 -0.063991 -0.240613 -0.119975 0.632371 0.439255 0.080461 -0.213305
sent_42 -0.623195 -0.108421 0.335628 0.576193 0.357671 -0.092177 0.295371 -0.712651 -0.187673 0.658899 0.395270 -0.310362 0.202766 0.005518 -0.025765 -0.125156 0.256525 -0.283083 -0.256655 0.195284 1.143108 -0.337888 0.215969 0.524826 -0.097622 -0.287061 0.769106 0.999883 1.098329 -0.339074 0.410139 -0.033389 0.807057 -0.169486 -0.355470 0.019565 -0.723847 -0.274923 0.109723 0.086121 0.549015 0.418610 0.717240 -0.041555 -0.878045 0.467531 0.870675 -0.411182 -0.207324 -0.418266
sent_43 0.003563 0.057478 0.283892 0.157689 -0.060236 0.077696 0.664949 -0.245127 -0.250291 0.197235 -0.158411 -0.139231 -0.053161 0.016079 -0.085879 -0.155382 -0.119967 -0.188800 -0.117431 -0.135489 0.096940 0.284891 -0.283909 0.341232 0.209811 -0.167346 0.236464 0.480145 0.348649 -0.340927 0.120687 0.206295 0.107998 0.227968 0.124422 -0.116955 -0.090647 0.162511 0.136661 -0.055582 0.171853 0.018942 0.184062 -0.106710 -0.268447 0.213644 0.325789 0.218424 0.143718 -0.218919
sent_44 -0.070026 -0.165745 0.335660 0.189567 -0.015146 0.082784 1.003503 -0.511646 -0.226489 0.061217 -0.251143 -0.166563 0.189267 -0.107397 -0.049939 -0.216396 -0.123631 -0.097867 0.055232 -0.101028 0.161066 0.242587 0.028682 0.656573 0.313658 -0.084792 0.004467 0.235649 0.152917 -0.462133 0.301397 0.259829 0.173284 0.209358 0.133769 -0.230009 -0.071315 0.093594 0.214469 -0.299677 0.179803 0.262442 0.281285 -0.044509 -0.404278 0.295041 0.206422 0.203772 -0.033841 -0.119671
sent_45 -0.231345 -0.000635 0.011386 -0.098869 0.093444 0.110427 0.633563 0.261411 -0.367777 -0.071080 -0.344365 -0.051286 -0.070808 -0.279912 0.028361 -0.139656 -0.229394 -0.689774 0.018836 0.212914 0.310873 0.151584 0.138267 0.105661 -0.063848 -0.072473 0.095195 0.756965 0.467772 -0.436786 0.297891 0.232522 0.395925 0.335390 0.104625 -0.204005 0.112281 0.046500 -0.007261 -0.097203 0.221729 0.166420 0.024416 0.230453 -0.523090 0.425506 0.674292 0.134427 0.119582 -0.007344
sent_46 -0.187454 -0.018694 0.122626 0.016203 -0.066738 0.030674 0.622382 -0.071391 -0.255797 0.153176 -0.241295 -0.229060 -0.059757 -0.221679 0.032093 -0.132878 -0.136568 -0.316440 0.044013 0.066780 0.299935 0.173051 -0.015839 0.576219 0.029377 -0.000838 0.311729 0.357273 0.351376 -0.451450 0.086639 0.149737 0.248273 0.205454 -0.050460 -0.124708 0.046293 0.199251 0.111479 -0.166392 0.132599 0.150948 0.130271 0.104041 -0.229328 0.324993 0.330053 0.053343 0.064715 -0.143396
sent_47 0.090989 0.218119 0.446130 -0.168660 0.181494 -0.033380 0.878184 -0.250219 -0.473825 -0.031102 0.249784 -0.118280 0.032360 -0.268702 0.147537 -0.282389 0.399703 -0.303702 0.477995 -0.344659 0.310613 0.359263 0.136274 0.394254 0.206905 -0.125229 -0.032792 0.200845 0.697084 -0.181741 0.169042 0.348877 0.212825 0.225613 0.003334 -0.167445 -0.171597 0.054598 0.015464 -0.179575 0.322978 -0.252141 0.171444 0.281213 -0.424446 0.236577 0.285034 -0.131009 -0.096498 -0.164667
sent_48 -0.058957 -0.027500 0.276141 0.169989 0.213145 0.178068 0.566952 -0.079491 -0.121933 0.071529 0.072953 -0.280442 0.102138 -0.249746 -0.106303 -0.232555 -0.201065 -0.178233 -0.004242 0.175981 0.102056 0.109726 -0.117682 0.408626 0.073895 0.034645 0.458587 0.410168 0.355176 -0.203983 0.230617 0.160718 0.189780 0.254744 -0.043143 -0.205806 -0.151716 -0.266840 0.232975 0.105382 0.065144 0.175301 -0.003791 0.112565 -0.259516 0.271142 0.424586 0.023801 -0.004335 -0.205738
sent_49 -0.402299 0.205965 -0.413758 -0.250156 -1.086578 -1.140760 -0.253961 0.190142 -0.084372 -0.526192 0.989452 0.585814 -0.364796 0.383850 -0.256458 0.014521 -0.219736 -0.766387 0.076941 -0.425131 0.338335 -0.052010 -0.671367 0.417948 -0.377906 0.127844 0.829519 -0.221910 -0.409636 -0.482476 -0.057930 -0.021103 -0.151495 -0.670706 -0.076074 0.061061 0.224806 0.514468 -0.069841 -0.216511 0.676915 -0.281431 -0.005722 0.079913 0.240021 0.438776 -1.867441 -0.709679 -0.575802 -0.086918
sent_50 0.016575 -0.003287 -0.031411 -0.132039 -0.259694 -0.895603 -0.108626 -0.156323 -0.618913 -0.274012 0.766375 0.579746 -0.197652 0.282704 -0.280567 0.026858 -0.208420 -0.140401 -0.041291 -0.244739 0.426723 0.715646 -0.759621 0.233806 -0.522108 0.510901 0.433673 -0.252242 -0.698603 -0.289857 -0.346040 -0.399001 0.082891 -0.320147 -0.146611 0.249281 0.549129 0.729766 0.341505 -0.486351 0.630830 -0.338712 0.231164 -0.574248 0.092286 0.865299 -1.108565 0.148559 -0.614503 0.524093
sent_51 0.210419 -0.319658 0.054325 -0.083573 0.149002 -0.427428 0.080276 -0.552565 -0.146740 0.063785 0.689450 -0.088560 0.116885 0.308917 -0.032252 -0.298497 -0.306219 0.372406 -0.208690 0.000383 -0.134658 0.369511 -0.329727 0.140674 -0.308869 0.290227 0.354372 -0.402990 -0.439331 0.352560 0.129085 0.064441 0.163137 -0.425037 0.146497 -0.348525 0.753675 0.128027 -0.363371 -0.043161 0.180629 -0.236889 0.102495 -0.426051 0.044497 0.429674 -0.559635 -0.336474 -0.215524 0.536333
sent_52 0.210510 -0.310048 0.053514 0.059303 -0.345009 -0.388580 -0.182978 -0.529765 -0.171725 0.040194 0.541937 0.386603 0.130088 0.260641 -0.017085 0.148864 -0.490858 -0.492425 -0.503149 -0.176668 -0.009429 0.399298 -0.538797 0.256256 0.112050 0.540582 0.378412 -0.085652 -0.133445 -0.075318 -0.323168 -0.359775 0.011958 0.512270 0.290620 0.271358 0.929237 0.357074 -0.126539 -0.265082 0.391115 -0.393201 -0.240766 -0.202678 0.168032 0.385281 -1.201830 -0.323886 -0.277626 0.486146
sent_53 -0.046175 -0.314825 0.130219 0.205692 -0.486299 -0.559686 -0.425246 -0.074160 -0.023645 0.139634 0.835404 0.670321 0.187170 0.435866 0.243731 -0.025909 -0.402614 -0.232156 -0.286996 -0.195662 -0.117763 0.787771 -0.690176 0.167004 0.391334 0.546055 0.742550 -0.265155 -0.318539 -0.038759 -0.941582 -0.296107 -0.299794 0.644483 0.571001 0.366323 0.740390 0.970838 0.120871 -0.659915 0.613187 -0.609501 0.035422 -0.100147 0.373161 0.348149 -1.215224 -0.348467 -0.053171 0.339755
sent_54 -0.131694 -0.421107 0.089301 0.099844 -0.369719 -0.485389 0.232711 -0.504105 -0.631751 -0.067886 0.383234 0.429748 -0.181417 0.226964 -0.311855 -0.024894 -0.305272 0.260161 0.085112 -0.384525 0.201109 0.281274 -0.343083 0.195860 -0.169369 0.443445 0.568134 -0.001152 -0.589904 -0.174597 0.014924 -0.073023 0.236608 -0.311725 -0.043370 0.161990 0.657753 0.493344 0.147951 0.223260 0.458768 -0.112294 -0.020218 -0.593743 0.309383 0.753984 -0.599832 -0.378082 0.110552 0.406473
sent_55 0.285149 -0.001099 0.219727 0.102409 -0.942373 -0.507666 0.187525 -0.532784 -0.221279 0.023530 0.375340 -0.162081 0.249640 -0.139886 -0.723684 0.141750 0.057211 -0.027017 -0.552750 0.098000 0.167120 0.351537 -0.471698 -0.183552 -0.253097 0.161482 0.972279 0.037183 -0.409986 -0.136233 0.290685 -0.106633 -0.264771 0.026261 -0.137400 0.284812 0.113823 0.681595 0.072668 0.349297 0.775713 -0.391469 0.405275 -0.052264 -0.301999 0.165283 -0.350808 -0.688153 -0.018637 -0.272798
sent_56 0.508001 0.203305 -0.331376 0.534851 0.131062 -0.351839 -0.429953 0.516890 -0.861004 -0.233719 0.583117 0.399303 0.012285 0.223153 -0.315165 -0.704181 -0.478808 0.055701 0.233239 -0.076155 0.351903 0.115315 -1.255184 0.611192 -0.561250 -0.710979 0.547300 -0.285370 -0.518503 -0.125883 0.458324 0.271259 -0.136454 0.128918 0.153867 0.307132 0.614790 -0.371061 0.151693 -0.057651 -0.284176 -0.217684 0.529009 0.010589 0.600549 0.153661 -0.979620 -0.749475 0.139477 0.199854
sent_57 0.601072 -0.354746 0.011720 0.129955 0.458941 -0.343815 -0.321117 0.164168 -0.195245 -0.256644 0.578317 0.012289 -0.159060 0.339020 -0.625893 -0.166863 0.120856 -0.562591 0.396983 0.052050 0.309692 0.253578 -0.918822 0.480703 -0.774129 -0.855351 0.437936 -0.034928 0.065159 0.129783 0.471294 -0.492167 -0.035656 0.477964 -0.237597 0.377242 0.371292 -0.515071 -0.432575 0.260190 0.016167 -0.066020 0.266381 -0.435633 -0.336311 -0.213967 -0.607130 -0.728463 0.520786 0.455227
sent_58 0.303663 -0.817681 0.374210 -0.192546 -0.185357 -0.882058 -0.132363 -0.321885 -0.549919 0.118934 -0.020541 0.610183 -0.267422 -0.398098 -0.227688 -0.047063 0.710055 0.126994 0.046576 -0.042123 -0.029738 -0.409240 -0.550629 0.634373 -0.266178 0.298230 0.566517 0.391190 -0.417291 -0.034147 0.566808 -0.236719 -0.026979 -0.434265 -0.077061 0.106193 0.344455 0.464966 1.177744 0.207140 0.269505 -0.328036 -0.102609 -0.446518 -0.313503 0.199465 -0.775807 -0.330945 0.499309 0.436325
sent_59 0.131555 -0.104177 0.338534 0.159142 -0.414052 -0.648936 0.077791 -0.571874 -0.480725 0.325970 0.042707 0.695327 -0.101016 -0.456557 -0.267125 0.317909 0.136338 0.281571 -0.195283 -0.409698 0.123267 -0.150217 -0.233389 0.456817 -0.352831 0.648797 0.380965 0.091324 -0.542441 -0.300770 0.267884 -0.331138 0.123060 -0.438192 -0.277470 -0.154654 0.331673 0.150986 0.388686 0.305406 0.449260 0.130330 -0.611677 -0.484973 0.200373 0.342900 -0.290423 -0.262646 0.256556 0.400303
sent_60 -0.118911 -0.327937 0.345544 -0.584963 -0.143382 -0.541017 -0.382588 -0.375605 -0.283840 0.116618 0.403070 0.171929 -0.069039 -0.095520 -0.789557 0.446253 -0.002774 -0.222254 -0.494790 -0.022020 -0.031881 0.303948 -0.797126 -0.580182 -0.475070 0.381069 0.679525 -0.374702 -0.257637 -0.325189 0.236933 0.310858 -0.048545 0.539967 0.070386 0.541606 1.090579 0.117577 -0.299794 -0.180120 0.280684 -0.188539 -0.169772 -0.362541 1.149105 0.682137 -0.838357 -0.112039 -0.032284 0.521712
sent_61 0.005927 -0.114491 0.086631 -0.339033 0.390666 -1.405827 -0.563994 -0.314060 -0.503304 0.278310 1.216257 0.157118 0.020628 -0.249421 -1.042936 0.191880 0.104931 0.053070 -0.462574 0.051143 0.332621 0.262560 -0.989469 -0.515200 -0.107768 0.468239 0.659622 -0.763424 -0.572944 -0.809952 0.009883 0.070735 -0.200917 0.063994 0.506662 0.461745 0.607274 0.301554 0.176195 0.005628 0.046284 0.224822 -0.383749 -0.799250 0.783934 0.401962 -0.877759 0.028319 -0.060793 -0.320285
sent_62 0.563304 -0.075528 -0.167885 0.014906 0.137434 -0.355204 -0.152976 -0.687425 -0.100510 -0.056149 0.756538 0.446231 -0.277029 0.410462 -0.391541 0.067271 0.061786 -0.158492 0.207257 -0.092250 0.313399 0.571474 -0.998055 -0.043716 -0.206503 0.118293 0.436517 -0.143738 -0.319446 -0.161072 0.245347 -0.058213 -0.139981 0.020538 0.107246 -0.061425 0.515324 0.378940 -0.048000 0.270130 -0.143965 -0.594837 0.050841 0.018356 0.132560 -0.051416 -1.294250 -0.651057 -0.320492 0.135383
sent_63 -0.011368 -0.124345 0.037879 -0.277686 -0.506002 -0.727943 0.038518 -0.742974 -0.109557 -0.091505 0.573478 0.490939 -0.012790 -0.071408 -0.306156 0.179868 -0.111564 0.195532 -0.131405 -0.499566 0.080636 -0.008514 -0.475269 0.256360 0.091293 0.567611 0.384659 0.124057 -0.317777 -0.500004 -0.329785 0.040977 0.266023 0.338169 -0.113176 0.160494 0.614989 0.631263 0.524210 0.412165 0.584600 -0.494116 -0.114415 -0.602751 0.126312 0.340582 -0.877352 -0.081456 0.581222 0.613347
sent_64 0.166205 0.089725 0.585826 -0.278098 -0.673871 -0.357615 0.457236 0.858358 -0.281850 0.117356 1.004470 1.000420 0.256086 0.326878 -1.159525 -0.032634 -0.466734 -0.437936 -0.192192 0.242546 0.641863 -0.223694 0.219336 -0.055660 -0.631013 -0.249108 -0.362693 -0.152883 -0.809813 -1.526934 0.180071 0.362319 0.397095 -0.323097 0.054432 0.643104 -0.242666 0.434054 0.436855 0.166411 0.195267 -1.219557 -0.123384 0.209799 -0.636232 0.258122 0.156943 -0.284328 0.239216 0.141361
sent_65 -0.616903 0.020485 -0.394681 0.142532 0.473247 0.588495 -0.224842 -0.417645 0.286990 -0.564836 0.964923 -0.334218 0.409146 -0.091243 0.738384 -0.237260 -0.459237 -0.207530 -0.173771 -0.911836 0.197135 -0.327427 -0.384485 0.279964 0.162808 -0.259307 0.300631 0.089699 -0.430915 -0.070247 1.043750 -0.663336 -0.705448 -0.282351 -0.346012 0.268910 0.430850 0.392315 -0.247543 0.111498 0.314473 0.482547 0.030887 0.293684 0.095639 0.714129 -0.515130 0.278324 -0.797241 -0.518495
sent_66 0.421783 0.137978 0.052106 -0.457973 0.187417 0.105091 -0.065300 0.212840 0.436482 -0.183024 0.395603 -0.251380 -0.068810 -0.084925 -0.298888 -0.442921 -0.366540 -0.354039 -0.377762 0.144213 -0.117543 -0.077727 -0.653315 0.048824 -0.024243 0.059013 0.466498 0.364260 -0.074514 -0.032547 0.333946 0.279072 0.215678 0.541392 0.232144 0.484222 0.023313 0.436850 0.017855 0.138165 0.011745 0.285886 -0.324497 0.060586 0.778887 0.529509 -0.580318 0.387054 -0.174056 0.183460
sent_67 -0.058338 -0.062972 0.166114 0.095361 0.156480 0.181489 0.002850 -0.118882 0.150911 -0.199525 -0.131349 0.043641 -0.046282 0.119540 -0.007752 -0.155255 -0.078296 -0.024167 -0.004277 0.098537 0.032092 0.059964 -0.069870 -0.025798 -0.058450 -0.143176 -0.138134 0.010381 0.119416 -0.109924 0.043882 -0.079272 0.098461 0.053427 0.035774 -0.047492 -0.145793 -0.114169 0.062427 0.083938 -0.130864 0.028535 0.022955 -0.065077 0.191159 0.145390 -0.016653 0.091153 -0.031914 0.155941
sent_68 -0.216966 -0.276821 0.213615 0.209451 0.185819 0.404359 -0.135359 -0.084312 0.310436 -0.672175 -0.176991 0.191604 -0.161486 0.179180 0.116241 -0.225596 -0.325821 0.014535 -0.004270 0.108997 0.155849 0.055848 -0.133249 -0.035805 -0.080242 -0.288833 -0.280977 -0.059332 0.258907 -0.217042 0.098107 -0.218234 0.351924 0.111167 -0.094596 -0.025010 -0.464322 -0.143198 0.065438 0.112868 -0.263016 0.060339 0.141896 -0.066624 0.177566 0.299242 -0.107673 0.141852 -0.003284 0.130391
sent_69 -0.059295 -0.068938 0.122177 0.132223 0.207905 0.195243 -0.027314 -0.050627 0.204998 -0.251182 -0.136965 0.029440 -0.064418 0.126370 0.044224 -0.193649 -0.150320 -0.065229 -0.039362 0.062399 0.061189 0.094685 -0.086021 -0.039650 -0.093216 -0.198656 -0.161126 0.024842 0.168071 -0.146380 0.093059 -0.146826 0.162876 0.077265 0.018459 -0.035804 -0.167996 -0.135028 0.053880 0.099662 -0.128432 0.006862 0.051492 -0.031590 0.224691 0.190255 -0.004353 0.104339 0.013979 0.145229
sent_70 0.020375 -0.123847 0.318041 0.049165 0.255858 0.239725 -0.121502 -0.123734 0.231784 -0.259069 -0.164544 0.094347 0.025708 0.015498 -0.034983 -0.314540 -0.196318 0.021108 -0.030613 0.121062 0.120096 0.082203 -0.208255 0.105969 -0.130656 -0.246705 -0.098509 0.112296 0.268267 -0.196589 -0.052030 -0.273144 0.260831 -0.043151 -0.017171 0.033708 -0.150764 -0.085794 0.140325 0.180960 -0.099622 -0.053930 -0.036741 -0.169702 0.098352 0.205540 0.126260 0.187962 0.152853 0.207036
sent_71 -0.038077 -0.167763 0.295391 0.221667 0.210349 0.079071 -0.057869 -0.217659 0.019642 -0.302075 -0.190474 -0.026093 -0.037100 0.093058 0.023542 -0.183263 -0.177781 -0.208692 -0.080390 0.181156 0.146452 0.252219 -0.119131 0.004817 -0.397378 -0.355440 -0.217428 -0.008428 0.202559 -0.078203 0.217616 -0.146230 0.210489 0.099847 -0.070721 -0.026550 -0.146032 -0.218655 0.158514 0.221067 -0.210158 0.015797 0.122852 -0.222481 0.215058 0.197577 0.259088 0.177812 0.006367 0.185704
sent_72 0.110530 -0.167369 0.112675 0.163447 0.105120 -0.069504 0.028080 -0.061131 0.210985 -0.352990 0.112806 -0.034807 -0.053551 0.328929 0.140098 0.001881 -0.022047 0.029127 -0.074785 -0.033291 0.057890 0.218970 -0.023062 0.063097 -0.055623 -0.192562 -0.182839 -0.023709 0.184193 -0.102755 0.102399 -0.256143 0.024538 0.069837 0.111318 -0.055446 -0.227932 0.074989 0.027599 0.172617 -0.123483 0.038129 0.110679 -0.158936 0.318567 0.210980 -0.106525 0.054831 0.015299 0.333163
sent_73 -0.107190 -0.098306 0.046214 0.298088 0.296251 0.185148 -0.002075 -0.205268 0.097755 -0.296603 -0.226747 0.119798 -0.299309 0.124448 0.020526 -0.214485 -0.323280 -0.126601 0.146431 0.131933 -0.006498 0.201469 -0.029379 -0.148544 -0.086070 -0.487268 -0.189392 -0.118589 0.189498 -0.084743 0.203482 -0.093572 0.204990 -0.186978 0.080157 -0.093535 -0.113495 -0.185750 0.127144 0.252710 -0.125866 0.145491 0.234409 -0.057457 0.267408 0.105961 0.038268 -0.058530 0.130589 0.008900
sent_74 -0.042271 -0.117725 0.187695 -0.166312 0.085803 0.106651 -0.094564 -0.064302 -0.058750 -0.649497 -0.292677 -0.045662 -0.074098 0.129327 0.061805 -0.224053 0.106499 0.315478 0.221601 -0.092313 0.180537 -0.153693 0.042823 0.209040 -0.214075 -0.139616 -0.251399 -0.183562 0.367019 0.111349 -0.100831 -0.273420 0.319564 -0.066638 -0.123582 0.368108 -0.175688 0.152796 0.448070 0.082967 0.061922 0.040647 -0.137625 0.431690 0.036267 0.109644 -0.074986 0.004914 0.337282 0.403760
sent_75 -0.081488 -0.079751 0.176305 0.070938 0.160838 0.196429 0.018773 -0.047034 0.127249 -0.248928 -0.208475 0.042667 -0.078964 0.092943 0.055700 -0.162964 -0.091145 -0.004780 -0.019365 0.111413 0.087771 0.037015 -0.057218 -0.011856 -0.071436 -0.138400 -0.119971 0.005478 0.183258 -0.163711 0.060234 -0.097772 0.165168 0.079351 0.055334 -0.069100 -0.175855 -0.167197 0.029795 0.124239 -0.153058 0.044033 0.067497 0.010635 0.200495 0.140256 0.023073 0.127806 -0.022380 0.171949
sent_76 0.034345 -0.044666 -0.007515 0.323715 -0.158715 -0.058276 0.051604 -0.034729 0.141437 0.229661 0.215596 0.201688 0.132048 0.184362 0.096799 -0.110231 -0.140423 -0.146870 -0.085437 0.108892 0.081545 0.110376 -0.286526 -0.056767 0.284913 0.114547 0.648906 0.392253 -0.019222 -0.083079 0.192382 -0.137987 -0.480410 0.481083 0.429598 -0.121739 0.517393 0.170051 0.388407 -0.128454 0.288380 -0.074551 -0.142173 0.066836 0.162275 0.273421 -0.134005 0.010938 -0.266969 -0.155869
sent_77 -0.059394 0.266955 -0.191587 0.083383 0.184087 0.332304 0.126873 -0.125555 0.304448 0.071028 0.529861 0.110924 -0.045273 0.340508 -0.174317 -0.151150 -0.395001 -0.383293 0.272929 0.250575 0.129243 -0.010933 -0.507372 -0.004899 -0.571351 -0.308940 0.343530 -0.006797 -0.100903 -0.232638 -0.011891 -0.153642 -0.491200 -0.159477 0.075873 0.029854 0.159773 0.009133 0.171070 -0.086393 0.354119 -0.040231 0.266252 0.043959 0.059442 0.415398 -0.587635 -0.564342 -0.251741 -0.092389
sent_78 0.220397 0.078126 -0.040866 0.231300 0.016351 -0.114596 -0.188139 0.196683 0.173414 0.212423 0.464669 0.192093 -0.069156 0.392542 -0.154891 -0.319489 -0.326652 -0.104142 -0.208642 -0.236128 0.195513 -0.187173 -0.472781 0.042306 -0.258507 0.124488 0.776368 0.219546 -0.377456 -0.219545 0.175505 0.186106 -0.449770 0.249307 0.052683 0.036677 0.133147 0.322907 0.416107 -0.163689 -0.051542 0.001062 0.325278 -0.456264 0.317238 0.502866 -0.584195 0.081194 0.092154 0.353524
sent_79 0.376464 0.104603 0.112819 0.092508 0.499384 -0.187816 0.178405 0.171665 0.035787 0.094305 0.539274 0.209732 -0.183490 0.501000 -0.282942 -0.474399 -0.396406 -0.272910 -0.450910 -0.167320 0.477288 -0.527000 -0.283315 -0.091254 -0.213049 -0.261481 0.739201 0.518684 -0.370711 -0.001389 -0.095194 -0.298067 -0.720406 0.316736 -0.218904 -0.056027 -0.411565 -0.262922 0.022174 -0.367987 0.457118 0.364019 0.104847 -0.010545 0.060090 -0.015307 -0.705312 -0.203079 -0.557723 0.128380
sent_80 -0.080595 0.112789 -0.026507 0.064359 -0.059525 0.011514 0.050869 -0.179912 -0.134743 0.033079 -0.137113 -0.024255 -0.058013 0.204034 -0.303151 -0.101803 -0.423375 -0.039418 -0.191532 -0.174245 0.184385 0.105277 -0.219923 -0.303215 -0.244240 0.135701 0.324653 0.255112 -0.064822 0.081304 0.095005 0.026867 -0.406099 0.021511 0.168536 -0.100295 0.267924 0.127669 0.160526 -0.217688 0.141323 -0.133269 -0.059331 -0.140048 0.158469 0.290429 -0.180132 0.247966 -0.406753 0.055229
sent_81 0.065731 0.214299 0.218663 0.126277 0.132069 -0.199167 -0.042211 -0.150187 0.284966 0.023878 0.138000 0.214663 -0.071825 0.003209 -0.072656 -0.039321 -0.391507 -0.065122 -0.321359 -0.327386 0.073305 -0.162283 -0.651940 -0.138655 0.069363 0.349694 0.588526 0.335021 -0.104643 -0.122920 0.017673 0.015215 -0.747324 0.232217 0.134683 0.074279 0.523785 0.085693 0.132803 -0.076204 0.448739 0.107354 -0.130100 -0.177922 0.573085 0.162555 -0.726962 -0.355845 -0.237271 -0.191704
sent_82 -0.243643 -0.498531 -0.079539 -0.125670 -0.420134 0.328727 0.095402 -0.137064 -0.534108 0.173803 0.101500 0.008321 -0.507176 0.735952 0.239163 -0.186437 0.477853 -0.909827 0.226006 -0.147832 0.660339 0.711955 -0.375103 0.270736 -1.134399 -0.322734 -0.526084 -0.019952 -0.042058 -0.054589 0.437457 0.202550 -0.446444 -0.139401 -0.272368 0.021687 -0.180444 -0.420540 0.445037 -0.006889 0.492797 -0.070800 0.160197 0.467272 -0.192189 0.787602 -0.647775 0.015164 0.555445 -0.349501
sent_83 0.076042 0.007554 -0.036137 0.156298 0.166796 -0.222872 0.230017 -0.116457 -0.005356 -0.028655 0.195208 0.177534 0.233836 0.078541 -0.086328 -0.652745 -0.083136 -0.586416 -0.032445 -0.081015 0.365117 0.011830 -0.397772 0.028376 -0.480560 -0.189578 0.265084 0.730126 0.138444 0.044409 0.208886 0.031215 -0.304724 0.246432 0.067418 -0.335636 0.321939 0.061502 0.225917 -0.154628 0.366062 -0.017568 0.129205 0.094074 0.159196 0.534628 0.002475 -0.016844 0.178784 -0.090264
sent_84 -0.363346 -0.256195 0.028418 -0.158817 -0.498294 0.270578 -0.770791 -0.352922 -0.822831 0.569368 0.470555 0.124857 0.446212 0.079383 0.124963 -0.165045 0.193987 -1.360111 0.246354 0.119538 0.076608 0.739569 -0.174660 -0.071872 -0.758221 -0.109567 -0.617481 0.016759 0.166788 -0.093705 0.616511 -0.418992 -0.534248 0.598129 -0.207743 -0.252102 0.370334 -0.405179 0.351725 0.320642 -0.202915 0.715086 -0.008554 0.440596 0.000310 0.309994 -0.391438 -0.495896 0.446924 0.070872
sent_85 0.013459 0.103917 0.028559 0.151852 0.052449 0.445626 -0.024018 -0.159604 -0.205396 0.292325 0.226360 0.094610 -0.302563 0.188022 -0.001428 -0.050730 -0.223665 -0.236208 -0.161190 0.053601 0.270204 0.175688 -0.057586 0.037619 -0.395639 -0.457810 0.477332 0.241238 -0.011642 -0.012249 0.377015 -0.117630 -0.549650 0.192143 -0.113964 -0.018496 0.296480 -0.048973 0.223954 -0.205446 0.207644 0.074043 -0.167809 0.148272 -0.003437 0.195324 -0.296229 -0.198143 0.033033 0.075370
sent_86 -0.192931 0.143830 -0.253511 0.028099 -0.238126 0.108321 -0.004941 0.234110 0.138364 0.289286 0.088913 0.371545 0.137382 0.095533 0.104057 0.191858 0.066840 -0.622510 -0.217233 -0.138287 0.089530 0.125397 -0.436081 0.086049 -0.756591 -0.295117 0.332661 0.180394 0.215811 -0.469420 0.293996 -0.157878 -0.372263 0.208848 -0.033377 0.060512 0.360090 0.146834 0.113629 -0.420256 0.247931 0.225800 0.195549 0.022129 0.373843 0.538869 -0.105158 -0.257635 0.083145 -0.440660
sent_87 0.821308 0.017735 0.088623 -0.375557 0.217947 0.092798 -0.040269 0.392823 0.107694 -0.225570 0.012934 0.049730 0.682541 0.218735 -0.311115 -0.367251 -0.148571 -0.298734 -0.313575 0.011449 0.305379 0.186721 -0.671676 0.402227 -0.293474 -0.399663 0.764247 -0.013489 -0.395461 -0.357022 0.005288 0.118465 -0.483503 0.238307 -0.181436 0.179278 -0.110102 0.048105 -0.445260 -0.031289 0.366059 -0.776438 0.238476 -0.103705 -0.062829 0.149097 -0.216505 0.080414 -0.814593 0.303916
sent_88 0.690721 -0.227946 0.264583 -0.066686 0.668253 0.555920 0.242300 0.129057 -0.138706 -0.230829 -0.141529 0.204919 0.580563 -0.060148 0.094385 -0.451179 -0.157037 -0.138015 0.243435 -0.133198 0.261462 0.318881 -0.523234 0.868225 -0.414556 -0.366146 1.035203 -0.268576 -0.221104 0.042735 0.204640 0.300226 -0.548135 0.166911 -0.330308 0.735460 -0.052649 -0.577535 -0.420583 -0.130469 0.488449 -0.580467 0.106193 0.194272 -0.343899 -0.274404 -0.120149 -0.249896 -0.751480 -0.022082
sent_89 -0.693593 -0.418027 -0.178150 0.270400 -0.589978 0.201988 0.310148 -0.309943 -0.318151 -0.380025 -0.311366 -0.075852 -0.188924 -0.212496 -0.382638 -0.429280 0.120514 0.582887 0.020019 0.610555 -0.141666 -0.269611 0.009778 -0.524021 -0.454280 -0.057488 -0.145788 0.143402 -0.131521 -0.581756 0.367127 -0.033524 0.375973 -0.632098 -0.538434 -0.161779 -0.004726 -0.407069 0.516619 0.446704 -0.149614 -0.382097 0.198091 0.153040 -0.480447 0.142344 0.119321 -0.016142 -0.785740 -0.059738
sent_90 0.265443 0.109150 0.308122 -0.257805 0.053062 0.121342 0.083924 0.010177 0.049154 -0.164429 0.244267 -0.036638 0.262260 -0.008994 0.036239 -0.342702 -0.008839 -0.049115 -0.290033 -0.189088 0.243306 0.195165 -0.653083 0.398464 -0.254912 -0.254005 0.393712 0.251682 -0.148353 -0.352451 0.395821 -0.116524 -0.355540 0.219996 -0.108819 0.066795 -0.037761 -0.028072 -0.094236 0.042081 0.016515 -0.327290 -0.002642 -0.151207 0.146613 -0.004839 -0.098248 0.245606 -0.512709 -0.057668
sent_91 0.186313 -0.099999 0.294325 -0.275371 0.120403 0.200704 0.435676 -0.143542 0.004864 -0.355978 0.055145 0.106477 0.407831 -0.135806 0.050497 -0.345936 -0.001377 0.041006 -0.091976 -0.150594 0.292024 0.159835 -0.312957 0.565979 -0.205821 -0.234165 0.153954 0.000901 -0.328224 -0.442013 0.421385 -0.059687 -0.308209 0.214870 -0.208366 0.088276 0.059997 -0.195297 -0.017520 -0.194268 -0.017915 -0.047702 0.043375 -0.015802 0.101746 -0.056574 -0.239384 0.129701 -0.801676 0.079560
sent_92 0.055440 0.127360 0.187678 -0.521186 0.237968 0.268992 0.220313 -0.068792 0.046539 -0.148467 -0.048335 0.127960 0.300747 -0.172226 -0.185762 -0.333513 -0.211595 -0.024869 -0.256454 -0.055455 0.244581 0.406191 -0.642003 0.509823 -0.161050 -0.297329 0.364368 0.375649 -0.213693 -0.415387 0.423729 -0.060861 -0.234834 0.264074 -0.290519 0.015503 0.112304 -0.048217 -0.005751 -0.091858 0.111301 -0.396238 0.045473 0.099106 0.145361 0.111305 -0.055598 0.073392 -0.700269 -0.263797
sent_93 0.063434 -0.130652 0.190254 -0.187619 -0.012677 0.198168 0.533911 0.256095 0.299096 -0.008712 -0.273288 0.109320 0.151553 0.011404 -0.172623 0.018227 0.220380 0.081624 -0.172419 -0.030783 0.129320 0.150361 -0.351461 0.320929 -0.125481 -0.136589 0.059314 0.297768 -0.154462 -0.145999 0.208446 0.042752 -0.461858 0.105707 -0.390897 0.251139 -0.190621 -0.075414 -0.028850 0.045547 0.266597 -0.063343 0.031383 -0.214394 0.074655 -0.178404 0.128326 -0.037613 -0.479666 0.249696
sent_94 0.035162 -0.282025 0.091201 -0.346137 0.052116 0.189714 0.456699 -0.000263 0.292571 -0.301726 -0.022610 0.160311 0.112704 -0.316219 -0.101147 -0.257671 0.124545 0.131089 -0.075615 -0.045679 0.274940 0.115838 -0.352625 0.518659 -0.308193 -0.177320 0.215887 0.308857 -0.362005 -0.435223 0.200056 0.172982 -0.215227 0.331138 -0.234742 0.244384 -0.076744 -0.208611 0.051054 0.108722 0.212712 -0.152037 0.007971 -0.324127 0.163258 -0.188678 -0.179060 0.227373 -0.717879 -0.126851
sent_95 0.196970 -0.126483 0.467577 -0.464081 0.071247 0.338528 0.222418 0.153433 0.077942 0.099170 -0.002878 0.128112 0.186969 -0.188630 -0.155841 -0.381104 0.059882 -0.123719 -0.052428 0.159299 0.189983 0.380015 -0.508809 0.595366 -0.468977 -0.263559 0.367104 0.233449 -0.242225 -0.264994 0.234928 -0.027644 -0.362379 0.255171 -0.357801 0.170582 0.159944 -0.254970 0.066508 -0.119354 0.179854 -0.250835 -0.142237 0.211062 0.142057 -0.028833 -0.138007 0.076757 -0.539946 -0.131529
sent_96 0.138164 -0.000897 0.219291 -0.206201 0.361602 0.194060 0.312887 0.248292 0.026382 -0.171010 -0.194546 -0.121116 0.285871 -0.097438 0.199375 -0.421482 0.098513 -0.155215 -0.013174 0.374977 0.189508 0.211662 -0.454024 0.570340 -0.365842 -0.161135 0.178002 0.044977 -0.167444 -0.272436 0.270884 -0.091190 -0.103181 0.126709 -0.125640 -0.126874 -0.039143 -0.353440 0.116280 0.033542 -0.024848 -0.200910 -0.025523 0.056518 0.214328 0.099155 0.101825 0.155042 -0.552886 -0.108317
sent_97 0.251338 -0.387534 -0.185992 -0.518821 0.114920 -0.120804 -0.064556 -0.077608 -0.362367 0.332160 -0.067115 0.094437 0.401079 -0.125835 -0.288339 -0.274024 0.587580 0.204457 -0.081032 -0.027293 0.021464 0.110757 -0.678802 0.347151 -0.841940 -0.053880 -0.029705 0.135133 -0.199070 -0.471180 0.097364 -1.060273 -0.188919 -0.496179 -0.252849 -0.176129 0.047278 0.139658 0.236647 0.134936 0.145806 -0.035002 -0.443395 -0.195297 -0.500665 0.056532 -0.380984 -0.469388 -0.447262 0.621770
sent_98 0.114281 0.055836 0.257591 -0.371531 0.186967 0.016902 0.091012 -0.073150 0.096909 -0.085727 0.114839 -0.000988 0.226887 -0.187111 -0.064779 -0.293411 -0.024266 0.005170 -0.150825 0.115885 0.209289 0.220487 -0.546735 0.477643 -0.216446 -0.235779 0.242862 0.052135 -0.333765 -0.355255 0.284272 0.006092 -0.287175 0.294469 -0.212156 0.020668 0.045619 -0.293959 -0.058887 0.159391 0.062772 -0.139584 0.024076 -0.064240 0.241873 -0.001230 -0.075373 -0.078128 -0.680104 -0.052210
sent_99 -0.579870 -0.216217 -0.441978 0.243777 -0.423869 -1.067109 -0.055340 -0.180429 1.356534 -0.034682 0.041898 -0.809823 -0.029329 0.083380 -0.932378 -0.754149 -1.120564 0.486787 -1.357662 -0.306973 -0.888034 0.516570 0.129163 -0.301667 0.687413 0.790418 -1.032852 0.478038 1.807600 0.881206 -0.353249 -1.063893 -0.375923 0.701077 0.932152 -0.441761 0.358014 0.955591 0.205458 -0.414494 0.222395 0.165710 0.347201 -0.756346 0.641427 1.140219 -0.516547 0.065548 -0.564085 -0.408188
sent_100 -0.242670 -0.281713 -0.000866 0.074070 -0.241541 0.605258 -0.445039 -0.157154 -0.315564 0.529583 -0.262495 -0.246960 0.172135 -0.827371 -0.123250 -0.099470 0.602813 -0.723870 -0.007977 -0.399324 -0.051211 -0.021026 0.426877 0.103560 -0.361303 0.106137 -0.417093 -0.631646 0.015559 -0.790991 -0.211009 -0.222858 -0.516440 0.012827 -0.176428 0.440424 -0.875056 -0.165992 0.340556 -0.028756 0.012834 0.101798 -0.205735 0.584898 -0.211430 -0.867232 -0.534369 -0.083830 0.042325 0.330754
sent_101 -0.076636 -0.527062 0.142919 -0.207117 -0.155129 0.257377 0.176242 -0.171240 0.047969 0.010313 0.127875 0.192792 -0.232987 0.521519 0.032677 -0.382377 0.044434 -0.633732 -0.315675 0.106265 -0.039178 0.247402 -0.041716 0.008815 -0.220853 -0.638340 0.415746 0.227177 0.418548 0.682181 0.391206 0.259747 -0.059908 0.128203 0.282467 0.327535 -0.315423 -0.158536 -0.386794 -0.359246 -0.440364 0.131005 0.411382 0.200124 -0.295423 0.369714 0.179354 -0.376248 -0.105602 0.135661
sent_102 0.218140 -0.594283 0.300896 -0.170847 -0.157614 0.355105 0.318338 -0.005984 0.116856 -0.136770 -0.359055 0.608984 0.405868 0.493398 0.433767 -0.173472 0.710468 -0.403866 -0.189326 -0.516076 0.099751 0.184595 0.298704 0.375307 -0.049297 0.467262 0.681880 -0.370709 0.221670 -0.086297 0.159049 -0.163884 0.105699 0.264145 -0.078012 0.085358 0.054572 0.137222 -0.070541 0.503861 0.692879 -0.043469 -0.001284 0.590816 0.797182 0.003713 -0.126316 -0.287151 -0.200487 -0.579394
sent_103 0.008088 -0.282162 0.293882 -0.073853 0.082170 -0.365226 0.029413 -0.221811 0.395976 0.142213 -0.525444 0.066935 0.197641 0.360557 0.033477 -0.115364 -0.017648 -0.212208 -0.366136 0.038436 -0.159673 0.189682 -0.109639 -0.042469 -0.048596 -0.019764 -0.175048 -0.099667 0.307545 -0.102017 0.110413 -0.459524 -0.183254 0.140929 0.015487 -0.027267 -0.021121 0.134784 -0.024747 0.253885 0.082641 0.288199 0.051697 -0.184216 0.040114 0.354535 -0.147725 0.145449 -0.130110 -0.019130
sent_104 0.045932 -0.226393 0.086902 -0.010058 -0.123460 -0.069350 0.043754 -0.261734 0.208564 0.244881 -0.205070 0.010965 0.150961 0.267946 -0.052596 0.062352 -0.093518 0.142517 -0.208172 0.099414 -0.209578 0.177248 -0.093459 -0.147297 0.059898 0.068038 -0.060282 0.108276 0.151456 -0.022000 -0.243749 -0.155960 -0.220136 0.179883 -0.058391 0.081043 -0.104086 0.252595 0.015727 0.074487 -0.048675 0.157656 -0.060657 -0.073518 -0.095787 0.158769 -0.109941 0.176446 -0.209511 0.135502
sent_105 0.019658 -0.478299 0.223042 -0.451781 -0.218322 -0.149088 0.161828 -0.505909 0.153367 -0.440192 -0.611884 -0.699368 0.657942 0.207385 -0.052996 0.032985 0.077775 -0.119828 -0.189942 0.030943 0.723948 -0.214101 0.465049 0.342656 -0.316229 -0.426397 0.207628 0.522160 0.140058 -0.187867 0.643023 -0.163305 -0.369077 -0.234149 -0.328782 0.417809 -0.638239 0.582255 0.120604 -0.023223 0.431310 -0.290189 0.018981 0.183761 -1.078984 -0.273661 0.273454 0.137767 -0.044625 -0.381820
sent_106 0.304220 -0.617533 -0.089076 -0.354907 -0.152268 -0.183199 -0.019838 -0.245065 0.090758 0.058606 0.250198 -0.582329 0.287108 0.095174 0.099362 0.106060 0.602734 -0.498163 -0.712852 -0.399244 0.640811 -0.441288 0.176594 -0.028595 -0.241160 -0.057347 0.091398 -0.054618 0.146803 0.100343 -0.174817 -0.598654 0.089255 -0.320099 -0.168503 0.246238 -0.308549 0.558309 0.522884 0.465346 0.251570 -0.054508 -0.198191 0.157904 -0.430912 0.149870 -0.116573 -0.118312 0.244212 -0.112655
sent_107 -0.054703 -0.011838 -0.087170 -0.225049 -0.166399 -0.206901 0.720351 -0.449360 -0.342915 -0.405859 -0.087268 -0.455974 0.051558 0.128094 -0.451506 0.057579 -0.170165 -0.319889 -0.134026 0.108211 -0.284454 0.141352 -0.123026 -0.925317 0.501955 -0.178909 -0.730192 -0.135998 0.710893 0.162861 -0.200617 -0.030206 -0.138682 0.189088 0.144571 -0.051919 -0.170582 -0.130781 -0.341875 -0.253989 -0.202054 -0.345119 0.305243 0.390583 -0.340353 0.481558 -0.204039 -0.376600 -0.521006 -0.395793
sent_108 -0.140516 0.179622 0.073102 -0.365686 0.271869 0.088621 -0.235349 -0.256260 -0.132810 0.334673 0.107370 -0.260408 0.723395 0.101711 -0.025333 -0.276113 -0.163979 0.180643 0.120513 0.205569 0.356474 -0.272041 -0.452550 0.263223 -0.011685 -0.100418 -0.225007 0.119672 -0.189770 0.090641 0.671931 0.208752 -0.646950 0.261148 -0.316531 -0.179486 0.960271 -0.233623 -0.142486 0.100672 0.523229 0.304430 0.180931 -0.097597 0.293883 0.018530 0.181232 -0.212509 0.873015 -0.486600
sent_109 0.687090 -0.515009 0.057274 -0.120012 0.008080 -0.135332 0.085300 0.564065 0.156013 0.504538 -0.259171 0.193373 0.089746 -0.188430 -0.030377 0.014116 -0.206044 0.167104 0.061049 0.177691 0.562940 0.135959 0.541433 0.264885 0.711731 0.184807 0.509721 0.048892 -0.186568 0.132545 -0.327117 -0.371613 -0.810332 0.241344 -0.804571 0.274473 0.049180 -0.415336 0.128804 0.261294 -0.066783 -0.011246 0.197695 1.255118 0.229658 0.604587 -0.133431 -0.858416 0.022777 0.069740
sent_110 0.632585 0.145387 0.384846 0.111582 0.477065 -0.172261 1.308707 0.746360 -0.575965 0.063628 0.204175 0.311554 0.451798 0.086480 0.794923 -0.590469 -0.078576 0.352529 0.503021 -0.063843 0.856613 0.337099 -0.542994 0.586196 0.003237 -0.022247 0.492995 0.237692 0.036513 0.429253 0.673849 0.360176 -0.163122 0.360753 -0.597380 -0.068637 -0.404832 -0.131138 -0.193566 0.248280 -0.233740 -0.103778 0.391318 0.716024 -0.844720 -0.042786 0.665195 -0.066668 0.036194 0.203443
sent_111 0.334527 0.073199 -0.175482 0.021480 0.421983 0.365203 -0.470495 -0.077639 -0.054087 0.248115 0.456001 -0.241288 0.159057 -0.557116 0.119065 -0.774560 0.076893 0.128462 -0.472295 -0.044024 0.297509 -0.010433 -0.534173 0.623422 0.008636 0.003458 0.574542 -0.173562 0.064194 -0.529762 0.255534 -0.022319 0.204416 0.265080 0.077442 -0.018530 -0.278083 -0.270027 0.516480 0.001859 -0.402215 -0.136760 -0.331542 0.670669 0.316163 0.131529 0.219453 -0.088089 -0.084773 0.129061
sent_112 0.228910 0.885465 -0.303352 -0.387896 0.358583 1.026762 -0.108715 0.132700 0.756913 0.447526 0.448531 0.343573 -0.217136 -1.238919 -0.162894 -1.293524 -0.746271 -0.716883 -0.352275 -0.382169 0.239011 -0.417085 -0.221589 1.153613 -0.181980 0.169501 1.912354 0.511799 -0.827852 0.233221 0.301494 0.169223 0.189273 0.583249 -0.147357 -0.219086 0.576693 -0.345238 0.729519 0.313769 -0.438898 -0.660179 0.171580 0.928936 -0.456538 -0.318080 -0.064744 -0.477414 -0.051250 0.095967
sent_113 0.179061 0.324958 0.050819 0.474568 0.443461 0.111123 -0.177466 -0.293703 0.153682 -0.187441 0.222845 -0.280168 -0.496743 -0.085786 -0.188113 -0.374086 0.172137 0.202909 0.070054 -0.304983 0.365192 0.350338 -0.445807 0.068406 -0.427895 0.007112 -0.131032 -0.456488 0.172832 -0.435805 0.537529 -0.487258 0.226607 0.215585 0.182701 -0.497690 -0.213149 -0.100773 0.180086 0.088469 -0.028413 -0.067680 -0.305419 0.065690 -0.051987 0.300167 -0.250824 0.093382 -0.150666 0.053261
sent_114 0.071406 0.018495 0.181665 0.148416 0.305652 0.129887 -0.085230 -0.152954 -0.022523 0.164579 -0.349955 -0.178588 -0.478520 -0.151952 -0.092245 -0.393952 0.017440 0.026721 -0.214228 -0.074901 0.292454 0.417516 -0.270066 0.071397 -0.167131 0.014798 0.068362 -0.159128 0.161708 -0.439686 0.268663 -0.137319 0.043051 0.240268 -0.250736 -0.227441 -0.089674 0.052926 0.217379 -0.129771 0.016632 -0.129158 0.071597 0.461542 0.425507 0.292100 -0.118054 0.095160 -0.047778 0.042729
sent_115 0.728127 0.534860 0.300608 -0.319048 0.497095 0.248797 0.511504 -0.617950 -0.670295 -0.159190 0.883336 -0.204682 -0.515170 0.313101 -0.344344 0.360121 -0.126456 -0.325269 0.557645 -0.431215 0.336688 0.280804 0.127876 -0.220214 0.334479 -0.195401 0.381130 -0.335394 -0.114949 -0.882314 0.623612 -0.087413 -0.143914 0.260903 0.239175 -0.027832 -0.716876 -0.258083 -0.056940 0.028251 0.014100 -0.587957 -0.175684 0.687876 0.058912 0.764506 -0.031215 -0.747715 0.268424 -0.883004
sent_116 -0.619657 0.306334 1.159709 -0.415505 0.497478 0.746700 0.230143 -0.873433 -0.221211 0.680583 0.668892 -0.257480 -0.019168 -0.009379 0.178705 0.413106 0.282095 -0.122908 0.856174 -1.038832 0.761422 0.082074 -0.795599 -0.015174 0.298891 -0.128767 0.462745 -0.051811 0.199687 -0.827490 -0.071326 0.028036 0.071414 0.580577 -1.156228 -0.203854 -0.244112 -0.194099 -0.109063 0.621126 0.419375 -0.516596 -0.368701 0.263510 -0.499291 0.337365 -0.452092 -0.893852 -0.893797 -0.536942
sent_117 0.237737 0.171691 -0.034681 0.340085 0.671161 0.212446 -0.340502 -0.222962 0.235201 0.351599 0.572197 -0.414534 0.376279 -0.255336 -0.048160 -0.362656 0.541865 0.541997 -0.226845 -0.531265 0.179353 0.151648 -0.796871 0.423081 -0.304940 0.653772 0.405084 -0.695557 -0.049307 -0.795688 0.115422 -0.540745 -0.230966 0.161499 0.212001 -0.095643 -0.483139 0.097823 0.457683 0.602029 -0.184886 -0.256457 -0.171055 0.495729 -0.093758 -0.478455 -0.178896 0.050270 0.040127 0.377587
sent_118 0.430276 0.209440 0.157000 0.199883 0.311987 -0.060633 0.188489 -0.038298 -0.007882 -0.059611 0.349714 -0.035948 -0.054172 -0.093724 -0.051334 -0.455069 0.251973 0.203909 0.093828 -0.207475 0.486440 0.065103 -0.521439 0.642448 -0.462444 -0.089112 0.346515 0.013923 -0.181154 -0.155224 0.480409 -0.104218 -0.511514 0.267105 0.250209 -0.419327 0.055842 -0.471671 0.448885 -0.254247 -0.322630 -0.238573 0.253849 0.723842 -0.141409 0.561561 0.600335 -0.367353 0.196302 -0.016554
sent_119 0.195728 -0.223377 0.391795 -0.013455 0.294945 0.541642 0.156042 -0.494596 0.172975 0.302941 0.184255 -0.101318 -0.116585 0.200314 0.083610 0.071969 -0.277255 -0.246652 -0.238751 -0.248194 0.363094 0.256824 -0.587295 0.443372 -0.343975 -0.759828 0.078312 -0.040093 0.072980 -0.727945 0.626718 -0.377898 -0.530988 0.344421 -0.469135 -0.409011 -0.523438 -0.328954 0.110771 -0.064383 0.079229 -0.218401 -0.050257 0.494079 -0.100443 0.052945 0.071534 0.303021 -0.593068 0.018646
sent_120 0.270559 -0.012740 0.136254 0.156618 0.109123 0.084662 -0.330932 0.080726 -0.276142 0.679613 0.234573 0.085037 -0.217105 -0.087434 0.204852 -0.410531 -0.058210 -0.104265 -0.298488 -0.187857 0.319051 0.442484 -0.381485 0.032386 -0.248671 -0.009690 0.314314 -0.270351 0.196470 -0.725638 0.451661 -0.282091 0.256861 0.277967 -0.521696 -0.147090 -0.487960 -0.148220 0.222290 0.012983 -0.097179 -0.057381 -0.301199 0.402013 -0.098564 0.202411 -0.116226 -0.278881 -0.077870 0.089887
sent_121 0.320393 0.631760 0.358712 0.018159 0.585099 0.669994 -0.878373 -0.811555 -0.455842 0.931377 0.303553 -0.415635 -0.208434 -0.141346 -0.668317 -0.330824 -0.153080 -0.744549 -0.273278 0.408063 0.691428 -0.263435 0.476124 1.134150 -0.636737 -1.702694 0.916348 -0.149519 0.356845 0.258724 0.582017 0.176692 -0.598487 0.637187 -0.776921 -0.338647 -0.076329 -0.406549 -0.197295 0.253191 -0.411227 -0.150434 1.088091 0.996466 0.018752 -0.055320 0.480722 -1.015042 0.841135 -0.181261
sent_122 0.034946 0.218873 -0.213116 0.138448 0.347254 0.152859 -0.241825 -0.326187 -0.189156 0.380676 0.669027 -0.335618 -0.022979 -0.429821 0.035864 -0.026450 -0.115498 -0.263953 -0.104352 0.025738 0.172691 0.416527 -0.526653 0.497771 -0.508493 -0.460583 0.878640 -0.346375 0.015417 -0.220197 0.701893 -0.108314 -0.351799 0.096457 -0.796362 0.184423 0.024137 -0.879878 0.067210 0.024886 -0.834902 -0.444395 -0.008146 0.398426 -0.155660 -0.354043 0.230330 -0.092409 -0.058953 -0.198772
sent_123 0.444245 0.786969 -0.227087 -0.260858 -0.082324 -0.050717 0.864762 0.076520 0.661850 -0.002195 0.983383 0.011335 -0.438732 -0.108783 -0.295797 0.344745 -0.027061 0.283848 -0.109988 -0.607136 0.396403 -0.195318 0.130329 0.536376 0.281593 0.817998 0.470871 0.830852 -1.035487 -0.692987 0.582448 -0.091444 0.223445 0.707751 -0.457168 0.012319 -0.665583 0.224753 0.232172 0.543594 0.430661 -0.661857 -0.310823 0.240029 -0.135694 0.049866 0.016623 0.180125 -0.260887 -0.105997
sent_124 0.246987 0.087626 0.049160 -0.030694 0.278083 0.119288 -0.160684 -0.176200 0.049760 0.302691 0.339248 -0.246266 -0.010691 -0.368264 -0.217885 -0.537566 -0.028358 0.187299 -0.293835 -0.206211 0.289949 0.152486 -0.355994 0.038498 0.119797 0.172480 0.581132 -0.012195 -0.134030 -0.388063 0.148858 -0.001140 0.028829 0.395029 0.119111 0.003062 -0.084465 -0.048988 0.125474 0.102747 -0.134290 -0.129677 -0.174092 0.341237 0.251886 -0.057671 0.065632 -0.073287 -0.078345 0.002900
sent_125 0.567935 -0.083355 0.041920 -0.094894 -0.234588 -0.231216 0.063374 0.135884 0.198239 -0.084083 -0.360482 -0.398024 -0.295976 0.525218 -0.170621 0.257929 0.035793 0.379450 -0.027341 0.136214 -0.444730 0.164772 0.080652 -0.120411 0.047898 -0.363691 -0.145321 -0.338718 -0.189537 0.332580 0.179935 0.060005 0.179693 0.057823 0.062621 -0.321894 0.308531 0.336268 0.117380 0.057092 -0.106498 0.103499 0.053980 -0.389422 -0.247749 0.157134 0.318890 -0.038588 -0.385603 0.043389
sent_126 0.704118 -0.113563 0.034439 -0.225038 -0.439883 -0.201053 -0.340923 0.428438 -0.034292 0.035937 -0.377080 -0.892095 0.128747 0.589018 -0.242792 -0.360291 -0.600697 -0.748283 -0.310357 0.033105 0.175298 0.487032 0.656174 -0.626931 -0.216388 -0.651385 0.131926 -0.237444 0.340952 0.704430 0.188989 0.268952 -0.014089 -0.112943 -0.068619 -0.389023 -0.490544 -0.266818 -0.740109 0.481973 -0.487708 0.196901 0.591749 0.006030 -0.300411 -0.367458 0.761793 -0.337517 -0.001666 0.188914
sent_127 0.252538 0.006320 0.373907 0.277497 -0.136352 0.008408 0.287576 -0.078458 -0.006363 -0.062728 -0.740925 -0.381207 -0.063754 0.474067 -0.287989 0.062294 -0.128767 0.169837 -0.027396 0.151258 -0.066525 0.318081 0.118225 -0.440049 -0.115186 -0.255849 -0.036458 -0.394919 0.147916 0.296943 0.368444 0.047294 0.058190 0.083843 0.153828 -0.377145 0.237963 0.383125 -0.005952 0.035550 -0.066435 0.062849 0.192685 -0.022506 0.185761 0.269532 0.281647 -0.098268 -0.311613 0.096711
sent_128 0.688155 -0.006680 0.057697 -0.045125 -0.251173 -0.088445 0.099619 0.298878 0.133073 0.096584 -0.274667 -0.578694 -0.084794 0.420815 -0.195259 0.171097 -0.002568 0.309510 -0.261700 0.089457 -0.373925 0.050300 -0.038538 -0.188951 -0.028838 -0.054997 -0.142405 -0.079686 -0.012365 0.387410 0.221941 -0.079365 0.211311 -0.006249 0.155505 -0.346323 0.334185 0.344638 -0.044462 0.021003 -0.015173 0.137640 0.180057 -0.171856 0.020451 -0.053996 0.472366 -0.004410 -0.340418 0.211283
sent_129 0.573946 -0.042504 0.160386 -0.000570 -0.215113 -0.105568 0.055836 0.289879 0.233529 0.091566 -0.398130 -0.454707 -0.013544 0.392420 -0.222610 0.365491 -0.015498 0.368880 -0.340825 0.132411 -0.266965 0.062112 0.122681 -0.250289 -0.092760 -0.143344 -0.132129 -0.287542 -0.046274 0.381913 0.163587 0.088843 0.151373 -0.012856 0.057498 -0.285999 0.114937 0.365647 -0.032212 0.076119 0.033568 0.141605 0.180924 -0.117898 -0.055949 -0.117650 0.475173 0.060210 -0.415361 0.155349
sent_130 1.043380 -0.119189 0.005337 0.195517 0.089095 -0.283149 0.177167 0.552675 -0.030792 0.193589 0.055231 -0.603456 -0.012780 0.817484 -0.341825 0.216001 0.078924 0.123217 -0.128688 0.478772 -0.441871 0.214524 -0.001245 0.027946 0.209670 0.221031 0.081440 -0.504692 -0.075942 0.510144 0.291639 0.063238 0.178656 -0.136197 0.114662 -0.543603 0.052445 0.689112 -0.020175 0.140935 0.116592 0.059907 0.190095 -0.320343 -0.136651 0.051858 0.400663 0.213804 -0.246930 0.484537
sent_131 0.632102 -0.477454 0.109700 0.144668 -0.438596 -0.213902 0.222991 0.059045 0.082605 -0.108879 -0.448517 -0.520243 -0.152913 0.718990 -0.260474 0.326170 0.096113 0.030600 -0.080789 0.371806 0.048336 0.267032 0.186599 -0.208997 0.042418 0.087842 -0.428655 -0.514669 0.183689 0.288024 0.450344 0.222117 0.206729 -0.503929 0.030774 -0.434060 0.141262 0.522689 -0.011617 0.134846 0.081276 -0.053717 0.266400 -0.044278 0.072384 -0.002930 0.335819 -0.042874 -0.250060 0.445939
sent_132 0.391482 -0.442257 -0.157619 -0.372743 -0.338526 -0.303890 0.338041 0.978484 0.287837 0.401005 0.415960 -0.520085 0.121160 0.211647 -0.390974 0.013212 0.422980 -0.708553 -0.231758 0.362098 0.010235 0.036216 0.183529 -1.505312 -0.232843 -0.305066 -0.301401 -0.570177 -0.266714 1.361007 0.168250 0.555645 -0.623576 0.409562 0.210516 -0.807047 0.180847 0.012145 -0.963606 -0.062074 0.027365 0.672519 0.720518 0.928140 0.078148 -0.817434 0.875877 -0.984534 -0.033859 0.180141
sent_133 1.015059 -0.008107 0.447191 0.262321 0.107554 0.177772 0.154700 0.751922 0.306856 0.221924 0.066347 -0.750439 0.068170 0.866887 -0.168248 0.180659 0.087086 0.153889 -0.228430 0.163397 -0.030540 0.245326 -0.389663 -0.398017 0.076601 -0.252985 -0.521168 0.117762 -0.133190 0.635642 0.018999 -0.157811 -0.652855 -0.056642 -0.005875 -0.380456 0.218530 -0.200003 0.032165 -0.179308 -0.468114 0.096780 0.090144 0.483294 -0.310177 -0.504322 0.679834 -0.186944 -0.382187 0.319941
sent_134 0.566669 0.231147 0.209357 0.141368 0.366942 -0.149023 0.000166 1.149836 0.479533 -0.300353 0.423133 -0.663057 0.128486 1.174543 -0.803100 0.636444 0.050304 -0.396395 -0.288683 0.172366 0.025613 0.169195 -0.374082 -0.306002 -0.922054 -0.503117 -0.844046 -0.038875 -0.090717 0.196228 0.688505 -0.326150 -0.372528 -0.617307 -0.591402 -0.658457 -0.935070 0.092085 -0.161040 -0.460731 -0.536735 0.296766 0.917610 0.147155 -0.377621 0.471439 0.703803 -0.155342 -0.168193 0.408727
sent_135 0.927881 -0.062882 0.021372 0.119917 -0.187461 -0.317433 -0.088347 -0.098375 0.209602 0.606737 -0.269098 -0.963934 -0.110090 1.025249 -0.206485 0.441265 0.119474 0.212092 -0.232828 -0.083632 -0.074699 0.174916 0.140189 -0.235408 0.338408 -0.195820 -0.012894 -0.497522 0.093606 0.350148 0.077029 0.113680 0.159735 -0.493198 -0.135001 -0.502149 0.141607 0.563151 0.392832 0.027422 -0.126206 -0.313208 0.369987 0.042719 0.107471 0.332645 0.735237 -0.126891 -0.232748 0.384632
sent_136 0.971916 0.038814 0.170781 -0.129213 -0.276918 -0.300994 0.000962 0.319420 0.217175 0.115886 -0.254128 -0.716371 -0.159924 0.498744 -0.273938 0.276902 0.001283 0.429248 -0.319350 0.071504 -0.366078 0.076227 0.031856 -0.136618 -0.052773 -0.173738 -0.015713 -0.153159 -0.193451 0.474872 0.122751 0.112978 0.177614 0.040130 0.062642 -0.252333 0.405200 0.443180 -0.049781 0.063767 -0.063840 0.218263 0.130291 -0.215914 0.112226 -0.062591 0.533994 0.063635 -0.398336 0.275427
sent_137 1.126647 -0.530004 0.003065 0.470528 -0.560758 -0.026491 0.055678 0.466809 0.282164 -0.808849 0.104790 -0.132997 0.112692 1.376737 -0.237363 0.106656 0.205877 -0.336314 -0.225512 -0.035100 -0.232688 -0.229746 0.469184 -0.387599 -0.294662 -0.145203 -0.520173 -0.018976 -0.028078 1.164032 0.340372 -0.071612 -0.793377 0.670974 0.576994 -0.325021 0.198544 -0.204543 -0.924723 -0.597251 -0.490325 0.678721 0.488160 -0.199493 -0.066543 0.405273 0.341263 -0.213936 -0.923014 0.719938
sent_138 0.966077 0.288533 0.016020 -0.245069 -0.309848 -0.388339 0.010937 0.221862 0.225342 -0.073372 -0.106365 -0.660184 -0.069980 0.532206 -0.216852 0.512020 0.100962 0.408053 -0.310481 -0.019124 -0.503259 0.338705 0.183441 -0.324864 0.218271 0.026740 -0.191041 -0.584041 -0.055825 0.469166 0.288573 0.336949 0.290536 -0.076878 0.272250 -0.377155 0.484237 0.641549 -0.315934 -0.070909 -0.046657 0.049859 0.489695 -0.334335 0.307652 0.207424 0.832321 0.221892 -0.407952 0.176545
sent_139 0.542124 -0.163642 0.121824 0.055991 -0.363258 -0.450221 0.006233 -0.043641 0.239676 0.387586 0.329697 -0.288309 0.132703 1.083967 -0.277507 0.111034 0.298124 0.140746 -0.375389 -0.254743 -0.177037 0.541148 -0.252163 -0.461397 -0.316297 0.595359 -0.235571 -0.454087 -0.198939 0.631412 -0.133844 0.137451 -0.159891 0.189750 0.618132 -0.385450 0.677097 0.961450 -0.576461 -0.270350 0.136984 -0.441950 0.108397 -0.525519 -0.089444 -0.432039 -0.094885 -0.470668 -0.423887 -0.114084
sent_140 0.354893 -0.310249 0.451773 -0.165601 0.037968 0.210113 -0.147185 0.155705 0.311114 0.165233 -0.729116 0.250782 0.453124 0.064596 -0.156317 0.078085 0.699658 -0.237840 -0.460481 -0.065759 -0.117290 -0.412747 -0.009837 0.477217 -0.357796 -0.120361 0.017785 -0.163802 0.407197 0.135258 -0.185105 0.473562 -0.114770 0.208139 0.352344 0.117720 0.040389 -0.298354 0.382250 0.904815 0.195206 -0.028391 -0.591742 -0.616659 -0.151085 -0.198788 0.599077 0.201759 0.217890 0.443440
sent_141 0.409598 -0.357942 0.075828 0.030045 -0.244946 0.109283 -0.030475 0.145661 0.026607 0.006490 -0.535568 0.244502 0.092902 0.074155 -0.010875 0.348911 0.529225 0.083192 -0.309523 -0.087576 -0.200732 0.079071 -0.181878 0.011648 -0.266187 -0.008912 -0.353798 -0.093824 0.486065 0.092056 -0.256091 0.032858 -0.177640 -0.142122 -0.075768 0.222746 -0.022976 -0.020358 0.311208 0.148721 0.378857 0.026978 -0.228478 -0.021491 0.068645 -0.140933 -0.038222 0.037068 -0.196855 -0.002576
sent_142 0.252326 -0.396433 0.291236 -0.045041 0.170067 -0.504339 0.037732 -0.097724 -0.237047 -0.223188 -0.917546 -0.257420 0.445672 -0.030177 -0.509580 -0.587007 0.000751 0.330467 -0.121142 -0.110407 -0.162113 0.215691 -0.196222 -0.184032 -0.132642 -0.236975 0.531797 0.226846 0.445286 0.109002 -0.611263 0.002964 -0.132627 -0.022969 0.294400 0.432477 0.138043 0.305425 0.468588 0.490274 -0.088350 0.446574 -0.329736 -0.669294 -0.108906 -0.472871 0.012210 0.108363 0.103438 0.028432
sent_143 0.470021 0.439925 -0.109152 0.406095 -0.668476 -0.456536 -0.177748 -0.161646 0.548686 0.252337 -0.170011 0.645095 1.227003 0.315987 -0.167301 0.123924 0.504396 -0.284226 -0.498903 -0.578456 -0.561420 0.227914 0.351875 0.574926 -0.391199 0.693320 0.495033 -0.476911 0.311226 -0.128399 -0.367174 -0.151788 -0.894630 0.484877 0.926147 0.213686 0.152987 0.032833 0.520051 0.471372 0.271743 -0.036207 -0.318800 -0.776168 0.201981 -0.521108 -0.231034 0.326744 -0.193196 0.773667
sent_144 0.285692 -0.109934 0.171792 -0.061895 -0.013832 0.048252 0.063122 -0.018880 -0.009708 -0.042168 -0.397553 0.053270 0.223584 0.103233 -0.005220 0.145497 0.233906 0.072665 -0.112341 0.037240 -0.187481 -0.081822 -0.053738 0.003854 -0.068118 -0.099661 -0.032556 -0.153511 0.066875 0.103082 -0.183351 -0.022278 -0.026932 0.007224 0.128196 0.123921 -0.025465 0.091504 0.098790 0.294548 -0.041347 0.051342 -0.254232 -0.085496 -0.003250 -0.231351 0.027620 0.098896 -0.032942 0.058847
sent_145 0.388391 0.019711 0.414294 -0.122937 0.026612 0.105688 0.345208 -0.028481 0.058216 -0.105927 -0.291473 0.070174 -0.022761 0.420818 0.087199 0.160047 0.312167 -0.016501 -0.256767 -0.031417 -0.325696 0.074124 -0.143866 -0.047056 -0.239307 -0.164941 0.051207 -0.095441 0.287570 0.272516 0.013300 0.007418 -0.083592 0.083319 0.272473 -0.005549 -0.033565 0.155134 0.092581 0.426411 0.028968 0.129502 -0.224197 -0.224121 0.085224 -0.436414 -0.282124 0.020402 -0.239742 0.048015
sent_146 0.451590 0.036792 0.368089 -0.108434 0.292956 -0.371022 0.097921 -0.511049 -0.055944 0.077246 0.188618 0.137917 0.135165 0.321091 -0.027483 -0.246554 0.422178 -0.268688 -0.545450 0.010840 -0.049202 0.066512 -0.642586 -0.122589 -0.189483 0.354765 0.718342 0.190739 0.067905 0.438262 0.350017 0.036928 -0.039258 0.190191 0.324537 0.048677 0.758248 0.361288 -0.365194 0.403129 -0.275207 0.240856 -0.328552 -0.386498 0.062998 -0.329482 -0.905508 -0.233655 -0.251239 -0.081637
sent_147 0.161951 -0.116592 -0.107399 -0.128468 -0.041348 -0.070006 0.064892 0.024189 0.000614 -0.162998 -0.394626 -0.022913 0.505536 -0.048881 -0.014376 0.199176 0.612552 0.372184 -0.169316 0.041004 -0.444454 -0.269417 -0.067624 0.194127 -0.092404 -0.106177 0.089658 -0.068970 0.213459 0.247804 -0.198097 0.280722 -0.178715 -0.058115 0.291514 0.316153 -0.018673 0.127616 0.645920 0.477662 0.126675 -0.154880 -0.395901 -0.152141 -0.043067 -0.520107 0.322198 0.186911 0.184247 0.222610
sent_148 0.187760 -0.206746 0.299269 -0.129232 0.143393 -0.045414 0.084850 -0.160554 0.088594 0.003912 -0.522269 0.191496 0.180960 0.087219 -0.018820 -0.136215 0.536542 -0.012442 -0.104147 -0.040708 -0.364082 -0.110212 -0.071403 -0.089973 -0.211177 -0.014859 -0.106941 -0.119564 0.292185 0.085515 -0.219506 0.027721 -0.050732 -0.134724 0.338958 0.145323 0.072192 0.033766 -0.056395 0.455841 -0.030647 0.138060 -0.219940 -0.254452 0.050360 -0.292425 0.017940 0.079342 -0.065158 0.150468
sent_149 0.187016 0.014797 -0.281584 0.321611 -0.322068 0.260843 -0.035908 -0.048196 0.410662 -0.194981 -0.366502 -0.123444 0.706014 0.548950 -0.493771 0.226698 0.285400 0.138342 -0.054580 0.192655 -0.049075 -0.422450 0.273661 0.256450 -0.184747 0.064788 -0.616277 0.121744 0.128950 -0.308936 -0.065290 0.175767 -0.518024 -0.313326 -0.180301 0.852914 -0.475968 0.166401 0.115067 0.254088 0.046593 -0.130558 -0.149565 -0.384654 -0.449010 -0.532312 0.104401 0.229441 0.473186 0.936885
sent_150 0.167091 0.035782 0.147863 -0.564266 -0.038556 -0.432927 0.064531 -0.156812 -0.264037 -0.055909 -0.648361 -0.639841 0.192823 -0.032468 -0.494349 -0.125076 -0.259082 -0.054848 -0.730998 -0.639093 -0.133000 0.337860 0.049548 -0.297012 -0.210033 -0.381719 -0.035236 0.028449 0.351451 0.045349 -0.353516 -0.016483 -0.152576 -0.004049 0.372356 0.494089 0.158521 0.005269 -0.032735 0.370231 -0.271303 -0.412312 -0.358092 -0.584131 -0.039272 -0.525418 0.092714 -0.019494 -0.008377 0.036394
sent_151 0.506315 0.206432 0.454184 -0.255006 -0.079237 -0.226445 -0.281207 -0.179726 -0.361979 0.141616 0.092952 -0.423367 0.329414 -0.114187 -0.210334 0.345837 0.206956 -0.391227 -0.136456 -0.206905 0.215710 0.431855 -0.442075 0.123739 -0.325914 0.043079 -0.136239 0.121948 0.282350 -0.327782 0.259925 0.081841 -0.329127 0.435782 -0.027064 0.387804 0.213058 -0.033052 -0.126872 0.336265 -0.040485 0.195804 -0.136025 -0.110485 0.164188 -0.119524 -0.019813 -0.330885 0.395745 -0.092996
sent_152 0.320390 0.105020 0.015480 -0.009176 -0.188322 -0.164511 0.203088 -0.002168 0.066110 -0.093197 -0.438181 0.024885 0.175669 0.173292 -0.076692 0.101586 0.263956 0.180499 -0.494485 -0.085563 -0.053950 -0.100197 -0.205767 0.048606 -0.241310 -0.028268 0.118341 -0.026525 -0.221285 -0.120574 -0.194218 -0.094014 -0.097567 0.178579 0.203990 0.320737 -0.024055 0.132281 0.238990 0.347908 -0.095242 0.070856 -0.107585 -0.319195 0.095049 -0.340726 0.073037 0.407935 -0.065830 0.176375
sent_153 0.232210 -0.096686 0.109370 -0.096929 -0.015975 0.032080 0.032852 -0.054422 -0.061413 -0.004679 -0.410217 0.083151 0.275077 0.102340 -0.078525 0.083964 0.279659 0.007738 -0.233546 0.020930 -0.209825 -0.048275 -0.077503 -0.060899 -0.151735 -0.083899 -0.031932 -0.174736 0.080798 0.045347 -0.135180 -0.105198 -0.050986 0.042057 0.214374 0.189514 -0.000225 0.215523 0.116002 0.316851 -0.008271 0.035503 -0.265903 -0.097403 0.027574 -0.335049 -0.000936 0.130197 -0.059742 0.092990
sent_154 -0.297683 0.019302 0.276359 0.231902 -0.271913 0.489609 -0.111706 0.099703 0.495320 -0.221485 -0.288343 0.341161 0.682214 -0.209899 1.187781 0.514929 1.155614 -0.354449 -0.330267 -0.364690 0.033646 -0.574430 0.161999 -0.079393 -0.135305 -0.452885 0.318457 0.495048 0.291415 -0.445196 -0.910148 -0.504690 -0.525455 0.446177 -0.163147 0.136070 -0.443788 -0.234455 -0.089078 -0.520966 1.060861 0.124229 -0.110682 0.456141 -0.308198 -0.599692 -0.021961 -0.184024 0.321749 -0.438504
sent_155 0.298231 -0.263883 -0.721334 0.272515 -0.297918 0.318005 -0.204102 -0.079230 0.129455 0.093644 0.188937 -0.146395 -0.131458 -0.134430 0.624437 -0.103118 0.246510 -0.419727 -0.467436 -0.740517 -0.351221 -0.130846 0.083203 0.210295 -0.645610 -0.658252 0.511489 0.254507 -0.296592 0.277693 -0.490976 -0.097736 -0.591874 0.582177 0.670763 0.035827 0.451046 -0.158847 -0.009530 0.243327 0.876921 0.666995 -0.711188 -0.274627 -0.658381 -0.205629 -0.504424 0.164916 -0.072477 -0.785692
sent_156 1.093397 -0.684698 0.649625 -1.336858 0.030324 0.114268 -0.238163 0.454646 0.855216 -0.296204 -0.027966 -1.016354 0.560195 0.331122 0.477291 -0.248559 1.155864 -0.114145 0.710728 -0.325357 -0.354974 -0.501481 -0.564094 0.790440 0.292286 -1.003938 -0.655511 0.467223 -0.239634 0.217269 -0.482765 -0.055559 -0.054130 -0.123406 -0.578097 -0.320410 0.371960 0.501079 -0.132835 -0.308461 0.546891 -0.519903 -0.270704 0.231930 -0.118355 0.297912 -0.094301 -0.090830 0.609440 0.121841
sent_157 0.582559 0.120663 -0.320469 -0.536989 -0.465297 0.200247 -0.500636 0.141868 0.252400 0.014834 -0.321435 -0.733854 0.159101 0.242432 0.598825 0.437508 -0.065838 -0.279905 0.619820 0.266967 -0.195068 -0.187321 0.527221 0.276146 0.010326 -0.785046 -0.389609 -0.279114 -0.383950 0.610002 -0.369458 0.124907 0.072514 0.154397 0.649011 -0.402123 0.357686 -0.147828 0.312318 -0.149728 -0.098517 -0.380896 0.197007 -0.032676 -0.422229 0.293247 0.257779 -0.119069 -0.039549 0.122319
sent_158 0.495579 -0.208152 -0.168903 -0.841344 0.204202 0.304330 -0.750924 -0.193745 0.406001 0.185326 -0.837216 -0.516676 0.871709 -0.078989 0.191192 -0.455089 0.646555 0.763760 -0.552849 0.153115 0.079043 -0.360152 -1.167309 0.787796 -0.667769 -0.552076 -0.809970 0.012110 -0.763431 0.598862 -0.520518 0.297365 0.369863 -0.799376 -0.146855 -0.281743 -0.329535 -0.203963 -0.082622 -0.011384 0.222567 -0.779154 0.082333 -0.046717 -0.787269 -0.119502 0.126872 -0.160013 0.540367 0.868996
sent_159 0.347718 -0.223183 0.123403 -0.358760 -0.196352 0.301408 -0.344528 -0.312218 0.146099 0.030946 -0.428197 -0.486869 0.304638 0.146736 0.179717 0.128116 0.054725 0.218407 0.547551 0.115479 -0.300851 0.273802 -0.089488 0.183729 -0.042079 -0.743602 -0.467535 -0.072137 0.088127 0.101408 -0.123947 0.477051 0.207889 0.030850 -0.073757 -0.269701 0.396289 0.184739 0.415848 -0.289426 -0.411490 -0.311612 0.324330 -0.363007 0.066065 0.647750 -0.029407 0.080871 -0.082056 0.497107
sent_160 0.463232 -0.813622 -0.035496 -1.091408 -0.120693 0.101629 -0.225701 -0.212847 0.006276 0.325059 -0.425565 -0.708455 0.318546 -0.569412 0.264646 -0.105555 0.473173 0.064891 0.545413 0.047873 -0.078220 0.065906 -0.834370 0.579846 0.118056 -0.958170 -0.587102 0.405547 -0.168440 0.164909 -0.790263 0.261508 0.171015 -0.207175 0.214868 -0.885361 0.131891 0.150092 0.320349 0.084620 -0.605956 -0.094061 -0.050288 -0.065534 -0.430580 -0.025611 -0.042703 0.010448 0.738306 0.213638
sent_161 0.519152 -0.579652 -0.212090 -0.465407 -0.037641 0.090603 -0.023922 -0.294281 0.377285 -0.493733 -0.487235 -0.082537 0.549880 0.268768 0.145283 -0.191646 0.313896 0.328449 0.293625 0.323669 -0.532216 -0.274153 0.463626 -0.176099 -0.169807 -0.951698 -0.190100 -0.319399 0.044483 1.048963 0.053777 0.563906 0.080836 -0.432598 -0.283028 -0.186370 -0.289053 -0.487632 -0.235542 -0.591890 -0.119097 -0.023945 0.538270 -0.522613 -0.702582 0.035661 0.071437 -0.630323 -0.252463 0.458182
sent_162 0.283344 -0.082602 -0.104542 -0.373184 -0.225957 0.331167 -0.281314 -0.163787 0.088711 0.009519 -0.034823 -0.443770 0.246599 0.055618 0.125777 -0.026349 0.201729 0.296385 0.336909 0.069819 -0.101836 -0.124476 0.117867 0.283059 0.118816 -0.496723 -0.142941 -0.125812 -0.296624 0.219540 -0.251157 0.392577 0.375962 0.007457 0.278189 -0.274940 0.311625 0.125520 0.179262 -0.128104 -0.185919 -0.294501 -0.130508 -0.319890 -0.148142 0.106959 -0.003958 -0.071925 -0.050383 0.373272
sent_163 0.455399 -0.051860 -0.133897 -0.532369 -0.254723 0.323451 -0.348200 -0.102443 0.094921 0.065192 -0.042967 -0.567788 0.302022 0.124459 0.054242 -0.239865 0.193874 0.188540 0.330312 0.039453 -0.176272 -0.017584 -0.050275 0.253979 0.106323 -0.710256 -0.102350 -0.034171 -0.389484 0.290443 -0.239539 0.440316 0.329770 0.019346 0.336186 -0.113168 0.447480 0.080033 0.109123 -0.242054 -0.138897 -0.206361 -0.083824 -0.418969 -0.195745 0.146426 0.210624 -0.161510 -0.017068 0.352703
sent_164 0.476495 -0.169965 -0.393571 -0.412295 -0.196995 0.433069 -0.474841 -0.229843 0.119709 0.063946 0.033070 -0.635179 0.447360 0.054113 0.206606 -0.075469 0.197538 0.312028 0.420042 -0.050668 -0.273373 -0.183279 -0.017665 0.361877 0.244609 -0.740668 -0.096954 -0.086006 -0.466579 0.339441 -0.396341 0.433709 0.424586 -0.044213 0.175394 -0.090487 0.383826 0.078458 0.197914 -0.272643 -0.205386 -0.351143 -0.197550 -0.311274 -0.036881 0.230724 0.014478 -0.188801 -0.137425 0.469985
sent_165 0.435421 -0.818767 -1.551237 -0.793502 -0.542660 0.601862 -0.436444 -0.605163 -0.768354 0.181471 0.502265 -0.475948 1.220554 -0.465090 0.759685 -0.289224 0.352944 0.089691 0.850135 -0.517941 -0.624610 -0.433538 -0.027296 0.503077 0.627242 -1.170788 -0.020763 0.497679 -0.855796 0.909466 -1.478382 -0.498148 -0.236463 -0.594433 0.195119 0.179763 -0.317802 0.528044 -0.116412 -0.397402 0.312472 -0.277492 -0.193865 0.043129 -0.072402 0.914634 0.088886 -0.927871 -0.665999 0.799129
sent_166 0.639691 -0.103223 -0.281046 -0.628775 -0.259922 0.002047 -0.523319 -0.284946 -0.158775 0.342651 0.118323 -0.543323 0.303016 -0.129784 0.018185 -0.173904 0.232536 0.438248 0.313977 0.076792 -0.209560 -0.058617 -0.040187 -0.001083 0.067695 -0.410907 -0.379172 0.121926 -0.299162 0.412475 -0.122765 0.170788 0.212449 -0.116581 0.339689 -0.144065 0.151392 0.235907 0.118678 -0.390282 -0.262651 -0.124723 0.224388 -0.360069 -0.025373 0.338106 0.171298 -0.000861 0.155696 0.135235
sent_167 0.395965 -0.016560 -0.121395 -0.334293 -0.239762 0.204851 -0.216421 -0.103012 0.050940 -0.021895 -0.060532 -0.473989 0.140681 0.039285 0.069929 -0.090751 0.204016 0.250961 0.320480 -0.003746 -0.135037 -0.022366 0.027923 0.266641 0.041793 -0.551484 -0.131441 -0.142264 -0.266676 0.315376 -0.215421 0.359742 0.351012 0.014374 0.241729 -0.241611 0.380278 0.105362 0.158672 -0.087589 -0.194836 -0.285906 -0.158260 -0.415522 -0.139489 0.113575 0.060455 -0.083732 -0.000090 0.390032
sent_168 0.590783 -0.704567 -0.328426 -1.348790 -0.240866 0.322719 -0.664965 -0.434384 0.350065 0.412904 -1.026631 -0.990371 -0.002245 0.046759 0.379778 -0.105570 0.483813 0.837912 -0.002719 0.126571 0.181222 0.532770 -0.441476 0.591196 0.246253 -0.764465 -0.073943 -0.357235 -0.836375 0.283884 -0.250411 0.688987 -0.571607 -0.778108 0.048291 0.514455 0.447354 0.546967 1.195119 -0.160060 0.258611 -0.246364 -0.297142 -0.384220 -0.332672 -0.081041 -0.706586 0.149073 -0.243464 0.573739
sent_169 0.198871 -0.098442 -0.189731 -0.161145 0.610948 0.146017 -0.398105 -0.082894 0.135251 0.109481 -0.268494 -0.088687 0.066538 -0.055105 -0.126873 -0.193089 -0.127855 0.395255 0.103158 0.257609 0.173026 0.138316 -0.340593 -0.028335 -0.000519 -0.662947 0.188889 0.140974 0.220055 -0.057795 -0.045311 0.053583 0.130093 0.066689 -0.205805 -0.061548 0.262859 0.220769 0.071844 -0.227013 -0.066989 0.032488 0.134693 0.074586 0.048770 -0.014667 -0.027824 -0.277606 0.142850 0.140948
sent_170 -0.246335 -0.265762 -0.013325 0.155632 0.428438 0.218660 -0.083095 0.054275 -0.129959 0.060542 -0.356049 -0.200036 -0.063594 0.141749 0.078524 -0.072753 -0.386864 -0.091915 0.200884 0.247170 0.061426 0.169558 -0.209769 -0.142678 0.238386 -0.583180 0.188665 0.216040 0.074886 0.225739 0.159656 -0.092310 0.082122 -0.087874 -0.568140 -0.140661 0.074339 0.096774 -0.080690 -0.100589 -0.024100 -0.053434 0.274776 0.134896 -0.098774 0.205473 -0.056755 -0.202133 0.088738 -0.068384
sent_171 -0.104110 -0.505175 -0.253682 -0.563773 0.375522 0.138440 0.494152 -0.080027 0.195139 -0.339972 -0.604469 0.326168 -0.017650 -0.348107 0.320979 0.367272 0.376767 -0.469953 0.280677 -0.029774 0.341685 0.346052 0.331839 0.197123 -0.134153 -0.111946 -1.015003 -0.468951 0.409804 0.174875 0.426272 -0.053846 0.036791 -0.423075 -0.414367 -0.152100 0.354600 0.029514 0.094459 -0.455386 0.061520 0.091287 -0.101111 0.165576 0.410088 0.008450 0.192726 -0.496238 -0.142804 0.298338
sent_172 0.031509 -0.238253 -0.036760 0.079308 0.386879 0.239119 -0.165821 -0.080201 0.068762 0.059413 -0.141198 -0.125008 0.105484 0.169311 0.045670 -0.251334 -0.307627 0.064906 0.117468 0.210597 0.115942 0.148147 -0.180845 0.025565 0.089545 -0.642238 -0.076239 0.159000 0.425495 0.119580 -0.030203 0.042263 0.068108 0.051052 -0.082582 -0.192147 0.159608 0.138618 -0.037752 0.004551 0.007955 0.067986 0.125723 0.137236 -0.175764 -0.087799 0.097453 -0.495238 -0.019181 -0.034186
sent_173 0.357790 0.098154 0.255272 -0.083703 0.733443 0.282811 -0.072074 -0.092022 -0.233196 0.101551 -0.227936 0.103957 -0.138245 0.022052 -0.142615 -0.350731 0.075716 -0.208920 -0.167060 0.278798 0.233818 0.192325 -0.276080 -0.030382 -0.235596 -0.099894 0.245280 0.285043 0.390603 -0.096310 -0.153166 0.068808 0.148100 0.109189 -0.302359 -0.151174 0.191236 0.110686 -0.078060 0.297833 -0.215883 0.183643 0.027132 0.151874 0.227726 0.040473 -0.315868 -0.236707 -0.529884 -0.103197
sent_174 0.130122 -0.111130 0.007737 -0.110921 0.488346 -0.030514 -0.362512 -0.243282 -0.107836 0.075761 0.089003 -0.024085 0.102754 -0.128366 -0.059705 -0.327566 -0.217208 0.093445 0.134386 0.105332 0.150588 0.172596 -0.366071 -0.163239 0.019942 -0.439102 0.224825 0.127518 0.356768 0.146394 -0.032440 0.048513 0.081240 0.335138 -0.232298 -0.072209 0.412898 0.147594 -0.142095 -0.022786 -0.066735 0.184677 -0.061455 0.021629 0.201356 0.030476 0.089769 -0.365903 0.036529 0.105434
sent_175 0.675434 0.446158 0.601177 -0.210838 0.363546 0.252062 -0.139591 -0.677363 -0.501490 0.314504 -0.268181 0.329084 -0.006422 0.313192 -0.979509 -1.175700 -0.426320 -0.167439 -0.271103 -0.050150 0.616259 0.182115 -0.046672 -0.020302 -0.526314 -0.966535 -0.148696 0.116639 -0.018531 -0.398884 -0.145903 0.307344 -0.424938 0.480601 -0.325050 0.113443 -0.030377 -0.649817 -0.262435 -0.367086 -0.205126 0.149378 0.478604 0.185996 0.241527 -0.064854 0.304953 -0.782648 0.034727 0.129147
sent_176 0.303751 -0.104165 -0.018079 -0.048777 -0.019326 0.071192 0.067960 0.107096 -0.234310 -0.017695 -0.281423 -0.245417 -0.221045 0.111924 0.078958 -0.156182 0.109047 -0.277396 -0.064051 0.365795 0.015980 0.302097 -0.222730 0.071080 -0.305673 -0.624988 0.100437 -0.127387 0.357858 0.221903 0.280512 -0.171544 0.200612 0.034122 -0.221337 -0.376936 0.178472 -0.089522 -0.222188 -0.343424 0.039775 -0.221408 0.072382 0.195832 0.132279 0.057017 0.000667 -0.329083 0.125617 -0.120841
sent_177 0.092614 -0.233739 -0.122227 -0.488771 0.173900 0.009142 -0.116263 0.095257 -0.165069 0.238148 0.134207 -0.180756 0.111050 -0.211662 0.165219 0.250525 -0.227411 -0.164129 0.031144 0.324513 0.116468 0.100747 -0.286771 0.107242 -0.000517 -0.432273 0.265280 0.199514 0.233598 0.198733 -0.216699 0.077058 0.034830 0.144953 -0.604327 -0.062988 -0.027219 0.032426 -0.082377 -0.373145 -0.168130 -0.007776 -0.194519 0.459678 -0.034667 0.317224 0.027868 -0.261062 -0.101675 0.341462
sent_178 0.160383 0.373665 0.196522 0.107336 0.425648 -0.105979 -0.133080 -0.362005 -0.241525 0.159668 -0.254656 0.068876 0.123837 -0.068680 0.171590 -0.119605 -0.290916 -0.736959 0.226701 0.005471 0.556553 0.187543 0.074869 0.104882 0.304908 -0.534540 0.263736 0.008546 0.143830 0.099717 0.320715 0.038795 -0.101970 0.298604 -0.409794 -0.313244 -0.163492 0.034706 -0.132673 -0.111228 -0.129224 0.233100 -0.167391 0.561319 -0.088148 -0.121490 0.119478 -0.452529 -0.129474 0.396666
sent_179 -0.028601 -0.349127 0.080988 -0.475530 0.425609 -0.228303 -0.096779 -0.086571 -0.403419 0.055222 -0.130475 -0.428310 -0.352780 -0.177293 -0.381875 -0.362684 -0.509004 -0.134658 0.133226 -0.291703 0.422584 0.709733 0.051084 -0.262188 0.028250 -0.579329 -0.254777 0.271239 0.665658 -0.057139 -0.510784 0.168661 0.010690 -0.178505 -0.048301 -0.230274 -0.017064 -0.194358 -0.070210 0.173446 -0.219946 0.031179 0.080452 -0.198006 -0.021912 -0.133304 0.092514 -0.096981 0.315933 -0.143985
sent_180 0.015036 -0.518545 -0.412884 0.109455 -0.040078 -0.554723 -1.174834 -0.064628 -0.069298 0.560433 0.972789 -0.003063 0.185674 -0.275257 -0.366215 0.411275 0.561447 -0.070313 0.173955 -0.527288 -0.222075 -0.313344 -0.212739 -0.374385 -0.659866 0.385388 0.000582 -0.348062 -1.001538 0.090033 -0.236888 -0.695289 -0.443160 -0.288272 -0.399564 1.235286 -0.303215 -0.317620 0.745270 0.296664 -0.239308 -0.050686 -0.818819 0.148038 -0.175694 -0.385995 -0.618219 -0.179434 0.644355 0.870868
sent_181 0.248842 -0.071545 0.446903 0.301221 -0.113244 0.255767 -0.052370 0.152333 -0.267224 0.089788 0.330805 -0.235851 0.016282 0.156981 0.287217 -0.003897 0.672741 0.181054 -0.001064 -0.090881 -0.268338 -0.067076 -0.281086 0.174214 -0.617758 0.308054 0.391515 -0.270692 -0.186160 -0.383796 -0.148981 -0.092554 -0.234982 -0.471630 -0.079632 0.251619 -0.570884 -0.185319 0.623663 0.365630 0.429976 -0.043920 -0.406172 0.154214 -0.102958 -0.421176 -0.317572 0.078199 0.432522 0.771288
sent_182 0.134666 -0.069472 0.062401 0.113140 0.110897 0.195199 0.096880 -0.005416 0.079632 -0.284762 0.572571 -0.203924 -0.143820 0.010242 0.163426 -0.098078 0.323129 0.049040 -0.482612 -0.207718 -0.005902 0.139829 -0.362211 0.278014 -0.703408 0.298908 -0.120055 -0.179948 0.206629 -0.078240 0.318219 -0.037417 -0.096900 0.134046 -0.238888 0.140544 -0.415257 0.151513 0.058309 0.334288 0.146665 -0.140470 -0.392173 0.091021 -0.009153 -0.127989 -0.162382 -0.081599 0.234931 0.322542
sent_183 0.116722 0.070876 0.200099 0.154427 0.271807 -0.014140 0.198685 -0.018089 -0.148253 -0.164678 0.259342 -0.166893 -0.019659 -0.065706 0.002987 -0.098672 0.451495 0.031881 -0.229785 -0.224562 0.216169 0.074489 -0.385408 0.316274 -0.835774 0.155603 0.044503 -0.223310 0.012791 -0.098075 0.057376 0.028427 -0.082790 0.062028 0.027626 0.041214 -0.475531 -0.012114 0.029207 0.295694 0.379187 -0.301100 -0.169012 -0.012491 0.161962 0.014147 -0.370360 -0.037859 0.318112 0.252819
sent_184 0.259044 -0.161664 0.118301 0.672442 -0.107432 -0.111905 -0.071307 0.042482 0.300235 -0.326058 0.027164 0.077947 -0.103327 0.003453 0.290812 0.195322 -0.052858 -0.046562 0.367702 -0.219433 0.019039 0.216124 -0.060016 0.278317 -0.473993 0.303160 0.146769 -0.295029 0.237040 -0.084782 0.299810 0.144053 -0.272404 -0.213024 -0.295714 -0.092721 -0.558328 0.340022 0.535990 0.322533 0.287126 -0.237018 -0.171856 0.050215 -0.259484 0.008807 -0.141134 0.521389 0.161672 0.514601
sent_185 0.296200 -0.070701 0.164173 0.160961 -0.131070 0.119276 -0.064730 0.171919 0.065230 -0.070718 0.344447 -0.112887 -0.070299 0.043883 0.002407 -0.113714 0.633264 0.025819 -0.112990 0.044144 -0.066461 0.078353 -0.268688 0.094187 -0.361029 0.130177 0.052279 -0.290980 0.106584 -0.015951 -0.046960 -0.105781 -0.141023 -0.192866 -0.160818 0.195529 -0.478165 -0.005159 0.364274 0.186934 0.203646 -0.178358 -0.470824 0.072226 0.151420 -0.308836 -0.176479 0.055712 0.304862 0.534043
sent_186 0.138129 0.222827 -0.592802 0.134979 -0.504908 0.416082 0.128289 -0.002087 -0.178754 -0.116254 -0.548449 0.213435 0.149352 0.200510 0.083362 -0.099101 0.349569 0.041854 -0.240680 0.174342 0.013841 -0.180688 0.125885 -0.340915 -0.419439 0.164248 -0.196697 0.234385 -0.026886 0.088024 0.000192 0.178583 -0.206262 0.072152 0.422487 0.015523 -0.675708 0.180366 0.152010 0.320565 0.092217 -0.278795 0.142490 0.803561 -0.113932 -0.276779 -0.011409 -0.221195 0.445812 0.293941
sent_187 0.194351 -0.040496 0.001962 0.076458 0.055259 0.283128 -0.145107 0.187313 -0.002681 -0.225505 0.261963 -0.030272 0.077089 0.062211 0.167863 0.015498 0.771585 -0.058767 -0.242324 0.043577 0.088772 -0.109524 -0.031529 0.144070 -0.410548 0.111290 -0.152533 -0.249598 0.250500 -0.083539 0.054350 -0.079838 -0.144839 -0.125918 -0.169736 0.062927 -0.435077 -0.132510 0.447733 0.217658 0.215703 -0.056608 -0.526660 0.175567 -0.081565 -0.016000 -0.265201 0.090331 0.376927 0.304581
sent_188 0.188577 -0.049955 0.110438 -0.040389 0.003908 0.069680 -0.151952 0.128153 -0.268100 -0.119364 0.127141 -0.325435 -0.200104 -0.093013 -0.197566 -0.334134 0.109811 0.131095 -0.222450 -0.104710 -0.186515 0.221611 -0.348567 -0.097359 -0.509013 -0.246486 -0.174004 -0.070179 0.383348 0.010224 -0.321931 -0.162319 -0.067405 -0.349368 -0.099659 0.038534 -0.256416 0.162106 0.203394 0.153088 0.199469 -0.123645 -0.292512 -0.128936 0.012447 -0.282540 -0.017443 0.086316 0.362454 0.499415
sent_189 0.154943 -0.060479 0.176290 0.249310 0.037630 0.053627 0.034873 0.110652 0.103643 0.052144 0.044991 -0.330083 0.082843 -0.026978 0.242133 -0.300207 0.556816 -0.244261 -0.118908 0.116951 -0.081590 0.018362 -0.338941 0.146679 -0.215627 -0.070594 0.046937 -0.218552 0.036315 -0.102364 0.226077 -0.107025 -0.026367 0.103181 0.074691 -0.186625 -0.268077 -0.217069 0.487197 0.195667 0.272852 -0.044879 -0.233277 0.369409 0.215208 -0.114908 0.170181 -0.077135 0.624075 0.149068
sent_190 -0.044360 -0.218796 -0.463164 0.772511 -0.683346 -0.083791 -0.018316 -0.428186 0.202211 -0.408550 0.066805 0.274488 0.485718 -0.633232 0.189182 0.027589 -0.309784 0.484892 -0.240139 0.061852 0.739279 0.168681 0.073590 0.018473 -0.985920 -0.182240 0.069653 0.134022 0.330220 -0.008570 0.300089 -0.555746 -0.390188 0.093837 -0.016423 -0.534319 -0.320395 0.778329 0.305869 0.378858 0.869523 -0.532907 0.067446 0.143496 -0.194797 -0.128070 0.591001 -0.454914 0.277480 -0.211679
sent_191 -0.173665 -0.102598 0.115754 0.574511 0.254227 0.018215 0.038182 0.384171 0.161538 -0.245126 -0.000706 -0.458754 0.295057 0.250268 0.057875 -0.470843 1.342937 0.275113 0.079616 -0.331313 0.325413 -0.228240 0.522783 0.344097 -0.945346 -0.065710 -0.275609 -0.127870 0.451612 -0.474562 0.244162 0.113435 -0.045281 -0.258701 0.234550 0.040257 -0.810175 0.034576 0.474787 0.433563 0.092023 0.182019 -0.622083 -0.257187 -0.091329 -0.368227 0.170692 0.247769 0.506427 0.202622
sent_192 0.160195 -0.620379 0.769309 0.347731 0.824692 0.288591 0.251818 0.579823 0.303246 0.036198 0.312830 -0.876792 0.412118 0.183402 0.398988 -0.585142 0.838419 0.459644 0.287001 0.427951 -0.191390 -0.053432 -0.971473 0.067553 -0.405558 -0.020556 -0.088274 0.285708 0.130117 -0.002080 0.146887 -0.663444 -0.675624 -0.136299 0.228262 0.184359 -0.896118 -0.072667 -0.180701 0.278213 0.339034 0.561003 -0.649609 -0.159317 -0.676983 -0.396640 -0.866215 -0.374832 0.594451 0.474244
sent_193 -0.693266 0.589078 0.346130 -0.069170 -0.123503 -0.021597 0.681294 -0.452780 -0.644473 0.653449 0.401402 0.011173 0.791185 -1.101756 -0.058307 0.132310 0.457911 -0.836686 0.493333 -0.070677 0.713190 -0.651669 -0.336098 0.218641 -0.297260 0.419795 0.413904 -0.087905 -0.555037 0.296832 0.323194 0.088687 -0.228131 0.322805 -0.043156 -0.074705 0.489413 -0.079770 -0.545766 0.289031 0.453761 -0.321774 0.920966 0.651043 0.305972 0.172082 0.134943 -0.491975 -0.884008 -1.254862
sent_194 -0.004408 0.084391 0.004600 0.019068 0.001319 -0.116904 0.024926 -0.111337 0.014015 -0.086613 -0.012290 -0.096206 -0.024903 0.012996 0.084565 -0.151004 -0.073334 -0.069669 -0.116031 -0.083356 0.072470 0.042687 -0.102537 -0.031767 -0.021285 -0.124910 0.067806 0.074192 0.113852 -0.018060 0.072575 0.095415 0.019894 -0.019003 -0.041018 -0.004994 -0.047017 0.018609 -0.028383 -0.034255 -0.033499 0.094019 -0.033325 -0.136710 0.067639 0.088559 0.065699 0.018356 -0.066096 0.005773
sent_195 -0.000662 0.028759 -0.019351 0.014699 -0.007638 -0.059141 0.070803 -0.054926 -0.004091 -0.046014 -0.000829 -0.079262 0.040306 0.009094 0.031010 -0.072246 -0.051348 -0.057995 -0.105860 0.028996 0.024075 0.008918 -0.029712 -0.023569 -0.016018 -0.059764 -0.032213 0.085573 0.092398 -0.090951 -0.006180 0.011047 0.005059 0.076898 -0.038812 0.023046 0.024754 -0.013222 0.022145 -0.044315 -0.051602 0.037486 0.008708 -0.039233 0.096495 0.061090 0.078443 0.034843 -0.026023 0.064151
sent_196 0.008785 0.183020 0.424987 0.288269 0.326910 0.036874 0.371390 0.415750 0.522864 -0.271537 0.444745 0.405774 -0.299627 -0.612614 0.733037 -0.672318 -0.655838 -0.843670 0.276205 -0.068466 0.388064 -0.366763 0.238902 0.580365 -1.093706 0.042697 0.152738 0.389595 0.742029 -0.262736 0.879112 0.500084 0.194114 0.632156 0.192878 -0.506751 -0.046158 -0.344997 -0.444953 0.127829 0.101000 -0.074349 0.112762 -0.195719 0.071037 -0.334943 0.484129 -0.180967 -0.027315 -1.018026
sent_197 -0.065930 0.126111 -0.114902 0.061689 0.057171 -0.151000 0.275103 -0.084705 0.040486 -0.074748 -0.140928 -0.058959 0.096525 -0.011761 0.197033 -0.150918 -0.058209 -0.103749 -0.070714 0.127809 0.029145 0.044620 0.014500 -0.033789 -0.120889 -0.125335 -0.230941 0.057796 0.078579 -0.225142 0.050280 -0.009567 0.135910 0.160224 0.007512 -0.078937 0.027790 -0.079265 0.075398 0.009540 -0.006975 0.033950 0.127993 -0.017277 0.191530 0.208623 0.016430 -0.004689 0.049732 -0.031925
sent_198 -0.080902 0.270973 0.044659 0.189890 0.143613 -0.037599 -0.041355 -0.141501 -0.141263 -0.108482 0.080360 -0.096104 0.034646 -0.145382 0.154769 -0.127340 -0.035833 -0.259907 -0.131750 -0.037747 0.024244 0.015787 -0.120346 0.039080 -0.138396 -0.182258 -0.105279 0.354153 0.267288 -0.098057 0.173255 -0.031209 -0.139424 0.305589 -0.101408 0.008749 -0.234902 -0.131067 -0.027353 0.140157 -0.242353 0.193049 0.030820 0.037837 0.163114 -0.068810 0.080682 0.144159 0.089614 0.146217
sent_199 0.144797 -0.013519 0.142410 -0.022807 0.343380 -0.232952 0.238724 -0.054074 0.112460 -0.328749 0.043434 -0.308620 0.116566 -0.017520 -0.014270 -0.426992 -0.046031 -0.197899 -0.238148 -0.338191 0.229419 -0.032891 -0.314607 0.265815 -0.123189 -0.255758 0.204302 0.226823 0.098202 -0.180509 0.590411 0.074058 -0.011631 0.314419 0.055765 -0.216978 -0.015963 0.370979 0.320961 0.012550 0.384802 -0.202466 -0.060472 0.351606 0.041751 0.347806 0.233637 -0.015618 -0.143883 -0.323649
sent_200 -0.189209 0.051350 0.111565 -0.001274 -0.040926 -0.030933 0.118152 0.040328 0.028938 -0.234707 -0.167761 0.096814 -0.014825 -0.001100 0.194517 -0.166766 0.016676 -0.414007 -0.151285 0.051552 0.163917 0.009993 0.013552 -0.046313 -0.193913 -0.114077 -0.323007 0.113420 0.246048 -0.227961 0.201888 -0.122036 0.056525 -0.012341 0.038867 -0.153024 -0.005837 -0.189501 -0.156010 -0.014368 -0.056229 0.099806 0.074881 0.036901 0.273419 0.305607 0.212998 0.004770 -0.011443 0.075381
sent_201 -0.042889 0.038529 -0.076835 -0.011638 0.116412 -0.019806 0.073706 -0.193457 0.059913 -0.117406 0.119370 -0.138368 0.078074 -0.152909 0.141929 0.072078 -0.213766 -0.197499 -0.104167 0.112551 0.126082 0.175217 -0.000411 -0.053613 -0.133702 -0.095304 -0.049077 0.179870 0.174080 -0.275513 -0.025278 0.120213 0.059976 0.210189 0.114257 -0.097076 -0.030579 -0.043847 -0.006094 -0.048051 -0.190325 0.213179 0.038284 0.038619 0.121748 0.186410 0.017083 0.069294 -0.044306 -0.104268
sent_202 -0.060364 -0.198711 0.058641 -0.003259 -0.239675 -0.505772 0.563638 -0.429248 0.020600 0.280130 0.503484 0.262089 0.226311 -0.194254 -0.350325 -0.175808 0.670891 0.727363 -0.791399 -0.867587 -0.146702 -0.162594 0.390751 -0.034281 0.390628 0.667781 -0.036967 -0.084927 1.047035 -0.477515 0.382608 0.301969 0.311805 0.063526 0.791443 -0.379663 0.436267 0.800402 0.378395 0.302886 0.774476 0.018557 -0.270005 -0.820176 0.425293 -0.771294 -0.229049 0.270303 0.199063 0.078018
sent_203 -0.249173 -0.026615 0.005407 0.195365 -0.108270 0.008007 0.331906 0.018155 0.056679 0.047014 -0.097022 -0.068033 0.106929 0.057341 0.183095 -0.031281 0.070521 -0.238344 0.086520 0.206740 0.025423 0.088140 -0.060526 -0.033138 -0.018527 -0.206511 -0.123216 0.096780 0.131775 -0.191527 0.158639 0.024558 0.078819 0.095764 -0.000498 -0.062400 -0.056223 0.066812 0.077098 -0.210586 -0.079426 -0.115475 0.131651 0.212980 0.044577 0.117744 0.261226 -0.004133 0.017867 -0.223696
sent_204 0.040460 0.102456 0.114620 0.087184 -0.162533 -0.185741 0.078121 -0.218755 0.112936 0.147638 0.058477 -0.051918 -0.057279 0.013151 -0.012563 -0.050391 -0.034711 -0.032995 -0.245072 -0.271960 -0.222514 -0.044120 -0.014825 -0.149238 -0.037723 0.074036 0.320542 0.141837 -0.196358 -0.207827 0.039763 0.018992 -0.101290 0.274798 -0.188116 0.093901 0.313586 0.155944 -0.130284 -0.022482 0.103835 0.052218 -0.243679 0.128247 0.079860 -0.091981 -0.160371 0.034314 0.053322 0.200527
sent_205 0.046780 0.137728 0.137399 0.122500 -0.227932 -0.248939 0.112076 -0.282303 0.169047 0.207409 0.049739 -0.095857 -0.060600 0.026331 -0.021141 -0.077474 -0.053343 -0.041983 -0.286987 -0.327196 -0.267095 -0.059682 -0.030999 -0.191387 -0.076396 0.039930 0.405061 0.175057 -0.255490 -0.244840 0.055834 0.034217 -0.110599 0.343731 -0.244520 0.109892 0.365345 0.164178 -0.148471 -0.016238 0.111036 0.066421 -0.313266 0.148271 0.113859 -0.121961 -0.163950 0.040061 0.090180 0.260303
