## MART
## No. of trees = 1000
## No. of leaves = 10
## No. of threshold candidates = 256
## Learning rate = 0.1
## Stop early = 100

<ensemble>
	<tree id="1" weight="0.1">
		<split>
			<feature> 15 </feature>
			<threshold> 0.5584096 </threshold>
			<split pos="left">
				<feature> 16 </feature>
				<threshold> -0.4965589 </threshold>
				<split pos="left">
					<feature> 45 </feature>
					<threshold> 1.0616522 </threshold>
					<split pos="left">
						<feature> 57 </feature>
						<threshold> -1.4057362 </threshold>
						<split pos="left">
							<output> 1.111624 </output>
						</split>
						<split pos="right">
							<feature> 47 </feature>
							<threshold> 0.7078906 </threshold>
							<split pos="left">
								<feature> 60 </feature>
								<threshold> -1.0782932 </threshold>
								<split pos="left">
									<output> 1.0746528 </output>
								</split>
								<split pos="right">
									<output> 1.0270759 </output>
								</split>
							</split>
							<split pos="right">
								<output> 1.068758 </output>
							</split>
						</split>
					</split>
					<split pos="right">
						<output> 1.0957757 </output>
					</split>
				</split>
				<split pos="right">
					<feature> 43 </feature>
					<threshold> 0.96637875 </threshold>
					<split pos="left">
						<output> 1.096971 </output>
					</split>
					<split pos="right">
						<output> 1.1988326 </output>
					</split>
				</split>
			</split>
			<split pos="right">
				<feature> 16 </feature>
				<threshold> -0.4965589 </threshold>
				<split pos="left">
					<output> 1.136162 </output>
				</split>
				<split pos="right">
					<feature> 15 </feature>
					<threshold> 1.8345262 </threshold>
					<split pos="left">
						<output> 1.2405019 </output>
					</split>
					<split pos="right">
						<output> 1.3872991 </output>
					</split>
				</split>
			</split>
		</split>
	</tree>
	<tree id="2" weight="0.1">
		<split>
			<feature> 15 </feature>
			<threshold> 0.5584096 </threshold>
			<split pos="left">
				<feature> 16 </feature>
				<threshold> -0.4965589 </threshold>
				<split pos="left">
					<feature> 44 </feature>
					<threshold> 0.60319257 </threshold>
					<split pos="left">
						<feature> 42 </feature>
						<threshold> -1.0237201 </threshold>
						<split pos="left">
							<output> 0.9758834 </output>
						</split>
						<split pos="right">
							<feature> 35 </feature>
							<threshold> -0.97574663 </threshold>
							<split pos="left">
								<output> 0.96725994 </output>
							</split>
							<split pos="right">
								<feature> 47 </feature>
								<threshold> 0.5506701 </threshold>
								<split pos="left">
									<output> 0.919408 </output>
								</split>
								<split pos="right">
									<output> 0.9503169 </output>
								</split>
							</split>
						</split>
					</split>
					<split pos="right">
						<output> 0.9736624 </output>
					</split>
				</split>
				<split pos="right">
					<feature> 15 </feature>
					<threshold> -0.29233477 </threshold>
					<split pos="left">
						<output> 0.96664524 </output>
					</split>
					<split pos="right">
						<output> 1.0401171 </output>
					</split>
				</split>
			</split>
			<split pos="right">
				<feature> 16 </feature>
				<threshold> -0.4965589 </threshold>
				<split pos="left">
					<output> 1.022525 </output>
				</split>
				<split pos="right">
					<feature> 15 </feature>
					<threshold> 1.8345262 </threshold>
					<split pos="left">
						<output> 1.116476 </output>
					</split>
					<split pos="right">
						<output> 1.2486078 </output>
					</split>
				</split>
			</split>
		</split>
	</tree>
	<tree id="3" weight="0.1">
		<split>
			<feature> 15 </feature>
			<threshold> 0.98378175 </threshold>
			<split pos="left">
				<feature> 16 </feature>
				<threshold> -0.4965589 </threshold>
				<split pos="left">
					<feature> 50 </feature>
					<threshold> 1.1093547 </threshold>
					<split pos="left">
						<feature> 32 </feature>
						<threshold> -0.96452236 </threshold>
						<split pos="left">
							<output> 0.8845156 </output>
						</split>
						<split pos="right">
							<feature> 35 </feature>
							<threshold> -1.217813 </threshold>
							<split pos="left">
								<output> 0.8893062 </output>
							</split>
							<split pos="right">
								<feature> 38 </feature>
								<threshold> 1.1740836 </threshold>
								<split pos="left">
									<feature> 58 </feature>
									<threshold> 1.027007 </threshold>
									<split pos="left">
										<output> 0.829054 </output>
									</split>
									<split pos="right">
										<output> 0.86659706 </output>
									</split>
								</split>
								<split pos="right">
									<output> 0.88551295 </output>
								</split>
							</split>
						</split>
					</split>
					<split pos="right">
						<output> 0.9001602 </output>
					</split>
				</split>
				<split pos="right">
					<feature> 15 </feature>
					<threshold> -0.29233477 </threshold>
					<split pos="left">
						<output> 0.8700064 </output>
					</split>
					<split pos="right">
						<output> 0.9484078 </output>
					</split>
				</split>
			</split>
			<split pos="right">
				<feature> 16 </feature>
				<threshold> -0.4965589 </threshold>
				<split pos="left">
					<output> 0.9506052 </output>
				</split>
				<split pos="right">
					<output> 1.0678697 </output>
				</split>
			</split>
		</split>
	</tree>
	<tree id="4" weight="0.1">
		<split>
			<feature> 15 </feature>
			<threshold> 0.98378175 </threshold>
			<split pos="left">
				<feature> 16 </feature>
				<threshold> -0.4965589 </threshold>
				<split pos="left">
					<feature> 63 </feature>
					<threshold> 1.1433731 </threshold>
					<split pos="left">
						<feature> 38 </feature>
						<threshold> 1.0552269 </threshold>
						<split pos="left">
							<feature> 57 </feature>
							<threshold> -0.93448216 </threshold>
							<split pos="left">
								<output> 0.7895394 </output>
							</split>
							<split pos="right">
								<feature> 44 </feature>
								<threshold> 0.7167562 </threshold>
								<split pos="left">
									<output> 0.7461774 </output>
								</split>
								<split pos="right">
									<output> 0.7785773 </output>
								</split>
							</split>
						</split>
						<split pos="right">
							<output> 0.80273145 </output>
						</split>
					</split>
					<split pos="right">
						<output> 0.81453747 </output>
					</split>
				</split>
				<split pos="right">
					<feature> 34 </feature>
					<threshold> -1.0213946 </threshold>
					<split pos="left">
						<output> 0.9059713 </output>
					</split>
					<split pos="right">
						<feature> 42 </feature>
						<threshold> -1.7029115 </threshold>
						<split pos="left">
							<output> 0.94035274 </output>
						</split>
						<split pos="right">
							<output> 0.7980001 </output>
						</split>
					</split>
				</split>
			</split>
			<split pos="right">
				<feature> 2 </feature>
				<threshold> -0.16287607 </threshold>
				<split pos="left">
					<output> 1.0197079 </output>
				</split>
				<split pos="right">
					<output> 0.88225305 </output>
				</split>
			</split>
		</split>
	</tree>
	<tree id="5" weight="0.1">
		<split>
			<feature> 15 </feature>
			<threshold> 0.5584096 </threshold>
			<split pos="left">
				<feature> 16 </feature>
				<threshold> 1.0193768 </threshold>
				<split pos="left">
					<feature> 45 </feature>
					<threshold> 1.285986 </threshold>
					<split pos="left">
						<feature> 39 </feature>
						<threshold> -1.115869 </threshold>
						<split pos="left">
							<output> 0.73461795 </output>
						</split>
						<split pos="right">
							<feature> 47 </feature>
							<threshold> 0.96992487 </threshold>
							<split pos="left">
								<feature> 25 </feature>
								<threshold> -1.3003662 </threshold>
								<split pos="left">
									<output> 0.7288318 </output>
								</split>
								<split pos="right">
									<feature> 35 </feature>
									<threshold> -1.0362632 </threshold>
									<split pos="left">
										<output> 0.71380657 </output>
									</split>
									<split pos="right">
										<output> 0.670333 </output>
									</split>
								</split>
							</split>
							<split pos="right">
								<output> 0.7240491 </output>
							</split>
						</split>
					</split>
					<split pos="right">
						<output> 0.7533767 </output>
					</split>
				</split>
				<split pos="right">
					<output> 0.7924971 </output>
				</split>
			</split>
			<split pos="right">
				<feature> 15 </feature>
				<threshold> 1.8345262 </threshold>
				<split pos="left">
					<feature> 2 </feature>
					<threshold> -0.29990962 </threshold>
					<split pos="left">
						<output> 0.8811652 </output>
					</split>
					<split pos="right">
						<output> 0.72674775 </output>
					</split>
				</split>
				<split pos="right">
					<output> 0.88794595 </output>
				</split>
			</split>
		</split>
	</tree>
	<tree id="6" weight="0.1">
		<split>
			<feature> 15 </feature>
			<threshold> 0.13303742 </threshold>
			<split pos="left">
				<feature> 38 </feature>
				<threshold> 1.2335119 </threshold>
				<split pos="left">
					<feature> 32 </feature>
					<threshold> -1.1828594 </threshold>
					<split pos="left">
						<output> 0.6634257 </output>
					</split>
					<split pos="right">
						<feature> 28 </feature>
						<threshold> -1.059103 </threshold>
						<split pos="left">
							<output> 0.65326923 </output>
						</split>
						<split pos="right">
							<feature> 48 </feature>
							<threshold> 0.9681736 </threshold>
							<split pos="left">
								<feature> 50 </feature>
								<threshold> 0.57683843 </threshold>
								<split pos="left">
									<output> 0.5986738 </output>
								</split>
								<split pos="right">
									<output> 0.6243537 </output>
								</split>
							</split>
							<split pos="right">
								<output> 0.645765 </output>
							</split>
						</split>
					</split>
				</split>
				<split pos="right">
					<output> 0.679822 </output>
				</split>
			</split>
			<split pos="right">
				<feature> 16 </feature>
				<threshold> -0.4965589 </threshold>
				<split pos="left">
					<output> 0.6557421 </output>
				</split>
				<split pos="right">
					<feature> 15 </feature>
					<threshold> 2.2598982 </threshold>
					<split pos="left">
						<feature> 2 </feature>
						<threshold> -0.29990962 </threshold>
						<split pos="left">
							<output> 0.8025045 </output>
						</split>
						<split pos="right">
							<output> 0.68725413 </output>
						</split>
					</split>
					<split pos="right">
						<output> 0.86808914 </output>
					</split>
				</split>
			</split>
		</split>
	</tree>
	<tree id="7" weight="0.1">
		<split>
			<feature> 15 </feature>
			<threshold> 0.98378175 </threshold>
			<split pos="left">
				<feature> 16 </feature>
				<threshold> 1.0193768 </threshold>
				<split pos="left">
					<feature> 43 </feature>
					<threshold> 1.0877068 </threshold>
					<split pos="left">
						<feature> 66 </feature>
						<threshold> 1.3895854 </threshold>
						<split pos="left">
							<feature> 63 </feature>
							<threshold> 1.2945288 </threshold>
							<split pos="left">
								<feature> 19 </feature>
								<threshold> 0.79053265 </threshold>
								<split pos="left">
									<feature> 42 </feature>
									<threshold> -1.3633158 </threshold>
									<split pos="left">
										<output> 0.5932476 </output>
									</split>
									<split pos="right">
										<feature> 47 </feature>
										<threshold> 1.441587 </threshold>
										<split pos="left">
											<output> 0.5393962 </output>
										</split>
										<split pos="right">
											<output> 0.600324 </output>
										</split>
									</split>
								</split>
								<split pos="right">
									<output> 0.576229 </output>
								</split>
							</split>
							<split pos="right">
								<output> 0.6048501 </output>
							</split>
						</split>
						<split pos="right">
							<output> 0.6185715 </output>
						</split>
					</split>
					<split pos="right">
						<output> 0.60689825 </output>
					</split>
				</split>
				<split pos="right">
					<output> 0.65646136 </output>
				</split>
			</split>
			<split pos="right">
				<feature> 2 </feature>
				<threshold> 0.5222917 </threshold>
				<split pos="left">
					<output> 0.7185611 </output>
				</split>
				<split pos="right">
					<output> 0.6189672 </output>
				</split>
			</split>
		</split>
	</tree>
	<tree id="8" weight="0.1">
		<split>
			<feature> 15 </feature>
			<threshold> 1.4091539 </threshold>
			<split pos="left">
				<feature> 16 </feature>
				<threshold> -0.4965589 </threshold>
				<split pos="left">
					<feature> 50 </feature>
					<threshold> 1.3756129 </threshold>
					<split pos="left">
						<feature> 1 </feature>
						<threshold> -0.2879671 </threshold>
						<split pos="left">
							<feature> 24 </feature>
							<threshold> -0.98357254 </threshold>
							<split pos="left">
								<output> 0.5875022 </output>
							</split>
							<split pos="right">
								<feature> 28 </feature>
								<threshold> -1.389557 </threshold>
								<split pos="left">
									<output> 0.6204211 </output>
								</split>
								<split pos="right">
									<feature> 66 </feature>
									<threshold> 0.9961041 </threshold>
									<split pos="left">
										<output> 0.49568644 </output>
									</split>
									<split pos="right">
										<output> 0.5624621 </output>
									</split>
								</split>
							</split>
						</split>
						<split pos="right">
							<output> 0.48230302 </output>
						</split>
					</split>
					<split pos="right">
						<output> 0.5539216 </output>
					</split>
				</split>
				<split pos="right">
					<feature> 43 </feature>
					<threshold> 1.4516904 </threshold>
					<split pos="left">
						<feature> 3 </feature>
						<threshold> 0.10642672 </threshold>
						<split pos="left">
							<output> 0.566777 </output>
						</split>
						<split pos="right">
							<output> 0.50571096 </output>
						</split>
					</split>
					<split pos="right">
						<output> 0.6472663 </output>
					</split>
				</split>
			</split>
			<split pos="right">
				<output> 0.6280752 </output>
			</split>
		</split>
	</tree>
	<tree id="9" weight="0.1">
		<split>
			<feature> 15 </feature>
			<threshold> 1.8345262 </threshold>
			<split pos="left">
				<feature> 16 </feature>
				<threshold> 1.0193768 </threshold>
				<split pos="left">
					<feature> 38 </feature>
					<threshold> 1.5306536 </threshold>
					<split pos="left">
						<feature> 35 </feature>
						<threshold> -1.7019458 </threshold>
						<split pos="left">
							<output> 0.53420347 </output>
						</split>
						<split pos="right">
							<feature> 44 </feature>
							<threshold> 1.2277924 </threshold>
							<split pos="left">
								<feature> 42 </feature>
								<threshold> -1.3633158 </threshold>
								<split pos="left">
									<output> 0.49415648 </output>
								</split>
								<split pos="right">
									<feature> 57 </feature>
									<threshold> -1.4057362 </threshold>
									<split pos="left">
										<output> 0.49636436 </output>
									</split>
									<split pos="right">
										<feature> 46 </feature>
										<threshold> -2.5147495 </threshold>
										<split pos="left">
											<output> 0.5764032 </output>
										</split>
										<split pos="right">
											<feature> 2 </feature>
											<threshold> 0.0 </threshold>
											<split pos="left">
												<output> 0.4460171 </output>
											</split>
											<split pos="right">
												<output> 0.42466804 </output>
											</split>
										</split>
									</split>
								</split>
							</split>
							<split pos="right">
								<output> 0.4969649 </output>
							</split>
						</split>
					</split>
					<split pos="right">
						<output> 0.53159875 </output>
					</split>
				</split>
				<split pos="right">
					<output> 0.5485204 </output>
				</split>
			</split>
			<split pos="right">
				<output> 0.59577453 </output>
			</split>
		</split>
	</tree>
	<tree id="10" weight="0.1">
		<split>
			<feature> 15 </feature>
			<threshold> 0.13303742 </threshold>
			<split pos="left">
				<feature> 38 </feature>
				<threshold> 1.2335119 </threshold>
				<split pos="left">
					<feature> 65 </feature>
					<threshold> -0.9440285 </threshold>
					<split pos="left">
						<output> 0.4359635 </output>
					</split>
					<split pos="right">
						<feature> 62 </feature>
						<threshold> 1.0709293 </threshold>
						<split pos="left">
							<feature> 1 </feature>
							<threshold> -0.2879671 </threshold>
							<split pos="left">
								<output> 0.40167585 </output>
							</split>
							<split pos="right">
								<output> 0.3796068 </output>
							</split>
						</split>
						<split pos="right">
							<output> 0.43570784 </output>
						</split>
					</split>
				</split>
				<split pos="right">
					<output> 0.4517074 </output>
				</split>
			</split>
			<split pos="right">
				<feature> 2 </feature>
				<threshold> -0.43694317 </threshold>
				<split pos="left">
					<output> 0.5366302 </output>
				</split>
				<split pos="right">
					<feature> 15 </feature>
					<threshold> 2.2598982 </threshold>
					<split pos="left">
						<feature> 2 </feature>
						<threshold> 0.7963588 </threshold>
						<split pos="left">
							<feature> 36 </feature>
							<threshold> -1.873597 </threshold>
							<split pos="left">
								<output> 0.5434991 </output>
							</split>
							<split pos="right">
								<output> 0.43615654 </output>
							</split>
						</split>
						<split pos="right">
							<output> 0.39239565 </output>
						</split>
					</split>
					<split pos="right">
						<output> 0.5599324 </output>
					</split>
				</split>
			</split>
		</split>
	</tree>
	<tree id="11" weight="0.1">
		<split>
			<feature> 15 </feature>
			<threshold> 0.5584096 </threshold>
			<split pos="left">
				<feature> 53 </feature>
				<threshold> 1.4389035 </threshold>
				<split pos="left">
					<feature> 45 </feature>
					<threshold> 0.893402 </threshold>
					<split pos="left">
						<feature> 49 </feature>
						<threshold> -1.6404269 </threshold>
						<split pos="left">
							<output> 0.42265317 </output>
						</split>
						<split pos="right">
							<feature> 35 </feature>
							<threshold> -1.217813 </threshold>
							<split pos="left">
								<output> 0.4004321 </output>
							</split>
							<split pos="right">
								<feature> 22 </feature>
								<threshold> 1.0399113 </threshold>
								<split pos="left">
									<feature> 1 </feature>
									<threshold> -0.2879671 </threshold>
									<split pos="left">
										<output> 0.35856053 </output>
									</split>
									<split pos="right">
										<output> 0.3383718 </output>
									</split>
								</split>
								<split pos="right">
									<output> 0.38819894 </output>
								</split>
							</split>
						</split>
					</split>
					<split pos="right">
						<output> 0.39765966 </output>
					</split>
				</split>
				<split pos="right">
					<output> 0.426762 </output>
				</split>
			</split>
			<split pos="right">
				<feature> 2 </feature>
				<threshold> -0.16287607 </threshold>
				<split pos="left">
					<output> 0.49454227 </output>
				</split>
				<split pos="right">
					<feature> 15 </feature>
					<threshold> 2.2598982 </threshold>
					<split pos="left">
						<output> 0.3808999 </output>
					</split>
					<split pos="right">
						<output> 0.49843067 </output>
					</split>
				</split>
			</split>
		</split>
	</tree>
	<tree id="12" weight="0.1">
		<split>
			<feature> 16 </feature>
			<threshold> 1.0193768 </threshold>
			<split pos="left">
				<feature> 64 </feature>
				<threshold> -1.4791526 </threshold>
				<split pos="left">
					<output> 0.39431006 </output>
				</split>
				<split pos="right">
					<feature> 66 </feature>
					<threshold> 1.881437 </threshold>
					<split pos="left">
						<feature> 24 </feature>
						<threshold> -1.6251855 </threshold>
						<split pos="left">
							<output> 0.39464617 </output>
						</split>
						<split pos="right">
							<feature> 43 </feature>
							<threshold> 1.5123544 </threshold>
							<split pos="left">
								<feature> 39 </feature>
								<threshold> -1.261646 </threshold>
								<split pos="left">
									<output> 0.36202994 </output>
								</split>
								<split pos="right">
									<feature> 1 </feature>
									<threshold> -0.2879671 </threshold>
									<split pos="left">
										<feature> 47 </feature>
										<threshold> 0.8651112 </threshold>
										<split pos="left">
											<feature> 41 </feature>
											<threshold> -1.0616927 </threshold>
											<split pos="left">
												<output> 0.38347954 </output>
											</split>
											<split pos="right">
												<output> 0.32072333 </output>
											</split>
										</split>
										<split pos="right">
											<output> 0.39224416 </output>
										</split>
									</split>
									<split pos="right">
										<output> 0.30472535 </output>
									</split>
								</split>
							</split>
							<split pos="right">
								<output> 0.37563297 </output>
							</split>
						</split>
					</split>
					<split pos="right">
						<output> 0.42473382 </output>
					</split>
				</split>
			</split>
			<split pos="right">
				<output> 0.42642424 </output>
			</split>
		</split>
	</tree>
	<tree id="13" weight="0.1">
		<split>
			<feature> 15 </feature>
			<threshold> 1.8345262 </threshold>
			<split pos="left">
				<feature> 43 </feature>
				<threshold> 0.96637875 </threshold>
				<split pos="left">
					<feature> 26 </feature>
					<threshold> 1.4177599 </threshold>
					<split pos="left">
						<feature> 22 </feature>
						<threshold> -1.4431652 </threshold>
						<split pos="left">
							<output> 0.34982052 </output>
						</split>
						<split pos="right">
							<feature> 45 </feature>
							<threshold> 1.9029038 </threshold>
							<split pos="left">
								<feature> 39 </feature>
								<threshold> -2.0391233 </threshold>
								<split pos="left">
									<output> 0.3636562 </output>
								</split>
								<split pos="right">
									<feature> 1 </feature>
									<threshold> -0.2879671 </threshold>
									<split pos="left">
										<feature> 37 </feature>
										<threshold> 0.9729285 </threshold>
										<split pos="left">
											<feature> 52 </feature>
											<threshold> -1.1011903 </threshold>
											<split pos="left">
												<output> 0.360899 </output>
											</split>
											<split pos="right">
												<output> 0.28889528 </output>
											</split>
										</split>
										<split pos="right">
											<output> 0.36904484 </output>
										</split>
									</split>
									<split pos="right">
										<output> 0.27269775 </output>
									</split>
								</split>
							</split>
							<split pos="right">
								<output> 0.37826094 </output>
							</split>
						</split>
					</split>
					<split pos="right">
						<output> 0.349997 </output>
					</split>
				</split>
				<split pos="right">
					<output> 0.34260267 </output>
				</split>
			</split>
			<split pos="right">
				<output> 0.40122217 </output>
			</split>
		</split>
	</tree>
	<tree id="14" weight="0.1">
		<split>
			<feature> 16 </feature>
			<threshold> 1.0193768 </threshold>
			<split pos="left">
				<feature> 38 </feature>
				<threshold> 1.5900819 </threshold>
				<split pos="left">
					<feature> 35 </feature>
					<threshold> -1.217813 </threshold>
					<split pos="left">
						<output> 0.31272745 </output>
					</split>
					<split pos="right">
						<feature> 56 </feature>
						<threshold> -2.4652786 </threshold>
						<split pos="left">
							<output> 0.37700304 </output>
						</split>
						<split pos="right">
							<feature> 44 </feature>
							<threshold> 1.2277924 </threshold>
							<split pos="left">
								<feature> 3 </feature>
								<threshold> 0.0 </threshold>
								<split pos="left">
									<feature> 24 </feature>
									<threshold> -1.4113145 </threshold>
									<split pos="left">
										<output> 0.32505625 </output>
									</split>
									<split pos="right">
										<feature> 66 </feature>
										<threshold> 1.0452893 </threshold>
										<split pos="left">
											<feature> 17 </feature>
											<threshold> 2.2495766 </threshold>
											<split pos="left">
												<output> 0.26093203 </output>
											</split>
											<split pos="right">
												<output> 0.38184768 </output>
											</split>
										</split>
										<split pos="right">
											<output> 0.3060126 </output>
										</split>
									</split>
								</split>
								<split pos="right">
									<output> 0.24555163 </output>
								</split>
							</split>
							<split pos="right">
								<output> 0.3016052 </output>
							</split>
						</split>
					</split>
				</split>
				<split pos="right">
					<output> 0.33865556 </output>
				</split>
			</split>
			<split pos="right">
				<output> 0.35047343 </output>
			</split>
		</split>
	</tree>
	<tree id="15" weight="0.1">
		<split>
			<feature> 15 </feature>
			<threshold> 0.13303742 </threshold>
			<split pos="left">
				<feature> 27 </feature>
				<threshold> -1.5541217 </threshold>
				<split pos="left">
					<output> 0.29804182 </output>
				</split>
				<split pos="right">
					<feature> 21 </feature>
					<threshold> 1.6914574 </threshold>
					<split pos="left">
						<feature> 63 </feature>
						<threshold> 1.2945288 </threshold>
						<split pos="left">
							<feature> 1 </feature>
							<threshold> -0.2879671 </threshold>
							<split pos="left">
								<feature> 47 </feature>
								<threshold> 0.7078906 </threshold>
								<split pos="left">
									<output> 0.23370627 </output>
								</split>
								<split pos="right">
									<output> 0.2882851 </output>
								</split>
							</split>
							<split pos="right">
								<output> 0.21809413 </output>
							</split>
						</split>
						<split pos="right">
							<output> 0.2763978 </output>
						</split>
					</split>
					<split pos="right">
						<output> 0.29925376 </output>
					</split>
				</split>
			</split>
			<split pos="right">
				<feature> 2 </feature>
				<threshold> -0.5739767 </threshold>
				<split pos="left">
					<output> 0.3586324 </output>
				</split>
				<split pos="right">
					<feature> 15 </feature>
					<threshold> 1.8345262 </threshold>
					<split pos="left">
						<feature> 1 </feature>
						<threshold> 0.51305795 </threshold>
						<split pos="left">
							<output> 0.26128533 </output>
						</split>
						<split pos="right">
							<output> 0.20574415 </output>
						</split>
					</split>
					<split pos="right">
						<output> 0.3264828 </output>
					</split>
				</split>
			</split>
		</split>
	</tree>
	<tree id="16" weight="0.1">
		<split>
			<feature> 64 </feature>
			<threshold> -1.4276819 </threshold>
			<split pos="left">
				<output> 0.27956063 </output>
			</split>
			<split pos="right">
				<feature> 18 </feature>
				<threshold> 1.6818833 </threshold>
				<split pos="left">
					<feature> 66 </feature>
					<threshold> 2.2257335 </threshold>
					<split pos="left">
						<feature> 44 </feature>
						<threshold> 1.7956101 </threshold>
						<split pos="left">
							<feature> 22 </feature>
							<threshold> -2.1604986 </threshold>
							<split pos="left">
								<output> 0.29039356 </output>
							</split>
							<split pos="right">
								<feature> 3 </feature>
								<threshold> 0.10642672 </threshold>
								<split pos="left">
									<feature> 19 </feature>
									<threshold> 1.4464866 </threshold>
									<split pos="left">
										<feature> 49 </feature>
										<threshold> 1.4335611 </threshold>
										<split pos="left">
											<feature> 1 </feature>
											<threshold> -0.2879671 </threshold>
											<split pos="left">
												<output> 0.22031951 </output>
											</split>
											<split pos="right">
												<output> 0.19678546 </output>
											</split>
										</split>
										<split pos="right">
											<output> 0.27386972 </output>
										</split>
									</split>
									<split pos="right">
										<output> 0.27477401 </output>
									</split>
								</split>
								<split pos="right">
									<output> 0.19038706 </output>
								</split>
							</split>
						</split>
						<split pos="right">
							<output> 0.27580893 </output>
						</split>
					</split>
					<split pos="right">
						<output> 0.32286245 </output>
					</split>
				</split>
				<split pos="right">
					<output> 0.29217216 </output>
				</split>
			</split>
		</split>
	</tree>
	<tree id="17" weight="0.1">
		<split>
			<feature> 16 </feature>
			<threshold> -0.4965589 </threshold>
			<split pos="left">
				<feature> 1 </feature>
				<threshold> -0.08771083 </threshold>
				<split pos="left">
					<feature> 49 </feature>
					<threshold> -1.1921372 </threshold>
					<split pos="left">
						<output> 0.2846 </output>
					</split>
					<split pos="right">
						<feature> 63 </feature>
						<threshold> 1.2945288 </threshold>
						<split pos="left">
							<feature> 24 </feature>
							<threshold> -1.945992 </threshold>
							<split pos="left">
								<output> 0.34729573 </output>
							</split>
							<split pos="right">
								<feature> 22 </feature>
								<threshold> 1.0399113 </threshold>
								<split pos="left">
									<output> 0.18961129 </output>
								</split>
								<split pos="right">
									<output> 0.23745143 </output>
								</split>
							</split>
						</split>
						<split pos="right">
							<output> 0.2709207 </output>
						</split>
					</split>
				</split>
				<split pos="right">
					<output> 0.16973831 </output>
				</split>
			</split>
			<split pos="right">
				<feature> 11 </feature>
				<threshold> -0.27456737 </threshold>
				<split pos="left">
					<feature> 22 </feature>
					<threshold> -1.3879857 </threshold>
					<split pos="left">
						<output> 0.2871396 </output>
					</split>
					<split pos="right">
						<feature> 44 </feature>
						<threshold> 1.9091736 </threshold>
						<split pos="left">
							<output> 0.1925423 </output>
						</split>
						<split pos="right">
							<output> 0.2862719 </output>
						</split>
					</split>
				</split>
				<split pos="right">
					<output> 0.2793661 </output>
				</split>
			</split>
		</split>
	</tree>
	<tree id="18" weight="0.1">
		<split>
			<feature> 49 </feature>
			<threshold> -1.6404269 </threshold>
			<split pos="left">
				<output> 0.24259254 </output>
			</split>
			<split pos="right">
				<feature> 42 </feature>
				<threshold> -1.7029115 </threshold>
				<split pos="left">
					<output> 0.24232027 </output>
				</split>
				<split pos="right">
					<feature> 34 </feature>
					<threshold> -1.400134 </threshold>
					<split pos="left">
						<output> 0.21997535 </output>
					</split>
					<split pos="right">
						<feature> 60 </feature>
						<threshold> -1.1763946 </threshold>
						<split pos="left">
							<output> 0.20760323 </output>
						</split>
						<split pos="right">
							<feature> 45 </feature>
							<threshold> 2.2954879 </threshold>
							<split pos="left">
								<feature> 2 </feature>
								<threshold> 0.0 </threshold>
								<split pos="left">
									<feature> 15 </feature>
									<threshold> 0.13303742 </threshold>
									<split pos="left">
										<feature> 1 </feature>
										<threshold> -0.2879671 </threshold>
										<split pos="left">
											<feature> 24 </feature>
											<threshold> -1.2509112 </threshold>
											<split pos="left">
												<output> 0.29462108 </output>
											</split>
											<split pos="right">
												<output> 0.17517322 </output>
											</split>
										</split>
										<split pos="right">
											<output> 0.15346919 </output>
										</split>
									</split>
									<split pos="right">
										<output> 0.20288321 </output>
									</split>
								</split>
								<split pos="right">
									<output> 0.15249164 </output>
								</split>
							</split>
							<split pos="right">
								<output> 0.28647634 </output>
							</split>
						</split>
					</split>
				</split>
			</split>
		</split>
	</tree>
	<tree id="19" weight="0.1">
		<split>
			<feature> 15 </feature>
			<threshold> 1.4091539 </threshold>
			<split pos="left">
				<feature> 17 </feature>
				<threshold> 1.5261544 </threshold>
				<split pos="left">
					<feature> 45 </feature>
					<threshold> 1.9589872 </threshold>
					<split pos="left">
						<feature> 29 </feature>
						<threshold> -1.5845468 </threshold>
						<split pos="left">
							<output> 0.21066412 </output>
						</split>
						<split pos="right">
							<feature> 2 </feature>
							<threshold> -0.16287607 </threshold>
							<split pos="left">
								<feature> 15 </feature>
								<threshold> -0.29233477 </threshold>
								<split pos="left">
									<feature> 1 </feature>
									<threshold> -0.08771083 </threshold>
									<split pos="left">
										<output> 0.15765527 </output>
									</split>
									<split pos="right">
										<output> 0.12480961 </output>
									</split>
								</split>
								<split pos="right">
									<feature> 2 </feature>
									<threshold> -0.8480438 </threshold>
									<split pos="left">
										<output> 0.24230896 </output>
									</split>
									<split pos="right">
										<output> 0.17031187 </output>
									</split>
								</split>
							</split>
							<split pos="right">
								<feature> 1 </feature>
								<threshold> -0.08771083 </threshold>
								<split pos="left">
									<output> 0.14783037 </output>
								</split>
								<split pos="right">
									<output> 0.11188441 </output>
								</split>
							</split>
						</split>
					</split>
					<split pos="right">
						<output> 0.2362442 </output>
					</split>
				</split>
				<split pos="right">
					<output> 0.20816709 </output>
				</split>
			</split>
			<split pos="right">
				<output> 0.2161526 </output>
			</split>
		</split>
	</tree>
	<tree id="20" weight="0.1">
		<split>
			<feature> 36 </feature>
			<threshold> -1.4960757 </threshold>
			<split pos="left">
				<output> 0.19882904 </output>
			</split>
			<split pos="right">
				<feature> 66 </feature>
				<threshold> 1.881437 </threshold>
				<split pos="left">
					<feature> 33 </feature>
					<threshold> -1.2743696 </threshold>
					<split pos="left">
						<output> 0.1829299 </output>
					</split>
					<split pos="right">
						<feature> 18 </feature>
						<threshold> -2.0187707 </threshold>
						<split pos="left">
							<output> 0.20752594 </output>
						</split>
						<split pos="right">
							<feature> 44 </feature>
							<threshold> 3.782972 </threshold>
							<split pos="left">
								<feature> 60 </feature>
								<threshold> 3.4343743 </threshold>
								<split pos="left">
									<feature> 29 </feature>
									<threshold> -1.6972096 </threshold>
									<split pos="left">
										<output> 0.19733635 </output>
									</split>
									<split pos="right">
										<feature> 1 </feature>
										<threshold> -0.2879671 </threshold>
										<split pos="left">
											<feature> 37 </feature>
											<threshold> 0.9729285 </threshold>
											<split pos="left">
												<output> 0.13840635 </output>
											</split>
											<split pos="right">
												<output> 0.207591 </output>
											</split>
										</split>
										<split pos="right">
											<output> 0.12075771 </output>
										</split>
									</split>
								</split>
								<split pos="right">
									<output> 0.32688814 </output>
								</split>
							</split>
							<split pos="right">
								<output> 0.42245054 </output>
							</split>
						</split>
					</split>
				</split>
				<split pos="right">
					<output> 0.21713112 </output>
				</split>
			</split>
		</split>
	</tree>
	<tree id="21" weight="0.1">
		<split>
			<feature> 64 </feature>
			<threshold> -1.4791526 </threshold>
			<split pos="left">
				<output> 0.17941774 </output>
			</split>
			<split pos="right">
				<feature> 18 </feature>
				<threshold> 2.2661972 </threshold>
				<split pos="left">
					<feature> 28 </feature>
					<threshold> -1.7672187 </threshold>
					<split pos="left">
						<output> 0.17909986 </output>
					</split>
					<split pos="right">
						<feature> 55 </feature>
						<threshold> 1.8733456 </threshold>
						<split pos="left">
							<feature> 1 </feature>
							<threshold> -0.2879671 </threshold>
							<split pos="left">
								<feature> 24 </feature>
								<threshold> -1.6251855 </threshold>
								<split pos="left">
									<output> 0.24519728 </output>
								</split>
								<split pos="right">
									<feature> 37 </feature>
									<threshold> 0.9729285 </threshold>
									<split pos="left">
										<output> 0.124972284 </output>
									</split>
									<split pos="right">
										<output> 0.1921064 </output>
									</split>
								</split>
							</split>
							<split pos="right">
								<feature> 37 </feature>
								<threshold> 2.4617486 </threshold>
								<split pos="left">
									<feature> 63 </feature>
									<threshold> -3.5928414 </threshold>
									<split pos="left">
										<output> 0.30288643 </output>
									</split>
									<split pos="right">
										<output> 0.1071095 </output>
									</split>
								</split>
								<split pos="right">
									<output> 0.20068356 </output>
								</split>
							</split>
						</split>
						<split pos="right">
							<output> 0.177146 </output>
						</split>
					</split>
				</split>
				<split pos="right">
					<output> 0.22312151 </output>
				</split>
			</split>
		</split>
	</tree>
	<tree id="22" weight="0.1">
		<split>
			<feature> 50 </feature>
			<threshold> 1.641871 </threshold>
			<split pos="left">
				<feature> 39 </feature>
				<threshold> -2.2334926 </threshold>
				<split pos="left">
					<output> 0.19969171 </output>
				</split>
				<split pos="right">
					<feature> 22 </feature>
					<threshold> -1.4983447 </threshold>
					<split pos="left">
						<output> 0.16584805 </output>
					</split>
					<split pos="right">
						<feature> 40 </feature>
						<threshold> 1.6872969 </threshold>
						<split pos="left">
							<feature> 33 </feature>
							<threshold> -1.830864 </threshold>
							<split pos="left">
								<output> 0.16729209 </output>
							</split>
							<split pos="right">
								<feature> 1 </feature>
								<threshold> -0.08771083 </threshold>
								<split pos="left">
									<feature> 60 </feature>
									<threshold> 1.1780391 </threshold>
									<split pos="left">
										<feature> 48 </feature>
										<threshold> 0.7371348 </threshold>
										<split pos="left">
											<feature> 42 </feature>
											<threshold> -1.8387498 </threshold>
											<split pos="left">
												<output> 0.20565188 </output>
											</split>
											<split pos="right">
												<output> 0.10488812 </output>
											</split>
										</split>
										<split pos="right">
											<output> 0.14130497 </output>
										</split>
									</split>
									<split pos="right">
										<output> 0.17457208 </output>
									</split>
								</split>
								<split pos="right">
									<output> 0.08863076 </output>
								</split>
							</split>
						</split>
						<split pos="right">
							<output> 0.16201651 </output>
						</split>
					</split>
				</split>
			</split>
			<split pos="right">
				<output> 0.17641436 </output>
			</split>
		</split>
	</tree>
	<tree id="23" weight="0.1">
		<split>
			<feature> 63 </feature>
			<threshold> 1.7983812 </threshold>
			<split pos="left">
				<feature> 52 </feature>
				<threshold> 1.2913209 </threshold>
				<split pos="left">
					<feature> 38 </feature>
					<threshold> 2.1249373 </threshold>
					<split pos="left">
						<feature> 66 </feature>
						<threshold> 1.0452893 </threshold>
						<split pos="left">
							<feature> 56 </feature>
							<threshold> -2.7964647 </threshold>
							<split pos="left">
								<output> 0.217502 </output>
							</split>
							<split pos="right">
								<feature> 3 </feature>
								<threshold> 0.10642672 </threshold>
								<split pos="left">
									<feature> 18 </feature>
									<threshold> -1.6292281 </threshold>
									<split pos="left">
										<output> 0.15270941 </output>
									</split>
									<split pos="right">
										<feature> 39 </feature>
										<threshold> -3.5454855 </threshold>
										<split pos="left">
											<output> 0.39435822 </output>
										</split>
										<split pos="right">
											<feature> 1 </feature>
											<threshold> -0.08771083 </threshold>
											<split pos="left">
												<output> 0.1036218 </output>
											</split>
											<split pos="right">
												<output> 0.08033714 </output>
											</split>
										</split>
									</split>
								</split>
								<split pos="right">
									<output> 0.07847142 </output>
								</split>
							</split>
						</split>
						<split pos="right">
							<output> 0.13002351 </output>
						</split>
					</split>
					<split pos="right">
						<output> 0.17997026 </output>
					</split>
				</split>
				<split pos="right">
					<output> 0.14552186 </output>
				</split>
			</split>
			<split pos="right">
				<output> 0.1706509 </output>
			</split>
		</split>
	</tree>
	<tree id="24" weight="0.1">
		<split>
			<feature> 44 </feature>
			<threshold> 2.0227373 </threshold>
			<split pos="left">
				<feature> 29 </feature>
				<threshold> 2.2459862 </threshold>
				<split pos="left">
					<feature> 66 </feature>
					<threshold> 2.2749188 </threshold>
					<split pos="left">
						<feature> 25 </feature>
						<threshold> -2.0695577 </threshold>
						<split pos="left">
							<output> 0.15777223 </output>
						</split>
						<split pos="right">
							<feature> 47 </feature>
							<threshold> 1.965656 </threshold>
							<split pos="left">
								<feature> 1 </feature>
								<threshold> 0.11254543 </threshold>
								<split pos="left">
									<feature> 64 </feature>
									<threshold> -1.6335645 </threshold>
									<split pos="left">
										<output> 0.1646961 </output>
									</split>
									<split pos="right">
										<feature> 62 </feature>
										<threshold> 1.6189212 </threshold>
										<split pos="left">
											<feature> 2 </feature>
											<threshold> 0.38525814 </threshold>
											<split pos="left">
												<output> 0.093124434 </output>
											</split>
											<split pos="right">
												<output> 0.069974296 </output>
											</split>
										</split>
										<split pos="right">
											<output> 0.15750125 </output>
										</split>
									</split>
								</split>
								<split pos="right">
									<output> 0.061707236 </output>
								</split>
							</split>
							<split pos="right">
								<output> 0.14533071 </output>
							</split>
						</split>
					</split>
					<split pos="right">
						<output> 0.17947796 </output>
					</split>
				</split>
				<split pos="right">
					<output> 0.16712283 </output>
				</split>
			</split>
			<split pos="right">
				<output> 0.16170104 </output>
			</split>
		</split>
	</tree>
	<tree id="25" weight="0.1">
		<split>
			<feature> 43 </feature>
			<threshold> 1.5123544 </threshold>
			<split pos="left">
				<feature> 59 </feature>
				<threshold> -1.6254811 </threshold>
				<split pos="left">
					<output> 0.13992135 </output>
				</split>
				<split pos="right">
					<feature> 15 </feature>
					<threshold> 4.3867593 </threshold>
					<split pos="left">
						<feature> 53 </feature>
						<threshold> 1.6327513 </threshold>
						<split pos="left">
							<feature> 30 </feature>
							<threshold> 3.4200132 </threshold>
							<split pos="left">
								<feature> 1 </feature>
								<threshold> 0.51305795 </threshold>
								<split pos="left">
									<feature> 33 </feature>
									<threshold> -1.4767312 </threshold>
									<split pos="left">
										<output> 0.13937585 </output>
									</split>
									<split pos="right">
										<feature> 48 </feature>
										<threshold> 2.296646 </threshold>
										<split pos="left">
											<feature> 44 </feature>
											<threshold> 2.590555 </threshold>
											<split pos="left">
												<output> 0.0769253 </output>
											</split>
											<split pos="right">
												<output> 0.19208997 </output>
											</split>
										</split>
										<split pos="right">
											<output> 0.18167166 </output>
										</split>
									</split>
								</split>
								<split pos="right">
									<output> 0.0474416 </output>
								</split>
							</split>
							<split pos="right">
								<output> 0.2686474 </output>
							</split>
						</split>
						<split pos="right">
							<output> 0.13067998 </output>
						</split>
					</split>
					<split pos="right">
						<output> 0.30215958 </output>
					</split>
				</split>
			</split>
			<split pos="right">
				<output> 0.13085504 </output>
			</split>
		</split>
	</tree>
	<tree id="26" weight="0.1">
		<split>
			<feature> 42 </feature>
			<threshold> -1.9066689 </threshold>
			<split pos="left">
				<output> 0.13744013 </output>
			</split>
			<split pos="right">
				<feature> 44 </feature>
				<threshold> 0.94388354 </threshold>
				<split pos="left">
					<feature> 29 </feature>
					<threshold> 2.358649 </threshold>
					<split pos="left">
						<feature> 2 </feature>
						<threshold> 0.38525814 </threshold>
						<split pos="left">
							<feature> 65 </feature>
							<threshold> -1.9298005 </threshold>
							<split pos="left">
								<output> 0.14773859 </output>
							</split>
							<split pos="right">
								<feature> 27 </feature>
								<threshold> -1.3619826 </threshold>
								<split pos="left">
									<output> 0.11641566 </output>
								</split>
								<split pos="right">
									<feature> 38 </feature>
									<threshold> 2.8975072 </threshold>
									<split pos="left">
										<feature> 19 </feature>
										<threshold> 2.4850812 </threshold>
										<split pos="left">
											<feature> 66 </feature>
											<threshold> 0.8485485 </threshold>
											<split pos="left">
												<output> 0.06655897 </output>
											</split>
											<split pos="right">
												<output> 0.09280357 </output>
											</split>
										</split>
										<split pos="right">
											<output> 0.20006046 </output>
										</split>
									</split>
									<split pos="right">
										<output> 0.24211723 </output>
									</split>
								</split>
							</split>
						</split>
						<split pos="right">
							<output> 0.05169935 </output>
						</split>
					</split>
					<split pos="right">
						<output> 0.14527094 </output>
					</split>
				</split>
				<split pos="right">
					<output> 0.102371104 </output>
				</split>
			</split>
		</split>
	</tree>
	<tree id="27" weight="0.1">
		<split>
			<feature> 11 </feature>
			<threshold> -0.060405582 </threshold>
			<split pos="left">
				<feature> 61 </feature>
				<threshold> -2.9479675 </threshold>
				<split pos="left">
					<output> 0.1860461 </output>
				</split>
				<split pos="right">
					<feature> 42 </feature>
					<threshold> -2.7216997 </threshold>
					<split pos="left">
						<output> 0.15803197 </output>
					</split>
					<split pos="right">
						<feature> 56 </feature>
						<threshold> 2.1713243 </threshold>
						<split pos="left">
							<feature> 1 </feature>
							<threshold> -0.2879671 </threshold>
							<split pos="left">
								<output> 0.071302444 </output>
							</split>
							<split pos="right">
								<feature> 19 </feature>
								<threshold> -2.2159235 </threshold>
								<split pos="left">
									<output> 0.113927975 </output>
								</split>
								<split pos="right">
									<feature> 40 </feature>
									<threshold> 2.4218962 </threshold>
									<split pos="left">
										<feature> 57 </feature>
										<threshold> 4.5185976 </threshold>
										<split pos="left">
											<feature> 43 </feature>
											<threshold> 4.6668816 </threshold>
											<split pos="left">
												<output> 0.046338778 </output>
											</split>
											<split pos="right">
												<output> 0.42351973 </output>
											</split>
										</split>
										<split pos="right">
											<output> 0.48879558 </output>
										</split>
									</split>
									<split pos="right">
										<output> 0.13157472 </output>
									</split>
								</split>
							</split>
						</split>
						<split pos="right">
							<output> 0.13781294 </output>
						</split>
					</split>
				</split>
			</split>
			<split pos="right">
				<output> 0.0973988 </output>
			</split>
		</split>
	</tree>
	<tree id="28" weight="0.1">
		<split>
			<feature> 60 </feature>
			<threshold> 2.011901 </threshold>
			<split pos="left">
				<feature> 26 </feature>
				<threshold> 1.4177599 </threshold>
				<split pos="left">
					<feature> 46 </feature>
					<threshold> -2.56786 </threshold>
					<split pos="left">
						<output> 0.17590787 </output>
					</split>
					<split pos="right">
						<feature> 21 </feature>
						<threshold> 1.8898686 </threshold>
						<split pos="left">
							<feature> 1 </feature>
							<threshold> 0.11254543 </threshold>
							<split pos="left">
								<feature> 46 </feature>
								<threshold> 1.6809752 </threshold>
								<split pos="left">
									<feature> 31 </feature>
									<threshold> -1.7214531 </threshold>
									<split pos="left">
										<output> 0.13110657 </output>
									</split>
									<split pos="right">
										<feature> 56 </feature>
										<threshold> -2.0016181 </threshold>
										<split pos="left">
											<output> 0.14419249 </output>
										</split>
										<split pos="right">
											<feature> 41 </feature>
											<threshold> -1.2955947 </threshold>
											<split pos="left">
												<output> 0.09914238 </output>
											</split>
											<split pos="right">
												<output> 0.053574268 </output>
											</split>
										</split>
									</split>
								</split>
								<split pos="right">
									<output> 0.12476095 </output>
								</split>
							</split>
							<split pos="right">
								<output> 0.034702025 </output>
							</split>
						</split>
						<split pos="right">
							<output> 0.11614488 </output>
						</split>
					</split>
				</split>
				<split pos="right">
					<output> 0.09945221 </output>
				</split>
			</split>
			<split pos="right">
				<output> 0.12137616 </output>
			</split>
		</split>
	</tree>
	<tree id="29" weight="0.1">
		<split>
			<feature> 36 </feature>
			<threshold> -1.873597 </threshold>
			<split pos="left">
				<output> 0.108328484 </output>
			</split>
			<split pos="right">
				<feature> 27 </feature>
				<threshold> -2.4667816 </threshold>
				<split pos="left">
					<output> 0.18134023 </output>
				</split>
				<split pos="right">
					<feature> 49 </feature>
					<threshold> -2.344882 </threshold>
					<split pos="left">
						<output> 0.12141948 </output>
					</split>
					<split pos="right">
						<feature> 3 </feature>
						<threshold> 0.57570314 </threshold>
						<split pos="left">
							<feature> 46 </feature>
							<threshold> -2.6740806 </threshold>
							<split pos="left">
								<output> 0.17696418 </output>
							</split>
							<split pos="right">
								<feature> 49 </feature>
								<threshold> 0.9852714 </threshold>
								<split pos="left">
									<feature> 18 </feature>
									<threshold> -2.0187707 </threshold>
									<split pos="left">
										<output> 0.12484999 </output>
									</split>
									<split pos="right">
										<feature> 1 </feature>
										<threshold> 0.3128017 </threshold>
										<split pos="left">
											<feature> 18 </feature>
											<threshold> 1.8117309 </threshold>
											<split pos="left">
												<output> 0.052966274 </output>
											</split>
											<split pos="right">
												<output> 0.13741875 </output>
											</split>
										</split>
										<split pos="right">
											<output> 0.02375479 </output>
										</split>
									</split>
								</split>
								<split pos="right">
									<output> 0.085458696 </output>
								</split>
							</split>
						</split>
						<split pos="right">
							<output> 0.03063462 </output>
						</split>
					</split>
				</split>
			</split>
		</split>
	</tree>
	<tree id="30" weight="0.1">
		<split>
			<feature> 63 </feature>
			<threshold> 1.7983812 </threshold>
			<split pos="left">
				<feature> 39 </feature>
				<threshold> -2.282085 </threshold>
				<split pos="left">
					<output> 0.1131933 </output>
				</split>
				<split pos="right">
					<feature> 35 </feature>
					<threshold> -2.3071117 </threshold>
					<split pos="left">
						<output> 0.117438875 </output>
					</split>
					<split pos="right">
						<feature> 38 </feature>
						<threshold> 2.481508 </threshold>
						<split pos="left">
							<feature> 3 </feature>
							<threshold> 0.0 </threshold>
							<split pos="left">
								<feature> 16 </feature>
								<threshold> -0.4965589 </threshold>
								<split pos="left">
									<feature> 1 </feature>
									<threshold> -0.08771083 </threshold>
									<split pos="left">
										<output> 0.057836257 </output>
									</split>
									<split pos="right">
										<output> 0.023427522 </output>
									</split>
								</split>
								<split pos="right">
									<output> 0.08384739 </output>
								</split>
							</split>
							<split pos="right">
								<feature> 56 </feature>
								<threshold> -3.3925996 </threshold>
								<split pos="left">
									<output> 0.24322897 </output>
								</split>
								<split pos="right">
									<feature> 1 </feature>
									<threshold> 0.11254543 </threshold>
									<split pos="left">
										<output> 0.039806675 </output>
									</split>
									<split pos="right">
										<output> 0.010404305 </output>
									</split>
								</split>
							</split>
						</split>
						<split pos="right">
							<output> 0.14094573 </output>
						</split>
					</split>
				</split>
			</split>
			<split pos="right">
				<output> 0.10275089 </output>
			</split>
		</split>
	</tree>
	<tree id="31" weight="0.1">
		<split>
			<feature> 11 </feature>
			<threshold> 0.22514346 </threshold>
			<split pos="left">
				<feature> 45 </feature>
				<threshold> 1.9589872 </threshold>
				<split pos="left">
					<feature> 18 </feature>
					<threshold> -2.0187707 </threshold>
					<split pos="left">
						<output> 0.09515608 </output>
					</split>
					<split pos="right">
						<feature> 2 </feature>
						<threshold> 0.24822459 </threshold>
						<split pos="left">
							<feature> 60 </feature>
							<threshold> -1.8631042 </threshold>
							<split pos="left">
								<output> 0.10683357 </output>
							</split>
							<split pos="right">
								<feature> 17 </feature>
								<threshold> 2.4045954 </threshold>
								<split pos="left">
									<feature> 37 </feature>
									<threshold> 2.4617486 </threshold>
									<split pos="left">
										<feature> 1 </feature>
										<threshold> -0.2879671 </threshold>
										<split pos="left">
											<feature> 48 </feature>
											<threshold> 0.6793751 </threshold>
											<split pos="left">
												<output> 0.045151353 </output>
											</split>
											<split pos="right">
												<output> 0.094259754 </output>
											</split>
										</split>
										<split pos="right">
											<output> 0.03075884 </output>
										</split>
									</split>
									<split pos="right">
										<output> 0.11336532 </output>
									</split>
								</split>
								<split pos="right">
									<output> 0.12040929 </output>
								</split>
							</split>
						</split>
						<split pos="right">
							<output> 0.023931978 </output>
						</split>
					</split>
				</split>
				<split pos="right">
					<output> 0.10255015 </output>
				</split>
			</split>
			<split pos="right">
				<output> 0.07314766 </output>
			</split>
		</split>
	</tree>
	<tree id="32" weight="0.1">
		<split>
			<feature> 55 </feature>
			<threshold> 1.8733456 </threshold>
			<split pos="left">
				<feature> 38 </feature>
				<threshold> 1.5306536 </threshold>
				<split pos="left">
					<feature> 52 </feature>
					<threshold> 1.8894488 </threshold>
					<split pos="left">
						<feature> 58 </feature>
						<threshold> 2.4399567 </threshold>
						<split pos="left">
							<feature> 1 </feature>
							<threshold> -0.2879671 </threshold>
							<split pos="left">
								<feature> 29 </feature>
								<threshold> 0.9503641 </threshold>
								<split pos="left">
									<feature> 22 </feature>
									<threshold> 1.0399113 </threshold>
									<split pos="left">
										<feature> 35 </feature>
										<threshold> -0.79419684 </threshold>
										<split pos="left">
											<output> 0.06954715 </output>
										</split>
										<split pos="right">
											<output> 0.033741172 </output>
										</split>
									</split>
									<split pos="right">
										<output> 0.089951985 </output>
									</split>
								</split>
								<split pos="right">
									<output> 0.09742836 </output>
								</split>
							</split>
							<split pos="right">
								<feature> 2 </feature>
								<threshold> -0.5739767 </threshold>
								<split pos="left">
									<output> 0.041418556 </output>
								</split>
								<split pos="right">
									<output> 0.016188815 </output>
								</split>
							</split>
						</split>
						<split pos="right">
							<output> 0.14076619 </output>
						</split>
					</split>
					<split pos="right">
						<output> 0.08905907 </output>
					</split>
				</split>
				<split pos="right">
					<output> 0.07824252 </output>
				</split>
			</split>
			<split pos="right">
				<output> 0.09023691 </output>
			</split>
		</split>
	</tree>
	<tree id="33" weight="0.1">
		<split>
			<feature> 56 </feature>
			<threshold> -2.0016181 </threshold>
			<split pos="left">
				<output> 0.08822145 </output>
			</split>
			<split pos="right">
				<feature> 15 </feature>
				<threshold> 4.3867593 </threshold>
				<split pos="left">
					<feature> 60 </feature>
					<threshold> 2.2081041 </threshold>
					<split pos="left">
						<feature> 46 </feature>
						<threshold> -2.5147495 </threshold>
						<split pos="left">
							<output> 0.12676357 </output>
						</split>
						<split pos="right">
							<feature> 1 </feature>
							<threshold> 0.11254543 </threshold>
							<split pos="left">
								<feature> 40 </feature>
								<threshold> 1.6205151 </threshold>
								<split pos="left">
									<feature> 26 </feature>
									<threshold> 1.3619779 </threshold>
									<split pos="left">
										<feature> 51 </feature>
										<threshold> 2.4210417 </threshold>
										<split pos="left">
											<feature> 49 </feature>
											<threshold> 1.5616438 </threshold>
											<split pos="left">
												<output> 0.030725043 </output>
											</split>
											<split pos="right">
												<output> 0.08762103 </output>
											</split>
										</split>
										<split pos="right">
											<output> 0.15757693 </output>
										</split>
									</split>
									<split pos="right">
										<output> 0.080636166 </output>
									</split>
								</split>
								<split pos="right">
									<output> 0.10426967 </output>
								</split>
							</split>
							<split pos="right">
								<output> 0.0119082015 </output>
							</split>
						</split>
					</split>
					<split pos="right">
						<output> 0.09574673 </output>
					</split>
				</split>
				<split pos="right">
					<output> 0.23732936 </output>
				</split>
			</split>
		</split>
	</tree>
	<tree id="34" weight="0.1">
		<split>
			<feature> 29 </feature>
			<threshold> -1.753541 </threshold>
			<split pos="left">
				<output> 0.08720415 </output>
			</split>
			<split pos="right">
				<feature> 29 </feature>
				<threshold> 2.1896548 </threshold>
				<split pos="left">
					<feature> 63 </feature>
					<threshold> -3.29053 </threshold>
					<split pos="left">
						<output> 0.17432772 </output>
					</split>
					<split pos="right">
						<feature> 2 </feature>
						<threshold> 0.93339235 </threshold>
						<split pos="left">
							<feature> 15 </feature>
							<threshold> 0.98378175 </threshold>
							<split pos="left">
								<feature> 1 </feature>
								<threshold> 0.51305795 </threshold>
								<split pos="left">
									<feature> 27 </feature>
									<threshold> 3.297386 </threshold>
									<split pos="left">
										<feature> 20 </feature>
										<threshold> -2.0611935 </threshold>
										<split pos="left">
											<output> 0.10241119 </output>
										</split>
										<split pos="right">
											<feature> 20 </feature>
											<threshold> 1.6253551 </threshold>
											<split pos="left">
												<output> 0.030378014 </output>
											</split>
											<split pos="right">
												<output> 0.09223888 </output>
											</split>
										</split>
									</split>
									<split pos="right">
										<output> 0.28841427 </output>
									</split>
								</split>
								<split pos="right">
									<output> -0.004816564 </output>
								</split>
							</split>
							<split pos="right">
								<output> 0.06882186 </output>
							</split>
						</split>
						<split pos="right">
							<output> 0.007262575 </output>
						</split>
					</split>
				</split>
				<split pos="right">
					<output> 0.08543887 </output>
				</split>
			</split>
		</split>
	</tree>
	<tree id="35" weight="0.1">
		<split>
			<feature> 51 </feature>
			<threshold> -2.2124717 </threshold>
			<split pos="left">
				<output> 0.09246231 </output>
			</split>
			<split pos="right">
				<feature> 50 </feature>
				<threshold> 1.4288645 </threshold>
				<split pos="left">
					<feature> 62 </feature>
					<threshold> 2.1669135 </threshold>
					<split pos="left">
						<feature> 1 </feature>
						<threshold> -0.2879671 </threshold>
						<split pos="left">
							<feature> 21 </feature>
							<threshold> 1.2946349 </threshold>
							<split pos="left">
								<feature> 24 </feature>
								<threshold> -1.6251855 </threshold>
								<split pos="left">
									<output> 0.12678225 </output>
								</split>
								<split pos="right">
									<feature> 53 </feature>
									<threshold> 1.1158236 </threshold>
									<split pos="left">
										<output> 0.026646102 </output>
									</split>
									<split pos="right">
										<output> 0.071834244 </output>
									</split>
								</split>
							</split>
							<split pos="right">
								<output> 0.099540256 </output>
							</split>
						</split>
						<split pos="right">
							<feature> 16 </feature>
							<threshold> 1.0193768 </threshold>
							<split pos="left">
								<feature> 1 </feature>
								<threshold> 0.51305795 </threshold>
								<split pos="left">
									<output> 0.018408533 </output>
								</split>
								<split pos="right">
									<output> -0.013112283 </output>
								</split>
							</split>
							<split pos="right">
								<output> 0.059225142 </output>
							</split>
						</split>
					</split>
					<split pos="right">
						<output> 0.08831693 </output>
					</split>
				</split>
				<split pos="right">
					<output> 0.06366548 </output>
				</split>
			</split>
		</split>
	</tree>
	<tree id="36" weight="0.1">
		<split>
			<feature> 61 </feature>
			<threshold> -2.9479675 </threshold>
			<split pos="left">
				<output> 0.13023923 </output>
			</split>
			<split pos="right">
				<feature> 21 </feature>
				<threshold> 1.6914574 </threshold>
				<split pos="left">
					<feature> 64 </feature>
					<threshold> -2.4570956 </threshold>
					<split pos="left">
						<output> 0.08351872 </output>
					</split>
					<split pos="right">
						<feature> 15 </feature>
						<threshold> 4.3867593 </threshold>
						<split pos="left">
							<feature> 2 </feature>
							<threshold> 0.7963588 </threshold>
							<split pos="left">
								<feature> 15 </feature>
								<threshold> 1.8345262 </threshold>
								<split pos="left">
									<feature> 1 </feature>
									<threshold> 0.11254543 </threshold>
									<split pos="left">
										<feature> 34 </feature>
										<threshold> -1.400134 </threshold>
										<split pos="left">
											<output> 0.09378019 </output>
										</split>
										<split pos="right">
											<feature> 55 </feature>
											<threshold> 2.1176815 </threshold>
											<split pos="left">
												<output> 0.026182873 </output>
											</split>
											<split pos="right">
												<output> 0.12496942 </output>
											</split>
										</split>
									</split>
									<split pos="right">
										<output> 0.0046687596 </output>
									</split>
								</split>
								<split pos="right">
									<output> 0.096091874 </output>
								</split>
							</split>
							<split pos="right">
								<output> 0.0015771901 </output>
							</split>
						</split>
						<split pos="right">
							<output> 0.21012318 </output>
						</split>
					</split>
				</split>
				<split pos="right">
					<output> 0.070751615 </output>
				</split>
			</split>
		</split>
	</tree>
	<tree id="37" weight="0.1">
		<split>
			<feature> 11 </feature>
			<threshold> -0.23887374 </threshold>
			<split pos="left">
				<feature> 42 </feature>
				<threshold> -2.7216997 </threshold>
				<split pos="left">
					<output> 0.10088811 </output>
				</split>
				<split pos="right">
					<feature> 48 </feature>
					<threshold> 4.491517 </threshold>
					<split pos="left">
						<feature> 1 </feature>
						<threshold> -0.2879671 </threshold>
						<split pos="left">
							<output> 0.026765855 </output>
						</split>
						<split pos="right">
							<feature> 19 </feature>
							<threshold> -2.5439012 </threshold>
							<split pos="left">
								<output> 0.07595349 </output>
							</split>
							<split pos="right">
								<feature> 61 </feature>
								<threshold> -2.9479675 </threshold>
								<split pos="left">
									<output> 0.10049248 </output>
								</split>
								<split pos="right">
									<feature> 60 </feature>
									<threshold> 4.268238 </threshold>
									<split pos="left">
										<feature> 23 </feature>
										<threshold> -3.3637958 </threshold>
										<split pos="left">
											<output> 0.13388711 </output>
										</split>
										<split pos="right">
											<feature> 2 </feature>
											<threshold> -0.5739767 </threshold>
											<split pos="left">
												<output> 0.019724792 </output>
											</split>
											<split pos="right">
												<output> -0.002117575 </output>
											</split>
										</split>
									</split>
									<split pos="right">
										<output> 0.45039016 </output>
									</split>
								</split>
							</split>
						</split>
					</split>
					<split pos="right">
						<output> 0.35523933 </output>
					</split>
				</split>
			</split>
			<split pos="right">
				<output> 0.04291431 </output>
			</split>
		</split>
	</tree>
	<tree id="38" weight="0.1">
		<split>
			<feature> 47 </feature>
			<threshold> 1.965656 </threshold>
			<split pos="left">
				<feature> 31 </feature>
				<threshold> -1.2097124 </threshold>
				<split pos="left">
					<output> 0.049322158 </output>
				</split>
				<split pos="right">
					<feature> 45 </feature>
					<threshold> 2.4076548 </threshold>
					<split pos="left">
						<feature> 3 </feature>
						<threshold> 0.57570314 </threshold>
						<split pos="left">
							<feature> 37 </feature>
							<threshold> -2.0047092 </threshold>
							<split pos="left">
								<output> 0.08966775 </output>
							</split>
							<split pos="right">
								<feature> 65 </feature>
								<threshold> -2.86369 </threshold>
								<split pos="left">
									<output> 0.1771921 </output>
								</split>
								<split pos="right">
									<feature> 19 </feature>
									<threshold> 2.1024406 </threshold>
									<split pos="left">
										<feature> 1 </feature>
										<threshold> 0.51305795 </threshold>
										<split pos="left">
											<feature> 22 </feature>
											<threshold> 2.8608356 </threshold>
											<split pos="left">
												<output> 0.02010879 </output>
											</split>
											<split pos="right">
												<output> 0.21090703 </output>
											</split>
										</split>
										<split pos="right">
											<output> -0.008742552 </output>
										</split>
									</split>
									<split pos="right">
										<output> 0.09356733 </output>
									</split>
								</split>
							</split>
						</split>
						<split pos="right">
							<output> -0.0028253116 </output>
						</split>
					</split>
					<split pos="right">
						<output> 0.11901605 </output>
					</split>
				</split>
			</split>
			<split pos="right">
				<output> 0.070429526 </output>
			</split>
		</split>
	</tree>
	<tree id="39" weight="0.1">
		<split>
			<feature> 59 </feature>
			<threshold> -1.3541632 </threshold>
			<split pos="left">
				<output> 0.053784084 </output>
			</split>
			<split pos="right">
				<feature> 44 </feature>
				<threshold> 3.6126268 </threshold>
				<split pos="left">
					<feature> 57 </feature>
					<threshold> -1.4057362 </threshold>
					<split pos="left">
						<output> 0.05218453 </output>
					</split>
					<split pos="right">
						<feature> 3 </feature>
						<threshold> 0.0 </threshold>
						<split pos="left">
							<feature> 16 </feature>
							<threshold> -0.4965589 </threshold>
							<split pos="left">
								<feature> 1 </feature>
								<threshold> 0.51305795 </threshold>
								<split pos="left">
									<output> 0.021897918 </output>
								</split>
								<split pos="right">
									<output> -0.021225167 </output>
								</split>
							</split>
							<split pos="right">
								<output> 0.053786926 </output>
							</split>
						</split>
						<split pos="right">
							<feature> 39 </feature>
							<threshold> -4.128594 </threshold>
							<split pos="left">
								<output> 0.33172622 </output>
							</split>
							<split pos="right">
								<feature> 57 </feature>
								<threshold> 4.047345 </threshold>
								<split pos="left">
									<feature> 1 </feature>
									<threshold> 0.11254543 </threshold>
									<split pos="left">
										<output> 0.009993827 </output>
									</split>
									<split pos="right">
										<output> -0.014697455 </output>
									</split>
								</split>
								<split pos="right">
									<output> 0.27077132 </output>
								</split>
							</split>
						</split>
					</split>
				</split>
				<split pos="right">
					<output> 0.1702691 </output>
				</split>
			</split>
		</split>
	</tree>
	<tree id="40" weight="0.1">
		<split>
			<feature> 66 </feature>
			<threshold> 2.2749188 </threshold>
			<split pos="left">
				<feature> 48 </feature>
				<threshold> 2.585445 </threshold>
				<split pos="left">
					<feature> 44 </feature>
					<threshold> 4.2372265 </threshold>
					<split pos="left">
						<feature> 35 </feature>
						<threshold> -2.9727943 </threshold>
						<split pos="left">
							<output> 0.108605765 </output>
						</split>
						<split pos="right">
							<feature> 37 </feature>
							<threshold> 2.6806931 </threshold>
							<split pos="left">
								<feature> 1 </feature>
								<threshold> 0.51305795 </threshold>
								<split pos="left">
									<feature> 40 </feature>
									<threshold> 2.4218962 </threshold>
									<split pos="left">
										<feature> 46 </feature>
										<threshold> 2.2120795 </threshold>
										<split pos="left">
											<feature> 19 </feature>
											<threshold> -2.4892383 </threshold>
											<split pos="left">
												<output> 0.11668861 </output>
											</split>
											<split pos="right">
												<output> 0.013904835 </output>
											</split>
										</split>
										<split pos="right">
											<output> 0.09972643 </output>
										</split>
									</split>
									<split pos="right">
										<output> 0.12718712 </output>
									</split>
								</split>
								<split pos="right">
									<output> -0.0110866735 </output>
								</split>
							</split>
							<split pos="right">
								<output> 0.08950777 </output>
							</split>
						</split>
					</split>
					<split pos="right">
						<output> 0.2573783 </output>
					</split>
				</split>
				<split pos="right">
					<output> 0.091125585 </output>
				</split>
			</split>
			<split pos="right">
				<output> 0.08198458 </output>
			</split>
		</split>
	</tree>
	<tree id="41" weight="0.1">
		<split>
			<feature> 36 </feature>
			<threshold> -2.314039 </threshold>
			<split pos="left">
				<output> 0.072150655 </output>
			</split>
			<split pos="right">
				<feature> 59 </feature>
				<threshold> -3.090598 </threshold>
				<split pos="left">
					<output> 0.19398436 </output>
				</split>
				<split pos="right">
					<feature> 27 </feature>
					<threshold> -2.4667816 </threshold>
					<split pos="left">
						<output> 0.118435435 </output>
					</split>
					<split pos="right">
						<feature> 3 </feature>
						<threshold> 0.10642672 </threshold>
						<split pos="left">
							<feature> 16 </feature>
							<threshold> -0.4965589 </threshold>
							<split pos="left">
								<feature> 1 </feature>
								<threshold> -0.08771083 </threshold>
								<split pos="left">
									<feature> 24 </feature>
									<threshold> -1.945992 </threshold>
									<split pos="left">
										<output> 0.15810376 </output>
									</split>
									<split pos="right">
										<feature> 37 </feature>
										<threshold> 1.5421828 </threshold>
										<split pos="left">
											<feature> 48 </feature>
											<threshold> 2.816484 </threshold>
											<split pos="left">
												<output> 0.018936329 </output>
											</split>
											<split pos="right">
												<output> 0.38058224 </output>
											</split>
										</split>
										<split pos="right">
											<output> 0.101153605 </output>
										</split>
									</split>
								</split>
								<split pos="right">
									<output> -0.008019239 </output>
								</split>
							</split>
							<split pos="right">
								<output> 0.041735638 </output>
							</split>
						</split>
						<split pos="right">
							<output> 9.978036E-4 </output>
						</split>
					</split>
				</split>
			</split>
		</split>
	</tree>
	<tree id="42" weight="0.1">
		<split>
			<feature> 63 </feature>
			<threshold> 2.0503075 </threshold>
			<split pos="left">
				<feature> 45 </feature>
				<threshold> -2.6398532 </threshold>
				<split pos="left">
					<output> 0.08033662 </output>
				</split>
				<split pos="right">
					<feature> 2 </feature>
					<threshold> 0.24822459 </threshold>
					<split pos="left">
						<feature> 15 </feature>
						<threshold> 0.98378175 </threshold>
						<split pos="left">
							<feature> 1 </feature>
							<threshold> 0.51305795 </threshold>
							<split pos="left">
								<feature> 41 </feature>
								<threshold> -1.2955947 </threshold>
								<split pos="left">
									<output> 0.058862887 </output>
								</split>
								<split pos="right">
									<feature> 38 </feature>
									<threshold> 3.1946495 </threshold>
									<split pos="left">
										<feature> 57 </feature>
										<threshold> 3.5760913 </threshold>
										<split pos="left">
											<feature> 27 </feature>
											<threshold> 3.297386 </threshold>
											<split pos="left">
												<output> 0.013406133 </output>
											</split>
											<split pos="right">
												<output> 0.25217345 </output>
											</split>
										</split>
										<split pos="right">
											<output> 0.44358924 </output>
										</split>
									</split>
									<split pos="right">
										<output> 0.21697924 </output>
									</split>
								</split>
							</split>
							<split pos="right">
								<output> -0.01208123 </output>
							</split>
						</split>
						<split pos="right">
							<output> 0.066052005 </output>
						</split>
					</split>
					<split pos="right">
						<output> -9.2570245E-4 </output>
					</split>
				</split>
			</split>
			<split pos="right">
				<output> 0.06551524 </output>
			</split>
		</split>
	</tree>
	<tree id="43" weight="0.1">
		<split>
			<feature> 18 </feature>
			<threshold> -2.6030846 </threshold>
			<split pos="left">
				<output> 0.093747295 </output>
			</split>
			<split pos="right">
				<feature> 29 </feature>
				<threshold> -1.753541 </threshold>
				<split pos="left">
					<output> 0.057967264 </output>
				</split>
				<split pos="right">
					<feature> 22 </feature>
					<threshold> 2.4745784 </threshold>
					<split pos="left">
						<feature> 30 </feature>
						<threshold> 3.4200132 </threshold>
						<split pos="left">
							<feature> 1 </feature>
							<threshold> -0.2879671 </threshold>
							<split pos="left">
								<output> 0.017177492 </output>
							</split>
							<split pos="right">
								<feature> 43 </feature>
								<threshold> 3.2716086 </threshold>
								<split pos="left">
									<feature> 64 </feature>
									<threshold> 3.667915 </threshold>
									<split pos="left">
										<feature> 20 </feature>
										<threshold> 2.4296923 </threshold>
										<split pos="left">
											<feature> 63 </feature>
											<threshold> -3.2401447 </threshold>
											<split pos="left">
												<output> 0.120272696 </output>
											</split>
											<split pos="right">
												<output> -0.001832373 </output>
											</split>
										</split>
										<split pos="right">
											<output> 0.08502827 </output>
										</split>
									</split>
									<split pos="right">
										<output> 0.35094598 </output>
									</split>
								</split>
								<split pos="right">
									<output> 0.10200922 </output>
								</split>
							</split>
						</split>
						<split pos="right">
							<output> 0.14404604 </output>
						</split>
					</split>
					<split pos="right">
						<output> 0.08858789 </output>
					</split>
				</split>
			</split>
		</split>
	</tree>
	<tree id="44" weight="0.1">
		<split>
			<feature> 11 </feature>
			<threshold> 0.22514346 </threshold>
			<split pos="left">
				<feature> 56 </feature>
				<threshold> 2.1713243 </threshold>
				<split pos="left">
					<feature> 1 </feature>
					<threshold> 1.7145953 </threshold>
					<split pos="left">
						<feature> 38 </feature>
						<threshold> 2.7192218 </threshold>
						<split pos="left">
							<feature> 46 </feature>
							<threshold> 2.583852 </threshold>
							<split pos="left">
								<feature> 27 </feature>
								<threshold> 2.1925886 </threshold>
								<split pos="left">
									<feature> 58 </feature>
									<threshold> 2.4399567 </threshold>
									<split pos="left">
										<feature> 1 </feature>
										<threshold> -0.2879671 </threshold>
										<split pos="left">
											<feature> 28 </feature>
											<threshold> -2.5697513 </threshold>
											<split pos="left">
												<output> 0.29236957 </output>
											</split>
											<split pos="right">
												<output> 0.013094576 </output>
											</split>
										</split>
										<split pos="right">
											<output> -0.0036054465 </output>
										</split>
									</split>
									<split pos="right">
										<output> 0.11498286 </output>
									</split>
								</split>
								<split pos="right">
									<output> 0.06048492 </output>
								</split>
							</split>
							<split pos="right">
								<output> 0.08447028 </output>
							</split>
						</split>
						<split pos="right">
							<output> 0.11024007 </output>
						</split>
					</split>
					<split pos="right">
						<output> -0.036645483 </output>
					</split>
				</split>
				<split pos="right">
					<output> 0.06896331 </output>
				</split>
			</split>
			<split pos="right">
				<output> 0.033552706 </output>
			</split>
		</split>
	</tree>
	<tree id="45" weight="0.1">
		<split>
			<feature> 60 </feature>
			<threshold> 2.2081041 </threshold>
			<split pos="left">
				<feature> 40 </feature>
				<threshold> 1.6872969 </threshold>
				<split pos="left">
					<feature> 28 </feature>
					<threshold> 2.0566087 </threshold>
					<split pos="left">
						<feature> 62 </feature>
						<threshold> -2.6653805 </threshold>
						<split pos="left">
							<output> 0.08726845 </output>
						</split>
						<split pos="right">
							<feature> 1 </feature>
							<threshold> -0.2879671 </threshold>
							<split pos="left">
								<output> 0.013378333 </output>
							</split>
							<split pos="right">
								<feature> 19 </feature>
								<threshold> 2.9770477 </threshold>
								<split pos="left">
									<feature> 61 </feature>
									<threshold> -4.343376 </threshold>
									<split pos="left">
										<output> 0.42523387 </output>
									</split>
									<split pos="right">
										<feature> 63 </feature>
										<threshold> 4.9222703 </threshold>
										<split pos="left">
											<feature> 51 </feature>
											<threshold> -2.2682972 </threshold>
											<split pos="left">
												<output> 0.04967477 </output>
											</split>
											<split pos="right">
												<output> -0.0053325393 </output>
											</split>
										</split>
										<split pos="right">
											<output> 0.75553286 </output>
										</split>
									</split>
								</split>
								<split pos="right">
									<output> 0.1438903 </output>
								</split>
							</split>
						</split>
					</split>
					<split pos="right">
						<output> 0.067222506 </output>
					</split>
				</split>
				<split pos="right">
					<output> 0.044294287 </output>
				</split>
			</split>
			<split pos="right">
				<output> 0.059618395 </output>
			</split>
		</split>
	</tree>
	<tree id="46" weight="0.1">
		<split>
			<feature> 44 </feature>
			<threshold> 0.94388354 </threshold>
			<split pos="left">
				<feature> 29 </feature>
				<threshold> 2.7529688 </threshold>
				<split pos="left">
					<feature> 51 </feature>
					<threshold> -2.9940283 </threshold>
					<split pos="left">
						<output> 0.1209526 </output>
					</split>
					<split pos="right">
						<feature> 2 </feature>
						<threshold> 1.6185601 </threshold>
						<split pos="left">
							<feature> 57 </feature>
							<threshold> -1.8096683 </threshold>
							<split pos="left">
								<output> 0.05262077 </output>
							</split>
							<split pos="right">
								<feature> 3 </feature>
								<threshold> 0.57570314 </threshold>
								<split pos="left">
									<feature> 66 </feature>
									<threshold> 2.4224746 </threshold>
									<split pos="left">
										<feature> 52 </feature>
										<threshold> -2.3572588 </threshold>
										<split pos="left">
											<output> 0.07115839 </output>
										</split>
										<split pos="right">
											<feature> 1 </feature>
											<threshold> -0.08771083 </threshold>
											<split pos="left">
												<output> 0.011639098 </output>
											</split>
											<split pos="right">
												<output> -0.006364286 </output>
											</split>
										</split>
									</split>
									<split pos="right">
										<output> 0.094656646 </output>
									</split>
								</split>
								<split pos="right">
									<output> -0.011131069 </output>
								</split>
							</split>
						</split>
						<split pos="right">
							<output> -0.023714507 </output>
						</split>
					</split>
				</split>
				<split pos="right">
					<output> 0.07781445 </output>
				</split>
			</split>
			<split pos="right">
				<output> 0.028286535 </output>
			</split>
		</split>
	</tree>
	<tree id="47" weight="0.1">
		<split>
			<feature> 64 </feature>
			<threshold> -2.148271 </threshold>
			<split pos="left">
				<output> 0.049598973 </output>
			</split>
			<split pos="right">
				<feature> 18 </feature>
				<threshold> 2.6557398 </threshold>
				<split pos="left">
					<feature> 3 </feature>
					<threshold> -0.8321261 </threshold>
					<split pos="left">
						<output> 0.017795 </output>
					</split>
					<split pos="right">
						<feature> 43 </feature>
						<threshold> 3.5749283 </threshold>
						<split pos="left">
							<feature> 35 </feature>
							<threshold> -3.2148607 </threshold>
							<split pos="left">
								<output> 0.115490444 </output>
							</split>
							<split pos="right">
								<feature> 66 </feature>
								<threshold> 2.9635127 </threshold>
								<split pos="left">
									<feature> 22 </feature>
									<threshold> -2.8778334 </threshold>
									<split pos="left">
										<output> 0.07620079 </output>
									</split>
									<split pos="right">
										<feature> 1 </feature>
										<threshold> 0.3128017 </threshold>
										<split pos="left">
											<feature> 40 </feature>
											<threshold> 2.488678 </threshold>
											<split pos="left">
												<output> 0.0016177533 </output>
											</split>
											<split pos="right">
												<output> 0.11497364 </output>
											</split>
										</split>
										<split pos="right">
											<output> -0.023175694 </output>
										</split>
									</split>
								</split>
								<split pos="right">
									<output> 0.10623145 </output>
								</split>
							</split>
						</split>
						<split pos="right">
							<output> 0.13559037 </output>
						</split>
					</split>
				</split>
				<split pos="right">
					<output> 0.08588842 </output>
				</split>
			</split>
		</split>
	</tree>
	<tree id="48" weight="0.1">
		<split>
			<feature> 55 </feature>
			<threshold> 1.8733456 </threshold>
			<split pos="left">
				<feature> 28 </feature>
				<threshold> -1.7672187 </threshold>
				<split pos="left">
					<output> 0.038071584 </output>
				</split>
				<split pos="right">
					<feature> 56 </feature>
					<threshold> 2.1713243 </threshold>
					<split pos="left">
						<feature> 3 </feature>
						<threshold> 1.0449796 </threshold>
						<split pos="left">
							<feature> 19 </feature>
							<threshold> 2.703733 </threshold>
							<split pos="left">
								<feature> 65 </feature>
								<threshold> -2.8118072 </threshold>
								<split pos="left">
									<output> 0.11580936 </output>
								</split>
								<split pos="right">
									<feature> 1 </feature>
									<threshold> -0.08771083 </threshold>
									<split pos="left">
										<feature> 49 </feature>
										<threshold> -2.2167993 </threshold>
										<split pos="left">
											<output> 0.16577387 </output>
										</split>
										<split pos="right">
											<feature> 56 </feature>
											<threshold> -1.6704321 </threshold>
											<split pos="left">
												<output> 0.08313866 </output>
											</split>
											<split pos="right">
												<output> 0.007411117 </output>
											</split>
										</split>
									</split>
									<split pos="right">
										<output> -0.006647265 </output>
									</split>
								</split>
							</split>
							<split pos="right">
								<output> 0.11880128 </output>
							</split>
						</split>
						<split pos="right">
							<output> -0.019154105 </output>
						</split>
					</split>
					<split pos="right">
						<output> 0.07268263 </output>
					</split>
				</split>
			</split>
			<split pos="right">
				<output> 0.04456297 </output>
			</split>
		</split>
	</tree>
	<tree id="49" weight="0.1">
		<split>
			<feature> 18 </feature>
			<threshold> -2.0187707 </threshold>
			<split pos="left">
				<output> 0.051128842 </output>
			</split>
			<split pos="right">
				<feature> 20 </feature>
				<threshold> 1.6253551 </threshold>
				<split pos="left">
					<feature> 22 </feature>
					<threshold> 1.8676034 </threshold>
					<split pos="left">
						<feature> 2 </feature>
						<threshold> -0.5739767 </threshold>
						<split pos="left">
							<output> 0.012710064 </output>
						</split>
						<split pos="right">
							<feature> 1 </feature>
							<threshold> 0.9135704 </threshold>
							<split pos="left">
								<feature> 38 </feature>
								<threshold> -1.7379049 </threshold>
								<split pos="left">
									<output> 0.047056254 </output>
								</split>
								<split pos="right">
									<feature> 42 </feature>
									<threshold> -3.061296 </threshold>
									<split pos="left">
										<output> 0.11875383 </output>
									</split>
									<split pos="right">
										<feature> 2 </feature>
										<threshold> 2.577795 </threshold>
										<split pos="left">
											<feature> 61 </feature>
											<threshold> -2.9479675 </threshold>
											<split pos="left">
												<output> 0.13235226 </output>
											</split>
											<split pos="right">
												<output> -0.0013759261 </output>
											</split>
										</split>
										<split pos="right">
											<output> -0.04634333 </output>
										</split>
									</split>
								</split>
							</split>
							<split pos="right">
								<output> -0.038279388 </output>
							</split>
						</split>
					</split>
					<split pos="right">
						<output> 0.049192425 </output>
					</split>
				</split>
				<split pos="right">
					<output> 0.044662688 </output>
				</split>
			</split>
		</split>
	</tree>
	<tree id="50" weight="0.1">
		<split>
			<feature> 47 </feature>
			<threshold> 1.965656 </threshold>
			<split pos="left">
				<feature> 30 </feature>
				<threshold> -1.9038949 </threshold>
				<split pos="left">
					<output> 0.045208495 </output>
				</split>
				<split pos="right">
					<feature> 32 </feature>
					<threshold> 1.8192753 </threshold>
					<split pos="left">
						<feature> 1 </feature>
						<threshold> -0.2879671 </threshold>
						<split pos="left">
							<output> 0.009226197 </output>
						</split>
						<split pos="right">
							<feature> 64 </feature>
							<threshold> -3.023274 </threshold>
							<split pos="left">
								<output> 0.07854156 </output>
							</split>
							<split pos="right">
								<feature> 59 </feature>
								<threshold> -2.8192801 </threshold>
								<split pos="left">
									<output> 0.109058164 </output>
								</split>
								<split pos="right">
									<feature> 36 </feature>
									<threshold> -3.3836846 </threshold>
									<split pos="left">
										<output> 0.105366334 </output>
									</split>
									<split pos="right">
										<feature> 49 </feature>
										<threshold> -3.5616682 </threshold>
										<split pos="left">
											<output> 0.11703261 </output>
										</split>
										<split pos="right">
											<feature> 63 </feature>
											<threshold> 3.8137908 </threshold>
											<split pos="left">
												<output> -0.010075064 </output>
											</split>
											<split pos="right">
												<output> 0.2588793 </output>
											</split>
										</split>
									</split>
								</split>
							</split>
						</split>
					</split>
					<split pos="right">
						<output> 0.040926166 </output>
					</split>
				</split>
			</split>
			<split pos="right">
				<output> 0.046157308 </output>
			</split>
		</split>
	</tree>
	<tree id="51" weight="0.1">
		<split>
			<feature> 53 </feature>
			<threshold> -3.9888375 </threshold>
			<split pos="left">
				<output> 0.23394714 </output>
			</split>
			<split pos="right">
				<feature> 27 </feature>
				<threshold> -2.4667816 </threshold>
				<split pos="left">
					<output> 0.09504923 </output>
				</split>
				<split pos="right">
					<feature> 34 </feature>
					<threshold> -3.3885121 </threshold>
					<split pos="left">
						<output> 0.12083433 </output>
					</split>
					<split pos="right">
						<feature> 1 </feature>
						<threshold> 1.5143391 </threshold>
						<split pos="left">
							<feature> 48 </feature>
							<threshold> 2.5276852 </threshold>
							<split pos="left">
								<feature> 59 </feature>
								<threshold> 2.9326603 </threshold>
								<split pos="left">
									<feature> 47 </feature>
									<threshold> -3.2750297 </threshold>
									<split pos="left">
										<output> 0.16044769 </output>
									</split>
									<split pos="right">
										<feature> 38 </feature>
										<threshold> -2.867045 </threshold>
										<split pos="left">
											<output> 0.09896024 </output>
										</split>
										<split pos="right">
											<feature> 22 </feature>
											<threshold> -1.5535241 </threshold>
											<split pos="left">
												<output> 0.036712572 </output>
											</split>
											<split pos="right">
												<output> 0.0017323502 </output>
											</split>
										</split>
									</split>
								</split>
								<split pos="right">
									<output> 0.1030961 </output>
								</split>
							</split>
							<split pos="right">
								<output> 0.081855185 </output>
							</split>
						</split>
						<split pos="right">
							<output> -0.032259006 </output>
						</split>
					</split>
				</split>
			</split>
		</split>
	</tree>
	<tree id="52" weight="0.1">
		<split>
			<feature> 11 </feature>
			<threshold> -0.23887374 </threshold>
			<split pos="left">
				<feature> 48 </feature>
				<threshold> 4.491517 </threshold>
				<split pos="left">
					<feature> 1 </feature>
					<threshold> -0.08771083 </threshold>
					<split pos="left">
						<feature> 59 </feature>
						<threshold> 1.1962255 </threshold>
						<split pos="left">
							<feature> 36 </feature>
							<threshold> 3.034182 </threshold>
							<split pos="left">
								<feature> 56 </feature>
								<threshold> 2.8999336 </threshold>
								<split pos="left">
									<feature> 64 </feature>
									<threshold> -0.8615049 </threshold>
									<split pos="left">
										<output> 0.029871443 </output>
									</split>
									<split pos="right">
										<feature> 27 </feature>
										<threshold> -1.6982261 </threshold>
										<split pos="left">
											<output> 0.04778487 </output>
										</split>
										<split pos="right">
											<feature> 16 </feature>
											<threshold> -0.4965589 </threshold>
											<split pos="left">
												<output> 0.0028483865 </output>
											</split>
											<split pos="right">
												<output> -0.016730813 </output>
											</split>
										</split>
									</split>
								</split>
								<split pos="right">
									<output> 0.22351533 </output>
								</split>
							</split>
							<split pos="right">
								<output> 0.473562 </output>
							</split>
						</split>
						<split pos="right">
							<output> 0.0555031 </output>
						</split>
					</split>
					<split pos="right">
						<output> -0.009658352 </output>
					</split>
				</split>
				<split pos="right">
					<output> 0.2671554 </output>
				</split>
			</split>
			<split pos="right">
				<output> 0.01981692 </output>
			</split>
		</split>
	</tree>
	<tree id="53" weight="0.1">
		<split>
			<feature> 42 </feature>
			<threshold> -1.7029115 </threshold>
			<split pos="left">
				<output> 0.035219483 </output>
			</split>
			<split pos="right">
				<feature> 29 </feature>
				<threshold> 4.104922 </threshold>
				<split pos="left">
					<feature> 34 </feature>
					<threshold> -3.3885121 </threshold>
					<split pos="left">
						<output> 0.13455912 </output>
					</split>
					<split pos="right">
						<feature> 15 </feature>
						<threshold> 4.3867593 </threshold>
						<split pos="left">
							<feature> 1 </feature>
							<threshold> 0.3128017 </threshold>
							<split pos="left">
								<feature> 60 </feature>
								<threshold> 1.4723432 </threshold>
								<split pos="left">
									<feature> 20 </feature>
									<threshold> 2.4967203 </threshold>
									<split pos="left">
										<feature> 50 </feature>
										<threshold> -2.4585052 </threshold>
										<split pos="left">
											<output> 0.11359275 </output>
										</split>
										<split pos="right">
											<feature> 48 </feature>
											<threshold> 1.1992122 </threshold>
											<split pos="left">
												<output> -1.599722E-4 </output>
											</split>
											<split pos="right">
												<output> 0.0330911 </output>
											</split>
										</split>
									</split>
									<split pos="right">
										<output> 0.12948647 </output>
									</split>
								</split>
								<split pos="right">
									<output> 0.05068459 </output>
								</split>
							</split>
							<split pos="right">
								<output> -0.016869284 </output>
							</split>
						</split>
						<split pos="right">
							<output> 0.15027608 </output>
						</split>
					</split>
				</split>
				<split pos="right">
					<output> 0.23226765 </output>
				</split>
			</split>
		</split>
	</tree>
	<tree id="54" weight="0.1">
		<split>
			<feature> 44 </feature>
			<threshold> 2.0227373 </threshold>
			<split pos="left">
				<feature> 17 </feature>
				<threshold> 4.6265316 </threshold>
				<split pos="left">
					<feature> 2 </feature>
					<threshold> 1.2074594 </threshold>
					<split pos="left">
						<feature> 15 </feature>
						<threshold> 1.8345262 </threshold>
						<split pos="left">
							<feature> 1 </feature>
							<threshold> 0.51305795 </threshold>
							<split pos="left">
								<feature> 29 </feature>
								<threshold> 2.5839746 </threshold>
								<split pos="left">
									<feature> 32 </feature>
									<threshold> 1.8192753 </threshold>
									<split pos="left">
										<feature> 20 </feature>
										<threshold> 2.2956362 </threshold>
										<split pos="left">
											<feature> 51 </feature>
											<threshold> -1.3750896 </threshold>
											<split pos="left">
												<output> 0.038194858 </output>
											</split>
											<split pos="right">
												<output> 0.0016319219 </output>
											</split>
										</split>
										<split pos="right">
											<output> 0.113634065 </output>
										</split>
									</split>
									<split pos="right">
										<output> 0.060423296 </output>
									</split>
								</split>
								<split pos="right">
									<output> 0.109270364 </output>
								</split>
							</split>
							<split pos="right">
								<output> -0.020214314 </output>
							</split>
						</split>
						<split pos="right">
							<output> 0.050082844 </output>
						</split>
					</split>
					<split pos="right">
						<output> -0.017502747 </output>
					</split>
				</split>
				<split pos="right">
					<output> 0.33282775 </output>
				</split>
			</split>
			<split pos="right">
				<output> 0.0403665 </output>
			</split>
		</split>
	</tree>
	<tree id="55" weight="0.1">
		<split>
			<feature> 41 </feature>
			<threshold> -0.7693155 </threshold>
			<split pos="left">
				<output> 0.018804314 </output>
			</split>
			<split pos="right">
				<feature> 64 </feature>
				<threshold> -2.5085664 </threshold>
				<split pos="left">
					<output> 0.055181816 </output>
