SVM-light Version V6.20
0 # kernel type
3 # kernel parameter -d 
1 # kernel parameter -g 
1 # kernel parameter -s 
1 # kernel parameter -r 
empty# kernel parameter -u 
117 # highest feature index 
203 # number of training documents 
2 # number of support vectors plus 1 
0 # threshold b, each following line is a SV (starting with alpha*y)
1 1:-0.23370463 4:-0.074249573 5:0.19835237 6:0.017906919 7:0.011296264 8:-0.015688928 9:0.0031955726 10:0.021689229 11:0.11838014 12:-0.23232785 13:-0.042406838 14:0.0042481087 15:0.69049817 16:0.39336789 17:0.072964571 18:-0.018008232 19:0.0088922977 20:-0.046655077 21:0.033078551 22:-0.018251458 23:-0.030956073 24:-0.062927164 25:-0.043931115 26:0.057546731 27:-0.052157447 28:-0.072020009 29:0.0093236025 30:0.02459299 31:-0.01347355 32:0.0090879835 33:0.0052897111 34:-0.054483697 35:-0.067126594 36:-0.074100316 37:0.038278434 38:0.057159599 39:-0.10948338 40:-0.040734034 41:-0.046400741 42:-0.056556694 43:0.14380617 44:0.22323546 45:0.080263965 46:-0.0059566777 47:0.11695083 48:0.087190531 49:-0.039898135 50:0.076855615 51:0.019486029 52:0.018150488 53:0.030419897 54:0.04386428 55:0.062472641 56:-0.030527821 57:0.010556379 58:-0.038234632 59:0.016954945 60:-0.055558179 61:-0.057244636 62:0.038597114 63:0.11474298 64:-0.13832356 65:-0.051019337 66:0.11532265 67:-0.021228759 68:-0.020456558 69:-0.087642662 70:-0.023094749 71:-0.011915155 72:-0.041118085 73:-0.034778524 74:-0.029164545 75:-0.043862537 76:-0.052541468 77:-0.043438818 78:-0.025084332 79:-0.032109741 80:-0.042830303 81:0.0006422411 82:-0.074305803 83:-0.044308532 84:-0.015231071 85:-0.0065944265 86:-0.013033986 87:-0.068807088 88:-0.013409981 89:-0.043337952 90:-0.013059391 91:-0.028338993 92:-0.028537825 93:-0.02206924 94:-0.019366821 95:-0.0079947216 96:-0.0095275184 97:-0.007215213 98:-0.041286416 99:-0.0016080765 100:0.028715763 101:-0.030933032 102:-0.031564411 103:-0.028902411 104:-0.024929883 105:-0.013792652 106:0.020016642 107:-0.037373621 108:-0.040918346 109:-0.06004582 110:-0.034293916 111:0.0029142308 112:-0.036790762 113:-0.028570198 114:-0.0077342517 115:-0.044972423 116:-0.0043492555 #
