SVM-light Version V6.20
0 # kernel type
3 # kernel parameter -d 
1 # kernel parameter -g 
1 # kernel parameter -s 
1 # kernel parameter -r 
empty# kernel parameter -u 
117 # highest feature index 
3 # number of training documents 
2 # number of support vectors plus 1 
0 # threshold b, each following line is a SV (starting with alpha*y)
1 1:0.021654675 4:-0.0036071583 5:0.011495883 6:0.0136453 7:0.0082040951 8:0.0094906269 9:0.0075063007 10:0.0075111715 11:0.021083893 12:0.012821945 13:0.0026141996 14:0.0056118122 15:0.08876092 16:0.075791039 17:0.010432837 18:-0.00042164963 19:-0.011128341 20:-0.014753319 21:-0.0036223503 22:-0.009545004 23:-0.01452359 24:-0.00013791908 25:-0.00036716097 26:0.010953326 27:0.016255515 28:-0.017811587 29:0.016693067 30:0.0024032083 31:0.00069491682 32:-0.0057277856 33:0.00012202631 34:-0.017355034 35:-0.014135617 36:-0.015064339 37:0.013434082 38:0.010766902 39:-0.016739264 40:0.0079512168 41:0.00067686068 42:-0.013269363 43:0.02135306 44:0.028409058 45:0.0006293992 46:0.0035738212 47:0.011640212 48:0.0094724428 49:-0.019960018 50:0.010274686 51:-0.0055702836 52:0.0038213821 53:0.0021709467 54:0.0094681084 55:0.0061692689 56:-0.014881643 57:0.01296787 58:-0.015628131 59:0.0086535066 60:0.0070537194 61:-0.020242825 62:0.0077063492 63:0.0085547483 64:-0.026607735 65:0.0056593698 66:0.0077630123 67:-0.0040951599 68:-0.003442303 69:-0.0036303827 70:-0.0017183174 71:-0.003879752 72:-0.0041995817 73:-0.0042278408 74:-0.0037714723 75:-0.0042064982 76:-0.0042070886 77:-0.0050332933 78:-0.0069392193 79:-0.0027697554 80:-0.0046726908 81:-0.00043404999 82:-0.0062386682 83:-0.004319605 84:-0.0058598565 85:-0.0050924635 86:-0.0035583843 87:-0.0011100398 88:-0.0052496972 89:-0.0041151028 90:-0.0050317268 91:-0.0035883859 92:-0.0044279546 93:-0.0069849421 94:-0.0037279087 95:-0.0057250806 96:-0.0016994842 97:-0.00049797707 98:-0.0082321055 99:-0.0048601711 100:-0.00401296 101:-0.0023667817 102:-0.0063433107 103:-0.0065201479 104:-0.004237581 105:0.0013765715 106:0.00022180425 107:-0.0071389908 108:-0.0059827315 109:-0.0062850821 110:-0.0047218804 111:-0.0021456971 112:-0.0038695722 113:-0.0034071892 114:-0.0057346802 115:0.0010730546 116:0.00083597936 #
